<?xml version="1.0"?>
<MethodSetup Method="BDT::BDTG">
  <GeneralInfo>
    <Info name="TMVA Release" value="4.2.1 [262657]"/>
    <Info name="ROOT Release" value="6.10/09 [395785]"/>
    <Info name="Creator" value="lmastrol"/>
    <Info name="Date" value="Fri Jun 15 09:50:54 2018"/>
    <Info name="Host" value="Linux cmsbuild09.cern.ch 2.6.32-696.18.7.el6.x86_64 #1 SMP Thu Jan 4 13:27:39 CET 2018 x86_64 x86_64 x86_64 GNU/Linux"/>
    <Info name="Dir" value="/afs/desy.de/user/l/lmastrol/Work/May18/dnn/20_05/CMSSW_10_1_0/src/AnalysisTools/scripts"/>
    <Info name="Training events" value="150896"/>
    <Info name="TrainingTime" value="1.02824420e+02"/>
    <Info name="AnalysisType" value="Classification"/>
  </GeneralInfo>
  <Options>
    <Option name="V" modified="Yes">False</Option>
    <Option name="VerbosityLevel" modified="No">Default</Option>
    <Option name="VarTransform" modified="No">None</Option>
    <Option name="H" modified="Yes">False</Option>
    <Option name="CreateMVAPdfs" modified="No">False</Option>
    <Option name="IgnoreNegWeightsInTraining" modified="No">False</Option>
    <Option name="NTrees" modified="Yes">1000</Option>
    <Option name="MaxDepth" modified="Yes">2</Option>
    <Option name="MinNodeSize" modified="Yes">2.5%</Option>
    <Option name="nCuts" modified="Yes">20</Option>
    <Option name="BoostType" modified="Yes">Grad</Option>
    <Option name="AdaBoostR2Loss" modified="No">quadratic</Option>
    <Option name="UseBaggedBoost" modified="Yes">True</Option>
    <Option name="Shrinkage" modified="Yes">1.000000e-01</Option>
    <Option name="AdaBoostBeta" modified="No">5.000000e-01</Option>
    <Option name="UseRandomisedTrees" modified="No">False</Option>
    <Option name="UseNvars" modified="No">4</Option>
    <Option name="UsePoissonNvars" modified="No">True</Option>
    <Option name="BaggedSampleFraction" modified="Yes">5.000000e-01</Option>
    <Option name="UseYesNoLeaf" modified="No">True</Option>
    <Option name="NegWeightTreatment" modified="No">pray</Option>
    <Option name="Css" modified="No">1.000000e+00</Option>
    <Option name="Cts_sb" modified="No">1.000000e+00</Option>
    <Option name="Ctb_ss" modified="No">1.000000e+00</Option>
    <Option name="Cbb" modified="No">1.000000e+00</Option>
    <Option name="NodePurityLimit" modified="No">5.000000e-01</Option>
    <Option name="SeparationType" modified="No">giniindex</Option>
    <Option name="RegressionLossFunctionBDTG" modified="No">huber</Option>
    <Option name="HuberQuantile" modified="No">7.000000e-01</Option>
    <Option name="DoBoostMonitor" modified="No">False</Option>
    <Option name="UseFisherCuts" modified="No">False</Option>
    <Option name="MinLinCorrForFisher" modified="No">8.000000e-01</Option>
    <Option name="UseExclusiveVars" modified="No">False</Option>
    <Option name="DoPreselection" modified="No">False</Option>
    <Option name="SigToBkgFraction" modified="No">1.000000e+00</Option>
    <Option name="PruneMethod" modified="No">nopruning</Option>
    <Option name="PruneStrength" modified="No">0.000000e+00</Option>
    <Option name="PruningValFraction" modified="No">5.000000e-01</Option>
    <Option name="SkipNormalization" modified="No">False</Option>
    <Option name="nEventsMin" modified="No">0</Option>
    <Option name="UseBaggedGrad" modified="No">False</Option>
    <Option name="GradBaggingFraction" modified="No">5.000000e-01</Option>
    <Option name="UseNTrainEvents" modified="No">0</Option>
    <Option name="NNodesMax" modified="No">0</Option>
  </Options>
  <Variables NVar="16">
    <Variable VarIndex="0" Expression="H_mass_fit_fallback" Label="H_mass_fit_fallback" Title="H_mass_fit_fallback" Unit="" Internal="H_mass_fit_fallback" Type="F" Min="9.00039139e+01" Max="1.49999359e+02"/>
    <Variable VarIndex="1" Expression="H_pt_fit_fallback" Label="H_pt_fit_fallback" Title="H_pt_fit_fallback" Unit="" Internal="H_pt_fit_fallback" Type="F" Min="1.00001183e+02" Max="2.23173218e+03"/>
    <Variable VarIndex="2" Expression="V_pt" Label="V_pt" Title="V_pt" Unit="" Internal="V_pt" Type="F" Min="1.50001801e+02" Max="1.75803345e+03"/>
    <Variable VarIndex="3" Expression="hJets_btagged_0" Label="hJets_btagged_0" Title="hJets_btagged_0" Unit="" Internal="hJets_btagged_0" Type="F" Min="-5.87402344e-01" Max="9.99511719e-01"/>
    <Variable VarIndex="4" Expression="hJets_btagged_1" Label="hJets_btagged_1" Title="hJets_btagged_1" Unit="" Internal="hJets_btagged_1" Type="F" Min="-5.88378906e-01" Max="9.99511719e-01"/>
    <Variable VarIndex="5" Expression="nAddJets_2lep" Label="nAddJets_2lep" Title="nAddJets_2lep" Unit="" Internal="nAddJets_2lep" Type="F" Min="0.00000000e+00" Max="9.00000000e+00"/>
    <Variable VarIndex="6" Expression="SA5" Label="SA5" Title="SA5" Unit="" Internal="SA5" Type="I" Min="-1.00000000e+00" Max="6.00000000e+00"/>
    <Variable VarIndex="7" Expression="V_mass" Label="V_mass" Title="V_mass" Unit="" Internal="V_mass" Type="F" Min="7.50018234e+01" Max="1.04999687e+02"/>
    <Variable VarIndex="8" Expression="MET_Pt" Label="MET_Pt" Title="MET_Pt" Unit="" Internal="MET_Pt" Type="F" Min="1.99570104e-01" Max="6.51550171e+02"/>
    <Variable VarIndex="9" Expression="hJets_leadingPt" Label="hJets_leadingPt" Title="hJets_leadingPt" Unit="" Internal="hJets_leadingPt" Type="F" Min="2.55762634e+01" Max="2.17987720e+03"/>
    <Variable VarIndex="10" Expression="hJets_subleadingPt" Label="hJets_subleadingPt" Title="hJets_subleadingPt" Unit="" Internal="hJets_subleadingPt" Type="F" Min="2.00013676e+01" Max="1.81182397e+03"/>
    <Variable VarIndex="11" Expression="jjVPtRatio_fit_fallback" Label="jjVPtRatio_fit_fallback" Title="jjVPtRatio_fit_fallback" Unit="" Internal="jjVPtRatio_fit_fallback" Type="F" Min="9.22358111e-02" Max="1.14208660e+01"/>
    <Variable VarIndex="12" Expression="HJ1_HJ2_dEta" Label="HJ1_HJ2_dEta" Title="HJ1_HJ2_dEta" Unit="" Internal="HJ1_HJ2_dEta" Type="F" Min="0.00000000e+00" Max="4.38958836e+00"/>
    <Variable VarIndex="13" Expression="HVdPhi_fit_fallback" Label="HVdPhi_fit_fallback" Title="HVdPhi_fit_fallback" Unit="" Internal="HVdPhi_fit_fallback" Type="F" Min="8.91362488e-01" Max="3.14159250e+00"/>
    <Variable VarIndex="14" Expression="n_recoil_jets_fit" Label="n_recoil_jets_fit" Title="n_recoil_jets_fit" Unit="" Internal="n_recoil_jets_fit" Type="F" Min="-1.00000000e+00" Max="1.20000000e+01"/>
    <Variable VarIndex="15" Expression="H_mass_sigma_fit" Label="H_mass_sigma_fit" Title="H_mass_sigma_fit" Unit="" Internal="H_mass_sigma_fit" Type="F" Min="-1.00000000e+00" Max="7.77902588e+02"/>
  </Variables>
  <Spectators NSpec="0"/>
  <Classes NClass="2">
    <Class Name="Signal" Index="0"/>
    <Class Name="Background" Index="1"/>
  </Classes>
  <Transformations NTransformations="0"/>
  <MVAPdfs/>
  <Weights NTrees="1000" AnalysisType="1">
    <BinaryTree type="DecisionTree" boostWeight="1.0000000000000000e+00" itree="0">
      <Node pos="s" depth="0" NCoef="0" IVar="3" Cut="8.4837704896926880e-01" cType="1" res="1.6598179936408997e-03" rms="4.9999725818634033e-01" purity="5.0165987014770508e-01" nType="0">
        <Node pos="l" depth="1" NCoef="0" IVar="4" Cut="-4.2433965951204300e-02" cType="1" res="-3.0569779872894287e-01" rms="3.9566254615783691e-01" purity="1.9430220127105713e-01" nType="0">
          <Node pos="l" depth="2" NCoef="0" IVar="-1" Cut="0.0000000000000000e+00" cType="1" res="-3.6662414204329252e-03" rms="3.3699873089790344e-01" purity="1.3063316047191620e-01" nType="-99"/>
          <Node pos="r" depth="2" NCoef="0" IVar="-1" Cut="0.0000000000000000e+00" cType="1" res="-1.6845423961058259e-03" rms="4.9010208249092102e-01" purity="4.0100526809692383e-01" nType="-99"/>
        </Node>
        <Node pos="r" depth="1" NCoef="0" IVar="4" Cut="2.4337331950664520e-01" cType="1" res="2.0577795803546906e-01" rms="4.5569226145744324e-01" purity="7.0577794313430786e-01" nType="0">
          <Node pos="l" depth="2" NCoef="0" IVar="-1" Cut="0.0000000000000000e+00" cType="1" res="2.1373534109443426e-03" rms="4.9540892243385315e-01" purity="5.6760162115097046e-01" nType="-99"/>
          <Node pos="r" depth="2" NCoef="0" IVar="-1" Cut="0.0000000000000000e+00" cType="1" res="1.2611873447895050e-02" rms="4.1996386647224426e-01" purity="7.7134913206100464e-01" nType="-99"/>
        </Node>
      </Node>
    </BinaryTree>
    <BinaryTree type="DecisionTree" boostWeight="1.0000000000000000e+00" itree="1">
      <Node pos="s" depth="0" NCoef="0" IVar="3" Cut="9.2394435405731201e-01" cType="1" res="-2.3152816575020552e-03" rms="4.9813589453697205e-01" purity="4.9979627132415771e-01" nType="0">
        <Node pos="l" depth="1" NCoef="0" IVar="3" Cut="5.6401133537292480e-01" cType="1" res="-2.7352085709571838e-01" rms="4.1737490892410278e-01" purity="2.2549793124198914e-01" nType="0">
          <Node pos="l" depth="2" NCoef="0" IVar="-1" Cut="0.0000000000000000e+00" cType="1" res="-3.5782586783170700e-03" rms="3.2280021905899048e-01" purity="1.1821871995925903e-01" nType="-99"/>
          <Node pos="r" depth="2" NCoef="0" IVar="-1" Cut="0.0000000000000000e+00" cType="1" res="-1.3972315937280655e-03" rms="4.9001795053482056e-01" purity="4.0283116698265076e-01" nType="-99"/>
        </Node>
        <Node pos="r" depth="1" NCoef="0" IVar="0" Cut="1.0714479827880859e+02" cType="1" res="2.2925087809562683e-01" rms="4.4141283631324768e-01" purity="7.3400318622589111e-01" nType="0">
          <Node pos="l" depth="2" NCoef="0" IVar="-1" Cut="0.0000000000000000e+00" cType="1" res="1.9713661167770624e-03" rms="4.9587747454643250e-01" purity="5.6090009212493896e-01" nType="-99"/>
          <Node pos="r" depth="2" NCoef="0" IVar="-1" Cut="0.0000000000000000e+00" cType="1" res="1.7472157254815102e-02" rms="4.0981456637382507e-01" purity="7.8580337762832642e-01" nType="-99"/>
        </Node>
      </Node>
    </BinaryTree>
    <BinaryTree type="DecisionTree" boostWeight="1.0000000000000000e+00" itree="2">
      <Node pos="s" depth="0" NCoef="0" IVar="3" Cut="8.4837704896926880e-01" cType="1" res="-4.6337968669831753e-03" rms="4.9563187360763550e-01" purity="5.0057816505432129e-01" nType="0">
        <Node pos="l" depth="1" NCoef="0" IVar="3" Cut="5.7470703125000000e-01" cType="1" res="-3.0623611807823181e-01" rms="3.9257428050041199e-01" purity="1.9066457450389862e-01" nType="0">
          <Node pos="l" depth="2" NCoef="0" IVar="-1" Cut="0.0000000000000000e+00" cType="1" res="-3.3537645358592272e-03" rms="3.2784026861190796e-01" purity="1.2253038585186005e-01" nType="-99"/>
          <Node pos="r" depth="2" NCoef="0" IVar="-1" Cut="0.0000000000000000e+00" cType="1" res="-1.8114005215466022e-03" rms="4.8661300539970398e-01" purity="3.8549047708511353e-01" nType="-99"/>
        </Node>
        <Node pos="r" depth="1" NCoef="0" IVar="4" Cut="-5.9082031250000000e-02" cType="1" res="2.0267051458358765e-01" rms="4.5063215494155884e-01" purity="7.1359527111053467e-01" nType="0">
          <Node pos="l" depth="2" NCoef="0" IVar="-1" Cut="0.0000000000000000e+00" cType="1" res="3.9804664993425831e-05" rms="4.9905663728713989e-01" purity="5.0853890180587769e-01" nType="-99"/>
          <Node pos="r" depth="2" NCoef="0" IVar="-1" Cut="0.0000000000000000e+00" cType="1" res="1.4717869460582733e-02" rms="4.1856825351715088e-01" purity="7.7202928066253662e-01" nType="-99"/>
        </Node>
      </Node>
    </BinaryTree>
    <BinaryTree type="DecisionTree" boostWeight="1.0000000000000000e+00" itree="3">
      <Node pos="s" depth="0" NCoef="0" IVar="3" Cut="9.2394435405731201e-01" cType="1" res="-7.5974664650857449e-03" rms="4.9351742863655090e-01" purity="5.0043725967407227e-01" nType="0">
        <Node pos="l" depth="1" NCoef="0" IVar="3" Cut="5.6401133537292480e-01" cType="1" res="-2.7304384112358093e-01" rms="4.1543766856193542e-01" purity="2.2376227378845215e-01" nType="0">
          <Node pos="l" depth="2" NCoef="0" IVar="-1" Cut="0.0000000000000000e+00" cType="1" res="-3.6847132723778486e-03" rms="3.2401451468467712e-01" purity="1.1924242973327637e-01" nType="-99"/>
          <Node pos="r" depth="2" NCoef="0" IVar="-1" Cut="0.0000000000000000e+00" cType="1" res="-1.3387027429416776e-03" rms="4.9057203531265259e-01" purity="4.0860384702682495e-01" nType="-99"/>
        </Node>
        <Node pos="r" depth="1" NCoef="0" IVar="0" Cut="1.0428977966308594e+02" cType="1" res="2.1864090859889984e-01" rms="4.3910095095634460e-01" purity="7.3624575138092041e-01" nType="0">
          <Node pos="l" depth="2" NCoef="0" IVar="-1" Cut="0.0000000000000000e+00" cType="1" res="8.4551388863474131e-04" rms="4.9762758612632751e-01" purity="5.4103124141693115e-01" nType="-99"/>
          <Node pos="r" depth="2" NCoef="0" IVar="-1" Cut="0.0000000000000000e+00" cType="1" res="1.5630463138222694e-02" rms="4.1414830088615417e-01" purity="7.7853399515151978e-01" nType="-99"/>
        </Node>
      </Node>
    </BinaryTree>
    <BinaryTree type="DecisionTree" boostWeight="1.0000000000000000e+00" itree="4">
      <Node pos="s" depth="0" NCoef="0" IVar="3" Cut="8.4837704896926880e-01" cType="1" res="-1.4618654735386372e-02" rms="4.9130433797836304e-01" purity="4.9621269106864929e-01" nType="0">
        <Node pos="l" depth="1" NCoef="0" IVar="3" Cut="5.7470703125000000e-01" cType="1" res="-3.0346512794494629e-01" rms="3.9214220643043518e-01" purity="1.9043128192424774e-01" nType="0">
          <Node pos="l" depth="2" NCoef="0" IVar="-1" Cut="0.0000000000000000e+00" cType="1" res="-3.3522057346999645e-03" rms="3.2706683874130249e-01" purity="1.2185963243246078e-01" nType="-99"/>
          <Node pos="r" depth="2" NCoef="0" IVar="-1" Cut="0.0000000000000000e+00" cType="1" res="-1.9868733361363411e-03" rms="4.8684144020080566e-01" purity="3.8645654916763306e-01" nType="-99"/>
        </Node>
        <Node pos="r" depth="1" NCoef="0" IVar="4" Cut="-2.8592354059219360e-01" cType="1" res="1.8131244182586670e-01" rms="4.5367500185966492e-01" purity="7.0363116264343262e-01" nType="0">
          <Node pos="l" depth="2" NCoef="0" IVar="-1" Cut="0.0000000000000000e+00" cType="1" res="-9.6445635426789522e-04" rms="4.9540683627128601e-01" purity="4.5142048597335815e-01" nType="-99"/>
          <Node pos="r" depth="2" NCoef="0" IVar="-1" Cut="0.0000000000000000e+00" cType="1" res="1.0525674559175968e-02" rms="4.3367800116539001e-01" purity="7.4540418386459351e-01" nType="-99"/>
        </Node>
      </Node>
    </BinaryTree>
    <BinaryTree type="DecisionTree" boostWeight="1.0000000000000000e+00" itree="5">
      <Node pos="s" depth="0" NCoef="0" IVar="3" Cut="9.2394435405731201e-01" cType="1" res="-1.4302321709692478e-02" rms="4.8978480696678162e-01" purity="4.9848872423171997e-01" nType="0">
        <Node pos="l" depth="1" NCoef="0" IVar="4" Cut="-1.3416108675301075e-02" cType="1" res="-2.6895770430564880e-01" rms="4.1613674163818359e-01" purity="2.2563733160495758e-01" nType="0">
          <Node pos="l" depth="2" NCoef="0" IVar="-1" Cut="0.0000000000000000e+00" cType="1" res="-3.0009320471435785e-03" rms="3.5586166381835938e-01" purity="1.4931532740592957e-01" nType="-99"/>
          <Node pos="r" depth="2" NCoef="0" IVar="-1" Cut="0.0000000000000000e+00" cType="1" res="-1.0714073432609439e-03" rms="4.9522340297698975e-01" purity="4.4494810700416565e-01" nType="-99"/>
        </Node>
        <Node pos="r" depth="1" NCoef="0" IVar="10" Cut="5.8891532897949219e+01" cType="1" res="2.0779401063919067e-01" rms="4.3839856982231140e-01" purity="7.3645466566085815e-01" nType="0">
          <Node pos="l" depth="2" NCoef="0" IVar="-1" Cut="0.0000000000000000e+00" cType="1" res="5.8410847559571266e-03" rms="4.7571775317192078e-01" purity="6.4796227216720581e-01" nType="-99"/>
          <Node pos="r" depth="2" NCoef="0" IVar="-1" Cut="0.0000000000000000e+00" cType="1" res="1.6753364354372025e-02" rms="3.9355301856994629e-01" purity="8.0562448501586914e-01" nType="-99"/>
        </Node>
      </Node>
    </BinaryTree>
    <BinaryTree type="DecisionTree" boostWeight="1.0000000000000000e+00" itree="6">
      <Node pos="s" depth="0" NCoef="0" IVar="3" Cut="6.9724237918853760e-01" cType="1" res="-9.1291051357984543e-03" rms="4.8791235685348511e-01" purity="5.0675982236862183e-01" nType="0">
        <Node pos="l" depth="1" NCoef="0" IVar="3" Cut="3.9102026820182800e-01" cType="1" res="-3.3356869220733643e-01" rms="3.6332136392593384e-01" purity="1.5692289173603058e-01" nType="0">
          <Node pos="l" depth="2" NCoef="0" IVar="-1" Cut="0.0000000000000000e+00" cType="1" res="-3.7836823612451553e-03" rms="3.0829378962516785e-01" purity="1.0641591995954514e-01" nType="-99"/>
          <Node pos="r" depth="2" NCoef="0" IVar="-1" Cut="0.0000000000000000e+00" cType="1" res="-2.5435613933950663e-03" rms="4.5760688185691833e-01" purity="2.9929754137992859e-01" nType="-99"/>
        </Node>
        <Node pos="r" depth="1" NCoef="0" IVar="4" Cut="3.9460101723670959e-01" cType="1" res="1.5630120038986206e-01" rms="4.5945256948471069e-01" purity="6.8514013290405273e-01" nType="0">
          <Node pos="l" depth="2" NCoef="0" IVar="-1" Cut="0.0000000000000000e+00" cType="1" res="1.0887865209951997e-03" rms="4.9270656704902649e-01" purity="5.5328029394149780e-01" nType="-99"/>
          <Node pos="r" depth="2" NCoef="0" IVar="-1" Cut="0.0000000000000000e+00" cType="1" res="1.2774313800036907e-02" rms="4.1357335448265076e-01" purity="7.7786338329315186e-01" nType="-99"/>
        </Node>
      </Node>
    </BinaryTree>
    <BinaryTree type="DecisionTree" boostWeight="1.0000000000000000e+00" itree="7">
      <Node pos="s" depth="0" NCoef="0" IVar="3" Cut="6.9761437177658081e-01" cType="1" res="-1.8074756488204002e-02" rms="4.8591783642768860e-01" purity="4.9974772334098816e-01" nType="0">
        <Node pos="l" depth="1" NCoef="0" IVar="4" Cut="-3.8434710353612900e-02" cType="1" res="-3.4440618753433228e-01" rms="3.5088568925857544e-01" purity="1.4430327713489532e-01" nType="0">
          <Node pos="l" depth="2" NCoef="0" IVar="-1" Cut="0.0000000000000000e+00" cType="1" res="-3.5684700123965740e-03" rms="3.0665716528892517e-01" purity="1.0523561388254166e-01" nType="-99"/>
          <Node pos="r" depth="2" NCoef="0" IVar="-1" Cut="0.0000000000000000e+00" cType="1" res="-3.2100044190883636e-03" rms="4.8002800345420837e-01" purity="3.6139765381813049e-01" nType="-99"/>
        </Node>
        <Node pos="r" depth="1" NCoef="0" IVar="4" Cut="1.6775949299335480e-01" cType="1" res="1.4832791686058044e-01" rms="4.6015474200248718e-01" purity="6.8099564313888550e-01" nType="0">
          <Node pos="l" depth="2" NCoef="0" IVar="-1" Cut="0.0000000000000000e+00" cType="1" res="-3.3110878575826064e-05" rms="4.9526351690292358e-01" purity="5.1537221670150757e-01" nType="-99"/>
          <Node pos="r" depth="2" NCoef="0" IVar="-1" Cut="0.0000000000000000e+00" cType="1" res="1.1358199641108513e-02" rms="4.2480614781379700e-01" purity="7.5896596908569336e-01" nType="-99"/>
        </Node>
      </Node>
    </BinaryTree>
    <BinaryTree type="DecisionTree" boostWeight="1.0000000000000000e+00" itree="8">
      <Node pos="s" depth="0" NCoef="0" IVar="3" Cut="8.4837704896926880e-01" cType="1" res="-2.3410761728882790e-02" rms="4.8405867815017700e-01" purity="4.9585708975791931e-01" nType="0">
        <Node pos="l" depth="1" NCoef="0" IVar="3" Cut="3.6962890625000000e-01" cType="1" res="-3.0615508556365967e-01" rms="3.8498577475547791e-01" purity="1.8295224010944366e-01" nType="0">
          <Node pos="l" depth="2" NCoef="0" IVar="-1" Cut="0.0000000000000000e+00" cType="1" res="-3.6017519887536764e-03" rms="2.8493836522102356e-01" purity="8.9179530739784241e-02" nType="-99"/>
          <Node pos="r" depth="2" NCoef="0" IVar="-1" Cut="0.0000000000000000e+00" cType="1" res="-2.3079614620655775e-03" rms="4.6791070699691772e-01" purity="3.2676640152931213e-01" nType="-99"/>
        </Node>
        <Node pos="r" depth="1" NCoef="0" IVar="4" Cut="2.4337331950664520e-01" cType="1" res="1.7628334462642670e-01" rms="4.4584947824478149e-01" purity="7.1685260534286499e-01" nType="0">
          <Node pos="l" depth="2" NCoef="0" IVar="-1" Cut="0.0000000000000000e+00" cType="1" res="2.1642067003995180e-03" rms="4.8979482054710388e-01" purity="5.8257412910461426e-01" nType="-99"/>
          <Node pos="r" depth="2" NCoef="0" IVar="-1" Cut="0.0000000000000000e+00" cType="1" res="1.2269988656044006e-02" rms="4.1226744651794434e-01" purity="7.8019380569458008e-01" nType="-99"/>
        </Node>
      </Node>
    </BinaryTree>
    <BinaryTree type="DecisionTree" boostWeight="1.0000000000000000e+00" itree="9">
      <Node pos="s" depth="0" NCoef="0" IVar="3" Cut="8.4837704896926880e-01" cType="1" res="-1.1617445386946201e-02" rms="4.8335877060890198e-01" purity="5.1076620817184448e-01" nType="0">
        <Node pos="l" depth="1" NCoef="0" IVar="3" Cut="3.6962890625000000e-01" cType="1" res="-2.8081685304641724e-01" rms="4.0358814597129822e-01" purity="2.0705430209636688e-01" nType="0">
          <Node pos="l" depth="2" NCoef="0" IVar="-1" Cut="0.0000000000000000e+00" cType="1" res="-3.9224764332175255e-03" rms="3.1450343132019043e-01" purity="1.1137060075998306e-01" nType="-99"/>
          <Node pos="r" depth="2" NCoef="0" IVar="-1" Cut="0.0000000000000000e+00" cType="1" res="-2.0416674669831991e-03" rms="4.7199290990829468e-01" purity="3.3769828081130981e-01" nType="-99"/>
        </Node>
        <Node pos="r" depth="1" NCoef="0" IVar="4" Cut="1.6775949299335480e-01" cType="1" res="1.6455312073230743e-01" rms="4.4886150956153870e-01" purity="7.0952248573303223e-01" nType="0">
          <Node pos="l" depth="2" NCoef="0" IVar="-1" Cut="0.0000000000000000e+00" cType="1" res="9.6708530327305198e-04" rms="4.9356877803802490e-01" purity="5.5737960338592529e-01" nType="-99"/>
          <Node pos="r" depth="2" NCoef="0" IVar="-1" Cut="0.0000000000000000e+00" cType="1" res="1.2652548030018806e-02" rms="4.1689553856849670e-01" purity="7.7328467369079590e-01" nType="-99"/>
        </Node>
      </Node>
    </BinaryTree>
    <BinaryTree type="DecisionTree" boostWeight="1.0000000000000000e+00" itree="10">
      <Node pos="s" depth="0" NCoef="0" IVar="3" Cut="9.2394435405731201e-01" cType="1" res="-3.6236941814422607e-02" rms="4.8049697279930115e-01" purity="4.8666676878929138e-01" nType="0">
        <Node pos="l" depth="1" NCoef="0" IVar="3" Cut="3.4812128543853760e-01" cType="1" res="-2.7678516507148743e-01" rms="4.0510964393615723e-01" purity="2.1318320930004120e-01" nType="0">
          <Node pos="l" depth="2" NCoef="0" IVar="-1" Cut="0.0000000000000000e+00" cType="1" res="-3.1240761745721102e-03" rms="2.7941739559173584e-01" purity="8.5400611162185669e-02" nType="-99"/>
          <Node pos="r" depth="2" NCoef="0" IVar="-1" Cut="0.0000000000000000e+00" cType="1" res="-1.7978178802877665e-03" rms="4.7847771644592285e-01" purity="3.6564069986343384e-01" nType="-99"/>
        </Node>
        <Node pos="r" depth="1" NCoef="0" IVar="0" Cut="9.8576393127441406e+01" cType="1" res="1.7713488638401031e-01" rms="4.3959569931030273e-01" purity="7.2925305366516113e-01" nType="0">
          <Node pos="l" depth="2" NCoef="0" IVar="-1" Cut="0.0000000000000000e+00" cType="1" res="-2.5043410714715719e-03" rms="4.9390512704849243e-01" purity="4.4937705993652344e-01" nType="-99"/>
          <Node pos="r" depth="2" NCoef="0" IVar="-1" Cut="0.0000000000000000e+00" cType="1" res="1.1067930608987808e-02" rms="4.2451351881027222e-01" purity="7.5774741172790527e-01" nType="-99"/>
        </Node>
      </Node>
    </BinaryTree>
    <BinaryTree type="DecisionTree" boostWeight="1.0000000000000000e+00" itree="11">
      <Node pos="s" depth="0" NCoef="0" IVar="3" Cut="7.7343750000000000e-01" cType="1" res="-2.4318033829331398e-02" rms="4.7973963618278503e-01" purity="5.0147348642349243e-01" nType="0">
        <Node pos="l" depth="1" NCoef="0" IVar="3" Cut="3.8553291559219360e-01" cType="1" res="-3.0964952707290649e-01" rms="3.7768155336380005e-01" purity="1.7384009063243866e-01" nType="0">
          <Node pos="l" depth="2" NCoef="0" IVar="-1" Cut="0.0000000000000000e+00" cType="1" res="-3.6164340563118458e-03" rms="3.0657818913459778e-01" purity="1.0508456081151962e-01" nType="-99"/>
          <Node pos="r" depth="2" NCoef="0" IVar="-1" Cut="0.0000000000000000e+00" cType="1" res="-2.4452139623463154e-03" rms="4.6412521600723267e-01" purity="3.1597521901130676e-01" nType="-99"/>
        </Node>
        <Node pos="r" depth="1" NCoef="0" IVar="4" Cut="2.4337331950664520e-01" cType="1" res="1.4099758863449097e-01" rms="4.5425859093666077e-01" purity="6.9129806756973267e-01" nType="0">
          <Node pos="l" depth="2" NCoef="0" IVar="-1" Cut="0.0000000000000000e+00" cType="1" res="4.2339460924267769e-04" rms="4.9333110451698303e-01" purity="5.4098296165466309e-01" nType="-99"/>
          <Node pos="r" depth="2" NCoef="0" IVar="-1" Cut="0.0000000000000000e+00" cType="1" res="9.6939643844962120e-03" rms="4.1869571805000305e-01" purity="7.6851767301559448e-01" nType="-99"/>
        </Node>
      </Node>
    </BinaryTree>
    <BinaryTree type="DecisionTree" boostWeight="1.0000000000000000e+00" itree="12">
      <Node pos="s" depth="0" NCoef="0" IVar="3" Cut="7.7280968427658081e-01" cType="1" res="-2.7461677789688110e-02" rms="4.7793915867805481e-01" purity="4.9975746870040894e-01" nType="0">
        <Node pos="l" depth="1" NCoef="0" IVar="3" Cut="5.1343935728073120e-01" cType="1" res="-3.1482234597206116e-01" rms="3.7164956331253052e-01" purity="1.6705697774887085e-01" nType="0">
          <Node pos="l" depth="2" NCoef="0" IVar="-1" Cut="0.0000000000000000e+00" cType="1" res="-3.1931619159877300e-03" rms="3.1386739015579224e-01" purity="1.1093892157077789e-01" nType="-99"/>
          <Node pos="r" depth="2" NCoef="0" IVar="-1" Cut="0.0000000000000000e+00" cType="1" res="-2.2729276679456234e-03" rms="4.7211015224456787e-01" purity="3.3704116940498352e-01" nType="-99"/>
        </Node>
        <Node pos="r" depth="1" NCoef="0" IVar="4" Cut="-5.9082031250000000e-02" cType="1" res="1.4005911350250244e-01" rms="4.5262211561203003e-01" purity="6.9370973110198975e-01" nType="0">
          <Node pos="l" depth="2" NCoef="0" IVar="-1" Cut="0.0000000000000000e+00" cType="1" res="-7.1165367262437940e-04" rms="4.9593439698219299e-01" purity="4.8639369010925293e-01" nType="-99"/>
          <Node pos="r" depth="2" NCoef="0" IVar="-1" Cut="0.0000000000000000e+00" cType="1" res="9.6996482461690903e-03" rms="4.2506957054138184e-01" purity="7.5590372085571289e-01" nType="-99"/>
        </Node>
      </Node>
    </BinaryTree>
    <BinaryTree type="DecisionTree" boostWeight="1.0000000000000000e+00" itree="13">
      <Node pos="s" depth="0" NCoef="0" IVar="3" Cut="8.4856307506561279e-01" cType="1" res="-2.5461606681346893e-02" rms="4.7673153877258301e-01" purity="5.0290405750274658e-01" nType="0">
        <Node pos="l" depth="1" NCoef="0" IVar="4" Cut="-4.2433965951204300e-02" cType="1" res="-2.8387060761451721e-01" rms="3.9632752537727356e-01" purity="1.9852299988269806e-01" nType="0">
          <Node pos="l" depth="2" NCoef="0" IVar="-1" Cut="0.0000000000000000e+00" cType="1" res="-3.4205687697976828e-03" rms="3.3914205431938171e-01" purity="1.3345672190189362e-01" nType="-99"/>
          <Node pos="r" depth="2" NCoef="0" IVar="-1" Cut="0.0000000000000000e+00" cType="1" res="-1.4675277052447200e-03" rms="4.9038031697273254e-01" purity="4.1186100244522095e-01" nType="-99"/>
        </Node>
        <Node pos="r" depth="1" NCoef="0" IVar="4" Cut="2.4337331950664520e-01" cType="1" res="1.5767942368984222e-01" rms="4.4289702177047729e-01" purity="7.1862667798995972e-01" nType="0">
          <Node pos="l" depth="2" NCoef="0" IVar="-1" Cut="0.0000000000000000e+00" cType="1" res="1.4925975119695067e-03" rms="4.8960149288177490e-01" purity="5.7794415950775146e-01" nType="-99"/>
          <Node pos="r" depth="2" NCoef="0" IVar="-1" Cut="0.0000000000000000e+00" cType="1" res="1.3494821265339851e-02" rms="4.0841698646545410e-01" purity="7.8574472665786743e-01" nType="-99"/>
        </Node>
      </Node>
    </BinaryTree>
    <BinaryTree type="DecisionTree" boostWeight="1.0000000000000000e+00" itree="14">
      <Node pos="s" depth="0" NCoef="0" IVar="3" Cut="9.2415362596511841e-01" cType="1" res="-2.5027070194482803e-02" rms="4.7538658976554871e-01" purity="5.0675731897354126e-01" nType="0">
        <Node pos="l" depth="1" NCoef="0" IVar="3" Cut="4.9330356717109680e-01" cType="1" res="-2.5232610106468201e-01" rms="4.1757664084434509e-01" purity="2.3467518389225006e-01" nType="0">
          <Node pos="l" depth="2" NCoef="0" IVar="-1" Cut="0.0000000000000000e+00" cType="1" res="-3.8730085361748934e-03" rms="3.2107329368591309e-01" purity="1.1690215021371841e-01" nType="-99"/>
          <Node pos="r" depth="2" NCoef="0" IVar="-1" Cut="0.0000000000000000e+00" cType="1" res="-1.4870392624288797e-03" rms="4.8301517963409424e-01" purity="3.8979360461235046e-01" nType="-99"/>
        </Node>
        <Node pos="r" depth="1" NCoef="0" IVar="0" Cut="1.0714546966552734e+02" cType="1" res="1.6525089740753174e-01" rms="4.3560415506362915e-01" purity="7.3452436923980713e-01" nType="0">
          <Node pos="l" depth="2" NCoef="0" IVar="-1" Cut="0.0000000000000000e+00" cType="1" res="4.2498111724853516e-04" rms="4.9031898379325867e-01" purity="5.6840676069259644e-01" nType="-99"/>
          <Node pos="r" depth="2" NCoef="0" IVar="-1" Cut="0.0000000000000000e+00" cType="1" res="1.2664569541811943e-02" rms="4.0840885043144226e-01" purity="7.8212988376617432e-01" nType="-99"/>
        </Node>
      </Node>
    </BinaryTree>
    <BinaryTree type="DecisionTree" boostWeight="1.0000000000000000e+00" itree="15">
      <Node pos="s" depth="0" NCoef="0" IVar="3" Cut="8.4856307506561279e-01" cType="1" res="-3.4611802548170090e-02" rms="4.7294107079505920e-01" purity="4.9740046262741089e-01" nType="0">
        <Node pos="l" depth="1" NCoef="0" IVar="3" Cut="5.7507908344268799e-01" cType="1" res="-2.9162397980690002e-01" rms="3.8751477003097534e-01" purity="1.8757522106170654e-01" nType="0">
          <Node pos="l" depth="2" NCoef="0" IVar="-1" Cut="0.0000000000000000e+00" cType="1" res="-3.1768926419317722e-03" rms="3.1877323985099792e-01" purity="1.1508839577436447e-01" nType="-99"/>
          <Node pos="r" depth="2" NCoef="0" IVar="-1" Cut="0.0000000000000000e+00" cType="1" res="-1.6218780074268579e-03" rms="4.8694819211959839e-01" purity="3.9179828763008118e-01" nType="-99"/>
        </Node>
        <Node pos="r" depth="1" NCoef="0" IVar="10" Cut="5.7052024841308594e+01" cType="1" res="1.4870679378509521e-01" rms="4.4201990962028503e-01" purity="7.1838891506195068e-01" nType="0">
          <Node pos="l" depth="2" NCoef="0" IVar="-1" Cut="0.0000000000000000e+00" cType="1" res="1.9341066945344210e-03" rms="4.7935742139816284e-01" purity="6.1689531803131104e-01" nType="-99"/>
          <Node pos="r" depth="2" NCoef="0" IVar="-1" Cut="0.0000000000000000e+00" cType="1" res="1.2694781646132469e-02" rms="3.9611545205116272e-01" purity="7.9576623439788818e-01" nType="-99"/>
        </Node>
      </Node>
    </BinaryTree>
    <BinaryTree type="DecisionTree" boostWeight="1.0000000000000000e+00" itree="16">
      <Node pos="s" depth="0" NCoef="0" IVar="3" Cut="8.4837704896926880e-01" cType="1" res="-4.1236896067857742e-02" rms="4.7240629792213440e-01" purity="4.9344694614410400e-01" nType="0">
        <Node pos="l" depth="1" NCoef="0" IVar="3" Cut="3.6962890625000000e-01" cType="1" res="-2.8602045774459839e-01" rms="3.9170745015144348e-01" purity="1.9255629181861877e-01" nType="0">
          <Node pos="l" depth="2" NCoef="0" IVar="-1" Cut="0.0000000000000000e+00" cType="1" res="-4.0532862767577171e-03" rms="3.0510234832763672e-01" purity="1.0394515842199326e-01" nType="-99"/>
          <Node pos="r" depth="2" NCoef="0" IVar="-1" Cut="0.0000000000000000e+00" cType="1" res="-1.9208567682653666e-03" rms="4.6392178535461426e-01" purity="3.1686440110206604e-01" nType="-99"/>
        </Node>
        <Node pos="r" depth="1" NCoef="0" IVar="10" Cut="3.8529979705810547e+01" cType="1" res="1.2651661038398743e-01" rms="4.4916823506355286e-01" purity="6.9965142011642456e-01" nType="0">
          <Node pos="l" depth="2" NCoef="0" IVar="-1" Cut="0.0000000000000000e+00" cType="1" res="-1.4115411322563887e-03" rms="4.9287867546081543e-01" purity="5.0069260597229004e-01" nType="-99"/>
          <Node pos="r" depth="2" NCoef="0" IVar="-1" Cut="0.0000000000000000e+00" cType="1" res="8.6576221510767937e-03" rms="4.2301648855209351e-01" purity="7.5320291519165039e-01" nType="-99"/>
        </Node>
      </Node>
    </BinaryTree>
    <BinaryTree type="DecisionTree" boostWeight="1.0000000000000000e+00" itree="17">
      <Node pos="s" depth="0" NCoef="0" IVar="3" Cut="7.7427452802658081e-01" cType="1" res="-3.5507913678884506e-02" rms="4.7030013799667358e-01" purity="5.0014322996139526e-01" nType="0">
        <Node pos="l" depth="1" NCoef="0" IVar="3" Cut="3.8790458440780640e-01" cType="1" res="-3.1018009781837463e-01" rms="3.6817631125450134e-01" purity="1.6384397447109222e-01" nType="0">
          <Node pos="l" depth="2" NCoef="0" IVar="-1" Cut="0.0000000000000000e+00" cType="1" res="-3.5607963800430298e-03" rms="2.9588061571121216e-01" purity="9.7050957381725311e-02" nType="-99"/>
          <Node pos="r" depth="2" NCoef="0" IVar="-1" Cut="0.0000000000000000e+00" cType="1" res="-2.1866743918508291e-03" rms="4.6280717849731445e-01" purity="3.1358364224433899e-01" nType="-99"/>
        </Node>
        <Node pos="r" depth="1" NCoef="0" IVar="4" Cut="-2.8592354059219360e-01" cType="1" res="1.2739907205104828e-01" rms="4.4797700643539429e-01" purity="6.9960099458694458e-01" nType="0">
          <Node pos="l" depth="2" NCoef="0" IVar="-1" Cut="0.0000000000000000e+00" cType="1" res="-1.3829465024173260e-03" rms="4.9091839790344238e-01" purity="4.4734588265419006e-01" nType="-99"/>
          <Node pos="r" depth="2" NCoef="0" IVar="-1" Cut="0.0000000000000000e+00" cType="1" res="8.7881106883287430e-03" rms="4.2956879734992981e-01" purity="7.4482744932174683e-01" nType="-99"/>
        </Node>
      </Node>
    </BinaryTree>
    <BinaryTree type="DecisionTree" boostWeight="1.0000000000000000e+00" itree="18">
      <Node pos="s" depth="0" NCoef="0" IVar="3" Cut="7.7280968427658081e-01" cType="1" res="-5.3187772631645203e-02" rms="4.6919173002243042e-01" purity="4.8352900147438049e-01" nType="0">
        <Node pos="l" depth="1" NCoef="0" IVar="3" Cut="3.8392856717109680e-01" cType="1" res="-3.1533992290496826e-01" rms="3.6209452152252197e-01" purity="1.5726695954799652e-01" nType="0">
          <Node pos="l" depth="2" NCoef="0" IVar="-1" Cut="0.0000000000000000e+00" cType="1" res="-3.6229274701327085e-03" rms="2.8540092706680298e-01" purity="8.9515052735805511e-02" nType="-99"/>
          <Node pos="r" depth="2" NCoef="0" IVar="-1" Cut="0.0000000000000000e+00" cType="1" res="-1.8716442864388227e-03" rms="4.5427274703979492e-01" purity="2.9349324107170105e-01" nType="-99"/>
        </Node>
        <Node pos="r" depth="1" NCoef="0" IVar="3" Cut="9.5635694265365601e-01" cType="1" res="1.0562405735254288e-01" rms="4.5521453022956848e-01" purity="6.8117856979370117e-01" nType="0">
          <Node pos="l" depth="2" NCoef="0" IVar="-1" Cut="0.0000000000000000e+00" cType="1" res="-1.1861155508086085e-03" rms="4.9180090427398682e-01" purity="4.8166158795356750e-01" nType="-99"/>
          <Node pos="r" depth="2" NCoef="0" IVar="-1" Cut="0.0000000000000000e+00" cType="1" res="7.7388966456055641e-03" rms="4.3446475267410278e-01" purity="7.3483872413635254e-01" nType="-99"/>
        </Node>
      </Node>
    </BinaryTree>
    <BinaryTree type="DecisionTree" boostWeight="1.0000000000000000e+00" itree="19">
      <Node pos="s" depth="0" NCoef="0" IVar="3" Cut="9.2443263530731201e-01" cType="1" res="-4.0245931595563889e-02" rms="4.6874836087226868e-01" purity="4.9810647964477539e-01" nType="0">
        <Node pos="l" depth="1" NCoef="0" IVar="4" Cut="-8.5286460816860199e-02" cType="1" res="-2.5508522987365723e-01" rms="4.1123864054679871e-01" purity="2.2625060379505157e-01" nType="0">
          <Node pos="l" depth="2" NCoef="0" IVar="-1" Cut="0.0000000000000000e+00" cType="1" res="-3.1312354840338230e-03" rms="3.4704321622848511e-01" purity="1.4208842813968658e-01" nType="-99"/>
          <Node pos="r" depth="2" NCoef="0" IVar="-1" Cut="0.0000000000000000e+00" cType="1" res="-1.5157180605456233e-03" rms="4.8737919330596924e-01" purity="4.1796904802322388e-01" nType="-99"/>
        </Node>
        <Node pos="r" depth="1" NCoef="0" IVar="10" Cut="6.9963333129882812e+01" cType="1" res="1.4698116481304169e-01" rms="4.3422427773475647e-01" purity="7.3502224683761597e-01" nType="0">
          <Node pos="l" depth="2" NCoef="0" IVar="-1" Cut="0.0000000000000000e+00" cType="1" res="4.0958370082080364e-03" rms="4.6295893192291260e-01" purity="6.7168402671813965e-01" nType="-99"/>
          <Node pos="r" depth="2" NCoef="0" IVar="-1" Cut="0.0000000000000000e+00" cType="1" res="1.5328777953982353e-02" rms="3.7602102756500244e-01" purity="8.2391315698623657e-01" nType="-99"/>
        </Node>
      </Node>
    </BinaryTree>
    <BinaryTree type="DecisionTree" boostWeight="1.0000000000000000e+00" itree="20">
      <Node pos="s" depth="0" NCoef="0" IVar="3" Cut="8.4837704896926880e-01" cType="1" res="-4.5656841248273849e-02" rms="4.6662393212318420e-01" purity="4.9465724825859070e-01" nType="0">
        <Node pos="l" depth="1" NCoef="0" IVar="4" Cut="-4.3178014457225800e-02" cType="1" res="-2.8537821769714355e-01" rms="3.8632032275199890e-01" purity="1.8685066699981689e-01" nType="0">
          <Node pos="l" depth="2" NCoef="0" IVar="-1" Cut="0.0000000000000000e+00" cType="1" res="-3.1743706203997135e-03" rms="3.3025723695755005e-01" purity="1.2573330104351044e-01" nType="-99"/>
          <Node pos="r" depth="2" NCoef="0" IVar="-1" Cut="0.0000000000000000e+00" cType="1" res="-1.7053328920155764e-03" rms="4.8528435826301575e-01" purity="3.8973841071128845e-01" nType="-99"/>
        </Node>
        <Node pos="r" depth="1" NCoef="0" IVar="4" Cut="9.2145644128322601e-02" cType="1" res="1.1921560764312744e-01" rms="4.4512891769409180e-01" purity="7.0635646581649780e-01" nType="0">
          <Node pos="l" depth="2" NCoef="0" IVar="-1" Cut="0.0000000000000000e+00" cType="1" res="-3.2222902518697083e-04" rms="4.9303269386291504e-01" purity="5.3307521343231201e-01" nType="-99"/>
          <Node pos="r" depth="2" NCoef="0" IVar="-1" Cut="0.0000000000000000e+00" cType="1" res="8.9966673403978348e-03" rms="4.1465160250663757e-01" purity="7.7195543050765991e-01" nType="-99"/>
        </Node>
      </Node>
    </BinaryTree>
    <BinaryTree type="DecisionTree" boostWeight="1.0000000000000000e+00" itree="21">
      <Node pos="s" depth="0" NCoef="0" IVar="3" Cut="6.2167501449584961e-01" cType="1" res="-4.1266866028308868e-02" rms="4.6514636278152466e-01" purity="5.0006383657455444e-01" nType="0">
        <Node pos="l" depth="1" NCoef="0" IVar="3" Cut="-1.1695498600602150e-02" cType="1" res="-3.4051969647407532e-01" rms="3.3005702495574951e-01" purity="1.2520605325698853e-01" nType="0">
          <Node pos="l" depth="2" NCoef="0" IVar="-1" Cut="0.0000000000000000e+00" cType="1" res="-3.1165068503469229e-03" rms="2.2004678845405579e-01" purity="5.1025096327066422e-02" nType="-99"/>
          <Node pos="r" depth="2" NCoef="0" IVar="-1" Cut="0.0000000000000000e+00" cType="1" res="-2.7892326470464468e-03" rms="3.9066150784492493e-01" purity="1.8881003558635712e-01" nType="-99"/>
        </Node>
        <Node pos="r" depth="1" NCoef="0" IVar="3" Cut="9.4559150934219360e-01" cType="1" res="9.7470983862876892e-02" rms="4.5320892333984375e-01" purity="6.7385315895080566e-01" nType="0">
          <Node pos="l" depth="2" NCoef="0" IVar="-1" Cut="0.0000000000000000e+00" cType="1" res="-1.3468880206346512e-03" rms="4.9166324734687805e-01" purity="4.4582027196884155e-01" nType="-99"/>
          <Node pos="r" depth="2" NCoef="0" IVar="-1" Cut="0.0000000000000000e+00" cType="1" res="8.5791340097784996e-03" rms="4.2598578333854675e-01" purity="7.4800562858581543e-01" nType="-99"/>
        </Node>
      </Node>
    </BinaryTree>
    <BinaryTree type="DecisionTree" boostWeight="1.0000000000000000e+00" itree="22">
      <Node pos="s" depth="0" NCoef="0" IVar="3" Cut="6.9724237918853760e-01" cType="1" res="-4.7967430204153061e-02" rms="4.6460485458374023e-01" purity="4.9455988407135010e-01" nType="0">
        <Node pos="l" depth="1" NCoef="0" IVar="4" Cut="-3.8434710353612900e-02" cType="1" res="-3.1942489743232727e-01" rms="3.5111171007156372e-01" purity="1.4559800922870636e-01" nType="0">
          <Node pos="l" depth="2" NCoef="0" IVar="-1" Cut="0.0000000000000000e+00" cType="1" res="-3.3075301907956600e-03" rms="3.0294379591941833e-01" purity="1.0266298055648804e-01" nType="-99"/>
          <Node pos="r" depth="2" NCoef="0" IVar="-1" Cut="0.0000000000000000e+00" cType="1" res="-1.7670296365395188e-03" rms="4.8310437798500061e-01" purity="3.7602540850639343e-01" nType="-99"/>
        </Node>
        <Node pos="r" depth="1" NCoef="0" IVar="4" Cut="-5.9082031250000000e-02" cType="1" res="9.2494085431098938e-02" rms="4.5376434922218323e-01" purity="6.7512482404708862e-01" nType="0">
          <Node pos="l" depth="2" NCoef="0" IVar="-1" Cut="0.0000000000000000e+00" cType="1" res="-1.1092522181570530e-03" rms="4.8964872956275940e-01" purity="4.7108212113380432e-01" nType="-99"/>
          <Node pos="r" depth="2" NCoef="0" IVar="-1" Cut="0.0000000000000000e+00" cType="1" res="6.9553372450172901e-03" rms="4.2919191718101501e-01" purity="7.4345850944519043e-01" nType="-99"/>
        </Node>
      </Node>
    </BinaryTree>
    <BinaryTree type="DecisionTree" boostWeight="1.0000000000000000e+00" itree="23">
      <Node pos="s" depth="0" NCoef="0" IVar="3" Cut="6.2388390302658081e-01" cType="1" res="-4.6212058514356613e-02" rms="4.6337142586708069e-01" purity="4.9835175275802612e-01" nType="0">
        <Node pos="l" depth="1" NCoef="0" IVar="4" Cut="-1.8815104663372040e-01" cType="1" res="-3.3901703357696533e-01" rms="3.2828566431999207e-01" purity="1.2377900630235672e-01" nType="0">
          <Node pos="l" depth="2" NCoef="0" IVar="-1" Cut="0.0000000000000000e+00" cType="1" res="-3.2732137478888035e-03" rms="2.7481597661972046e-01" purity="8.2544326782226562e-02" nType="-99"/>
          <Node pos="r" depth="2" NCoef="0" IVar="-1" Cut="0.0000000000000000e+00" cType="1" res="-2.9565014410763979e-03" rms="4.3287366628646851e-01" purity="2.5108847022056580e-01" nType="-99"/>
        </Node>
        <Node pos="r" depth="1" NCoef="0" IVar="3" Cut="9.6375095844268799e-01" cType="1" res="8.6167141795158386e-02" rms="4.5472693443298340e-01" purity="6.6769880056381226e-01" nType="0">
          <Node pos="l" depth="2" NCoef="0" IVar="-1" Cut="0.0000000000000000e+00" cType="1" res="-1.2348395539447665e-03" rms="4.8910361528396606e-01" purity="4.6070238947868347e-01" nType="-99"/>
          <Node pos="r" depth="2" NCoef="0" IVar="-1" Cut="0.0000000000000000e+00" cType="1" res="9.2109227553009987e-03" rms="4.2412245273590088e-01" purity="7.5337004661560059e-01" nType="-99"/>
        </Node>
      </Node>
    </BinaryTree>
    <BinaryTree type="DecisionTree" boostWeight="1.0000000000000000e+00" itree="24">
      <Node pos="s" depth="0" NCoef="0" IVar="3" Cut="8.4837704896926880e-01" cType="1" res="-4.3351087719202042e-02" rms="4.6251606941223145e-01" purity="5.0288546085357666e-01" nType="0">
        <Node pos="l" depth="1" NCoef="0" IVar="4" Cut="-4.3364025652408600e-02" cType="1" res="-2.7558064460754395e-01" rms="3.8965401053428650e-01" purity="1.9186927378177643e-01" nType="0">
          <Node pos="l" depth="2" NCoef="0" IVar="-1" Cut="0.0000000000000000e+00" cType="1" res="-3.2710698433220387e-03" rms="3.3512887358665466e-01" purity="1.3023121654987335e-01" nType="-99"/>
          <Node pos="r" depth="2" NCoef="0" IVar="-1" Cut="0.0000000000000000e+00" cType="1" res="-1.3201024848967791e-03" rms="4.8552900552749634e-01" purity="3.9270061254501343e-01" nType="-99"/>
        </Node>
        <Node pos="r" depth="1" NCoef="0" IVar="0" Cut="9.8576393127441406e+01" cType="1" res="1.1366625875234604e-01" rms="4.4134351611137390e-01" purity="7.1317285299301147e-01" nType="0">
          <Node pos="l" depth="2" NCoef="0" IVar="-1" Cut="0.0000000000000000e+00" cType="1" res="-2.9286516364663839e-03" rms="4.8661834001541138e-01" purity="4.1316014528274536e-01" nType="-99"/>
          <Node pos="r" depth="2" NCoef="0" IVar="-1" Cut="0.0000000000000000e+00" cType="1" res="8.1289978697896004e-03" rms="4.2562100291252136e-01" purity="7.4606865644454956e-01" nType="-99"/>
        </Node>
      </Node>
    </BinaryTree>
    <BinaryTree type="DecisionTree" boostWeight="1.0000000000000000e+00" itree="25">
      <Node pos="s" depth="0" NCoef="0" IVar="3" Cut="6.2167501449584961e-01" cType="1" res="-4.6828605234622955e-02" rms="4.6163156628608704e-01" purity="5.0079226493835449e-01" nType="0">
        <Node pos="l" depth="1" NCoef="0" IVar="4" Cut="-2.1972656250000000e-02" cType="1" res="-3.2383257150650024e-01" rms="3.4141457080841064e-01" purity="1.3583837449550629e-01" nType="0">
          <Node pos="l" depth="2" NCoef="0" IVar="-1" Cut="0.0000000000000000e+00" cType="1" res="-3.1833725515753031e-03" rms="3.0567783117294312e-01" purity="1.0468248277902603e-01" nType="-99"/>
          <Node pos="r" depth="2" NCoef="0" IVar="-1" Cut="0.0000000000000000e+00" cType="1" res="-2.2378496360033751e-03" rms="4.7033533453941345e-01" purity="3.3148875832557678e-01" nType="-99"/>
        </Node>
        <Node pos="r" depth="1" NCoef="0" IVar="3" Cut="9.4559150934219360e-01" cType="1" res="7.9353958368301392e-02" rms="4.5409801602363586e-01" purity="6.6703832149505615e-01" nType="0">
          <Node pos="l" depth="2" NCoef="0" IVar="-1" Cut="0.0000000000000000e+00" cType="1" res="-1.3968114508315921e-03" rms="4.8847520351409912e-01" purity="4.4070732593536377e-01" nType="-99"/>
          <Node pos="r" depth="2" NCoef="0" IVar="-1" Cut="0.0000000000000000e+00" cType="1" res="7.0784245617687702e-03" rms="4.3032833933830261e-01" purity="7.4077242612838745e-01" nType="-99"/>
        </Node>
      </Node>
    </BinaryTree>
    <BinaryTree type="DecisionTree" boostWeight="1.0000000000000000e+00" itree="26">
      <Node pos="s" depth="0" NCoef="0" IVar="3" Cut="6.2167501449584961e-01" cType="1" res="-3.7292405962944031e-02" rms="4.6018201112747192e-01" purity="5.1219379901885986e-01" nType="0">
        <Node pos="l" depth="1" NCoef="0" IVar="3" Cut="2.1858723461627960e-01" cType="1" res="-3.2295823097229004e-01" rms="3.4067097306251526e-01" purity="1.3508473336696625e-01" nType="0">
          <Node pos="l" depth="2" NCoef="0" IVar="-1" Cut="0.0000000000000000e+00" cType="1" res="-3.3091192599385977e-03" rms="2.7682054042816162e-01" purity="8.3702333271503448e-02" nType="-99"/>
          <Node pos="r" depth="2" NCoef="0" IVar="-1" Cut="0.0000000000000000e+00" cType="1" res="-3.3035739324986935e-03" rms="4.2442891001701355e-01" purity="2.3725776374340057e-01" nType="-99"/>
        </Node>
        <Node pos="r" depth="1" NCoef="0" IVar="3" Cut="9.6356493234634399e-01" cType="1" res="8.7181419134140015e-02" rms="4.4991123676300049e-01" purity="6.7651242017745972e-01" nType="0">
          <Node pos="l" depth="2" NCoef="0" IVar="-1" Cut="0.0000000000000000e+00" cType="1" res="-9.4735570019111037e-04" rms="4.8781633377075195e-01" purity="4.7362571954727173e-01" nType="-99"/>
          <Node pos="r" depth="2" NCoef="0" IVar="-1" Cut="0.0000000000000000e+00" cType="1" res="9.8443441092967987e-03" rms="4.1969504952430725e-01" purity="7.6031178236007690e-01" nType="-99"/>
        </Node>
      </Node>
    </BinaryTree>
    <BinaryTree type="DecisionTree" boostWeight="1.0000000000000000e+00" itree="27">
      <Node pos="s" depth="0" NCoef="0" IVar="3" Cut="6.9724237918853760e-01" cType="1" res="-4.9918636679649353e-02" rms="4.5858156681060791e-01" purity="4.9979913234710693e-01" nType="0">
        <Node pos="l" depth="1" NCoef="0" IVar="3" Cut="3.2986885309219360e-01" cType="1" res="-3.1159934401512146e-01" rms="3.5151514410972595e-01" purity="1.4615587890148163e-01" nType="0">
          <Node pos="l" depth="2" NCoef="0" IVar="-1" Cut="0.0000000000000000e+00" cType="1" res="-3.1301476992666721e-03" rms="2.8708904981613159e-01" purity="9.0804263949394226e-02" nType="-99"/>
          <Node pos="r" depth="2" NCoef="0" IVar="-1" Cut="0.0000000000000000e+00" cType="1" res="-2.9301259201020002e-03" rms="4.4730973243713379e-01" purity="2.7854245901107788e-01" nType="-99"/>
        </Node>
        <Node pos="r" depth="1" NCoef="0" IVar="4" Cut="-2.8592354059219360e-01" cType="1" res="8.2528352737426758e-02" rms="4.4943925738334656e-01" purity="6.7879205942153931e-01" nType="0">
          <Node pos="l" depth="2" NCoef="0" IVar="-1" Cut="0.0000000000000000e+00" cType="1" res="-1.5159613685682416e-03" rms="4.7845044732093811e-01" purity="4.0697446465492249e-01" nType="-99"/>
          <Node pos="r" depth="2" NCoef="0" IVar="-1" Cut="0.0000000000000000e+00" cType="1" res="6.6026109270751476e-03" rms="4.3235754966735840e-01" purity="7.3103493452072144e-01" nType="-99"/>
        </Node>
      </Node>
    </BinaryTree>
    <BinaryTree type="DecisionTree" boostWeight="1.0000000000000000e+00" itree="28">
      <Node pos="s" depth="0" NCoef="0" IVar="3" Cut="6.9947451353073120e-01" cType="1" res="-4.8434175550937653e-02" rms="4.5860248804092407e-01" purity="5.0332021713256836e-01" nType="0">
        <Node pos="l" depth="1" NCoef="0" IVar="4" Cut="-4.1364397853612900e-02" cType="1" res="-3.0574634671211243e-01" rms="3.5608252882957458e-01" purity="1.5078546106815338e-01" nType="0">
          <Node pos="l" depth="2" NCoef="0" IVar="-1" Cut="0.0000000000000000e+00" cType="1" res="-3.1738330144435167e-03" rms="3.1414082646369934e-01" purity="1.1150819808244705e-01" nType="-99"/>
          <Node pos="r" depth="2" NCoef="0" IVar="-1" Cut="0.0000000000000000e+00" cType="1" res="-2.1249675191938877e-03" rms="4.7851437330245972e-01" purity="3.5870611667633057e-01" nType="-99"/>
        </Node>
        <Node pos="r" depth="1" NCoef="0" IVar="0" Cut="9.8576087951660156e+01" cType="1" res="8.3415798842906952e-02" rms="4.4922450184822083e-01" purity="6.8396341800689697e-01" nType="0">
          <Node pos="l" depth="2" NCoef="0" IVar="-1" Cut="0.0000000000000000e+00" cType="1" res="-2.6136173401027918e-03" rms="4.8126226663589478e-01" purity="3.9750865101814270e-01" nType="-99"/>
          <Node pos="r" depth="2" NCoef="0" IVar="-1" Cut="0.0000000000000000e+00" cType="1" res="5.8921845629811287e-03" rms="4.3468061089515686e-01" purity="7.1973508596420288e-01" nType="-99"/>
        </Node>
      </Node>
    </BinaryTree>
    <BinaryTree type="DecisionTree" boostWeight="1.0000000000000000e+00" itree="29">
      <Node pos="s" depth="0" NCoef="0" IVar="3" Cut="9.2394435405731201e-01" cType="1" res="-6.0772594064474106e-02" rms="4.5701152086257935e-01" purity="4.9106979370117188e-01" nType="0">
        <Node pos="l" depth="1" NCoef="0" IVar="3" Cut="4.9204799532890320e-01" cType="1" res="-2.5445443391799927e-01" rms="4.0199732780456543e-01" purity="2.1660207211971283e-01" nType="0">
          <Node pos="l" depth="2" NCoef="0" IVar="-1" Cut="0.0000000000000000e+00" cType="1" res="-3.1778707634657621e-03" rms="3.0896842479705811e-01" purity="1.0731025040149689e-01" nType="-99"/>
          <Node pos="r" depth="2" NCoef="0" IVar="-1" Cut="0.0000000000000000e+00" cType="1" res="-1.7748526297509670e-03" rms="4.7815909981727600e-01" purity="3.7516340613365173e-01" nType="-99"/>
        </Node>
        <Node pos="r" depth="1" NCoef="0" IVar="0" Cut="9.8574691772460938e+01" cType="1" res="1.0740860551595688e-01" rms="4.3478339910507202e-01" purity="7.2940039634704590e-01" nType="0">
          <Node pos="l" depth="2" NCoef="0" IVar="-1" Cut="0.0000000000000000e+00" cType="1" res="-2.5088542606681585e-03" rms="4.9320694804191589e-01" purity="4.4344201683998108e-01" nType="-99"/>
          <Node pos="r" depth="2" NCoef="0" IVar="-1" Cut="0.0000000000000000e+00" cType="1" res="7.7474433928728104e-03" rms="4.1943779587745667e-01" purity="7.5934928655624390e-01" nType="-99"/>
        </Node>
      </Node>
    </BinaryTree>
    <BinaryTree type="DecisionTree" boostWeight="1.0000000000000000e+00" itree="30">
      <Node pos="s" depth="0" NCoef="0" IVar="3" Cut="6.2167501449584961e-01" cType="1" res="-5.4164234548807144e-02" rms="4.5784074068069458e-01" purity="4.9975958466529846e-01" nType="0">
        <Node pos="l" depth="1" NCoef="0" IVar="4" Cut="-7.3800221085548401e-02" cType="1" res="-3.1426858901977539e-01" rms="3.4338733553886414e-01" purity="1.3769280910491943e-01" nType="0">
          <Node pos="l" depth="2" NCoef="0" IVar="-1" Cut="0.0000000000000000e+00" cType="1" res="-3.2654432579874992e-03" rms="3.0522498488426208e-01" purity="1.0420203953981400e-01" nType="-99"/>
          <Node pos="r" depth="2" NCoef="0" IVar="-1" Cut="0.0000000000000000e+00" cType="1" res="-2.1939137950539589e-03" rms="4.6735772490501404e-01" purity="3.2375106215476990e-01" nType="-99"/>
        </Node>
        <Node pos="r" depth="1" NCoef="0" IVar="3" Cut="9.6356493234634399e-01" cType="1" res="6.2364637851715088e-02" rms="4.5476734638214111e-01" purity="6.6196846961975098e-01" nType="0">
          <Node pos="l" depth="2" NCoef="0" IVar="-1" Cut="0.0000000000000000e+00" cType="1" res="-1.3031549751758575e-03" rms="4.8751205205917358e-01" purity="4.6602872014045715e-01" nType="-99"/>
          <Node pos="r" depth="2" NCoef="0" IVar="-1" Cut="0.0000000000000000e+00" cType="1" res="5.0904289819300175e-03" rms="4.3016594648361206e-01" purity="7.4173188209533691e-01" nType="-99"/>
        </Node>
      </Node>
    </BinaryTree>
    <BinaryTree type="DecisionTree" boostWeight="1.0000000000000000e+00" itree="31">
      <Node pos="s" depth="0" NCoef="0" IVar="3" Cut="7.7280968427658081e-01" cType="1" res="-5.4114177823066711e-02" rms="4.5519793033599854e-01" purity="4.9909037351608276e-01" nType="0">
        <Node pos="l" depth="1" NCoef="0" IVar="3" Cut="4.4868397712707520e-01" cType="1" res="-2.9044076800346375e-01" rms="3.6762005090713501e-01" purity="1.6454058885574341e-01" nType="0">
          <Node pos="l" depth="2" NCoef="0" IVar="-1" Cut="0.0000000000000000e+00" cType="1" res="-3.4783238079398870e-03" rms="3.0636268854141235e-01" purity="1.0518634319305420e-01" nType="-99"/>
          <Node pos="r" depth="2" NCoef="0" IVar="-1" Cut="0.0000000000000000e+00" cType="1" res="-1.9340546568855643e-03" rms="4.6122860908508301e-01" purity="3.1060141324996948e-01" nType="-99"/>
        </Node>
        <Node pos="r" depth="1" NCoef="0" IVar="12" Cut="1.4715189933776855e+00" cType="1" res="8.8377885520458221e-02" rms="4.4348070025444031e-01" purity="7.0080560445785522e-01" nType="0">
          <Node pos="l" depth="2" NCoef="0" IVar="-1" Cut="0.0000000000000000e+00" cType="1" res="5.1405993290245533e-03" rms="4.3493083119392395e-01" purity="7.2067570686340332e-01" nType="-99"/>
          <Node pos="r" depth="2" NCoef="0" IVar="-1" Cut="0.0000000000000000e+00" cType="1" res="-2.5945790112018585e-03" rms="4.7294694185256958e-01" purity="3.8025927543640137e-01" nType="-99"/>
        </Node>
      </Node>
    </BinaryTree>
    <BinaryTree type="DecisionTree" boostWeight="1.0000000000000000e+00" itree="32">
      <Node pos="s" depth="0" NCoef="0" IVar="3" Cut="6.2504649162292480e-01" cType="1" res="-4.5923121273517609e-02" rms="4.5667818188667297e-01" purity="5.1100260019302368e-01" nType="0">
        <Node pos="l" depth="1" NCoef="0" IVar="3" Cut="-2.6506695430725813e-03" cType="1" res="-3.0422869324684143e-01" rms="3.5056039690971375e-01" purity="1.4468726515769958e-01" nType="0">
          <Node pos="l" depth="2" NCoef="0" IVar="-1" Cut="0.0000000000000000e+00" cType="1" res="-3.5283653996884823e-03" rms="2.5950714945793152e-01" purity="7.2620570659637451e-02" nType="-99"/>
          <Node pos="r" depth="2" NCoef="0" IVar="-1" Cut="0.0000000000000000e+00" cType="1" res="-3.3767372369766235e-03" rms="4.0248456597328186e-01" purity="2.0482242107391357e-01" nType="-99"/>
        </Node>
        <Node pos="r" depth="1" NCoef="0" IVar="4" Cut="9.2145644128322601e-02" cType="1" res="6.3383691012859344e-02" rms="4.5235165953636169e-01" purity="6.6601574420928955e-01" nType="0">
          <Node pos="l" depth="2" NCoef="0" IVar="-1" Cut="0.0000000000000000e+00" cType="1" res="-1.2722125975415111e-03" rms="4.8854377865791321e-01" purity="4.8688322305679321e-01" nType="-99"/>
          <Node pos="r" depth="2" NCoef="0" IVar="-1" Cut="0.0000000000000000e+00" cType="1" res="5.5348677560687065e-03" rms="4.2285251617431641e-01" purity="7.4750614166259766e-01" nType="-99"/>
        </Node>
      </Node>
    </BinaryTree>
    <BinaryTree type="DecisionTree" boostWeight="1.0000000000000000e+00" itree="33">
      <Node pos="s" depth="0" NCoef="0" IVar="3" Cut="8.4837704896926880e-01" cType="1" res="-5.0061866641044617e-02" rms="4.5441901683807373e-01" purity="5.0564128160476685e-01" nType="0">
        <Node pos="l" depth="1" NCoef="0" IVar="4" Cut="-1.7892019450664520e-01" cType="1" res="-2.6051032543182373e-01" rms="3.9163941144943237e-01" purity="1.9633810222148895e-01" nType="0">
          <Node pos="l" depth="2" NCoef="0" IVar="-1" Cut="0.0000000000000000e+00" cType="1" res="-3.0148392543196678e-03" rms="3.2661467790603638e-01" purity="1.2319321185350418e-01" nType="-99"/>
          <Node pos="r" depth="2" NCoef="0" IVar="-1" Cut="0.0000000000000000e+00" cType="1" res="-1.9442915217950940e-03" rms="4.7401291131973267e-01" purity="3.5403248667716980e-01" nType="-99"/>
        </Node>
        <Node pos="r" depth="1" NCoef="0" IVar="10" Cut="5.8891532897949219e+01" cType="1" res="9.5232829451560974e-02" rms="4.3758437037467957e-01" purity="7.1918576955795288e-01" nType="0">
          <Node pos="l" depth="2" NCoef="0" IVar="-1" Cut="0.0000000000000000e+00" cType="1" res="7.9261604696512222e-04" rms="4.7363454103469849e-01" purity="6.2668389081954956e-01" nType="-99"/>
          <Node pos="r" depth="2" NCoef="0" IVar="-1" Cut="0.0000000000000000e+00" cType="1" res="9.8009249195456505e-03" rms="3.9510908722877502e-01" purity="7.9366326332092285e-01" nType="-99"/>
        </Node>
      </Node>
    </BinaryTree>
    <BinaryTree type="DecisionTree" boostWeight="1.0000000000000000e+00" itree="34">
      <Node pos="s" depth="0" NCoef="0" IVar="3" Cut="9.2394435405731201e-01" cType="1" res="-6.5506786108016968e-02" rms="4.5379668474197388e-01" purity="4.9057656526565552e-01" nType="0">
        <Node pos="l" depth="1" NCoef="0" IVar="4" Cut="-8.4635414183139801e-02" cType="1" res="-2.4749019742012024e-01" rms="4.0291720628738403e-01" purity="2.2029110789299011e-01" nType="0">
          <Node pos="l" depth="2" NCoef="0" IVar="-1" Cut="0.0000000000000000e+00" cType="1" res="-3.2748512458056211e-03" rms="3.3726790547370911e-01" purity="1.3414949178695679e-01" nType="-99"/>
          <Node pos="r" depth="2" NCoef="0" IVar="-1" Cut="0.0000000000000000e+00" cType="1" res="-1.4457241632044315e-03" rms="4.8350685834884644e-01" purity="4.1168105602264404e-01" nType="-99"/>
        </Node>
        <Node pos="r" depth="1" NCoef="0" IVar="0" Cut="9.8576393127441406e+01" cType="1" res="9.3477688729763031e-02" rms="4.3566408753395081e-01" purity="7.2670352458953857e-01" nType="0">
          <Node pos="l" depth="2" NCoef="0" IVar="-1" Cut="0.0000000000000000e+00" cType="1" res="-4.0932474657893181e-03" rms="4.8908820748329163e-01" purity="4.3717175722122192e-01" nType="-99"/>
          <Node pos="r" depth="2" NCoef="0" IVar="-1" Cut="0.0000000000000000e+00" cType="1" res="7.0209112018346786e-03" rms="4.2154511809349060e-01" purity="7.5655782222747803e-01" nType="-99"/>
        </Node>
      </Node>
    </BinaryTree>
    <BinaryTree type="DecisionTree" boostWeight="1.0000000000000000e+00" itree="35">
      <Node pos="s" depth="0" NCoef="0" IVar="3" Cut="9.2394435405731201e-01" cType="1" res="-5.1499698311090469e-02" rms="4.5279031991958618e-01" purity="5.0637942552566528e-01" nType="0">
        <Node pos="l" depth="1" NCoef="0" IVar="4" Cut="-8.4635414183139801e-02" cType="1" res="-2.3480722308158875e-01" rms="4.0998455882072449e-01" purity="2.3086152970790863e-01" nType="0">
          <Node pos="l" depth="2" NCoef="0" IVar="-1" Cut="0.0000000000000000e+00" cType="1" res="-3.0990540981292725e-03" rms="3.4764173626899719e-01" purity="1.4408949017524719e-01" nType="-99"/>
          <Node pos="r" depth="2" NCoef="0" IVar="-1" Cut="0.0000000000000000e+00" cType="1" res="-1.3027986278757453e-03" rms="4.8585811257362366e-01" purity="4.2828795313835144e-01" nType="-99"/>
        </Node>
        <Node pos="r" depth="1" NCoef="0" IVar="12" Cut="1.4030307531356812e+00" cType="1" res="1.0411994159221649e-01" rms="4.2851918935775757e-01" purity="7.4028146266937256e-01" nType="0">
          <Node pos="l" depth="2" NCoef="0" IVar="-1" Cut="0.0000000000000000e+00" cType="1" res="7.7255973592400551e-03" rms="4.1762143373489380e-01" purity="7.6038551330566406e-01" nType="-99"/>
          <Node pos="r" depth="2" NCoef="0" IVar="-1" Cut="0.0000000000000000e+00" cType="1" res="-5.1383096724748611e-03" rms="4.8927006125450134e-01" purity="4.7029417753219604e-01" nType="-99"/>
        </Node>
      </Node>
    </BinaryTree>
    <BinaryTree type="DecisionTree" boostWeight="1.0000000000000000e+00" itree="36">
      <Node pos="s" depth="0" NCoef="0" IVar="3" Cut="6.2446522712707520e-01" cType="1" res="-6.0366056859493256e-02" rms="4.5086801052093506e-01" purity="4.9757614731788635e-01" nType="0">
        <Node pos="l" depth="1" NCoef="0" IVar="4" Cut="-7.3800221085548401e-02" cType="1" res="-3.1767413020133972e-01" rms="3.2964068651199341e-01" purity="1.2525720894336700e-01" nType="0">
          <Node pos="l" depth="2" NCoef="0" IVar="-1" Cut="0.0000000000000000e+00" cType="1" res="-3.0364510603249073e-03" rms="2.9263094067573547e-01" purity="9.4817683100700378e-02" nType="-99"/>
          <Node pos="r" depth="2" NCoef="0" IVar="-1" Cut="0.0000000000000000e+00" cType="1" res="-2.8991182334721088e-03" rms="4.5889082551002502e-01" purity="3.0225050449371338e-01" nType="-99"/>
        </Node>
        <Node pos="r" depth="1" NCoef="0" IVar="4" Cut="-1.3469587266445160e-01" cType="1" res="5.9284493327140808e-02" rms="4.4964131712913513e-01" purity="6.7070782184600830e-01" nType="0">
          <Node pos="l" depth="2" NCoef="0" IVar="-1" Cut="0.0000000000000000e+00" cType="1" res="-1.8998904852196574e-03" rms="4.8150473833084106e-01" purity="4.5436069369316101e-01" nType="-99"/>
          <Node pos="r" depth="2" NCoef="0" IVar="-1" Cut="0.0000000000000000e+00" cType="1" res="4.8556206747889519e-03" rms="4.3178990483283997e-01" purity="7.3035335540771484e-01" nType="-99"/>
        </Node>
      </Node>
    </BinaryTree>
    <BinaryTree type="DecisionTree" boostWeight="1.0000000000000000e+00" itree="37">
      <Node pos="s" depth="0" NCoef="0" IVar="3" Cut="5.4666572809219360e-01" cType="1" res="-6.0645017772912979e-02" rms="4.5094454288482666e-01" purity="4.9863710999488831e-01" nType="0">
        <Node pos="l" depth="1" NCoef="0" IVar="4" Cut="-3.2052177190780640e-01" cType="1" res="-3.2334938645362854e-01" rms="3.2043617963790894e-01" purity="1.1685471236705780e-01" nType="0">
          <Node pos="l" depth="2" NCoef="0" IVar="-1" Cut="0.0000000000000000e+00" cType="1" res="-2.8424826450645924e-03" rms="2.5964537262916565e-01" purity="7.2822086513042450e-02" nType="-99"/>
          <Node pos="r" depth="2" NCoef="0" IVar="-1" Cut="0.0000000000000000e+00" cType="1" res="-2.7946941554546356e-03" rms="3.9592024683952332e-01" purity="1.9543860852718353e-01" nType="-99"/>
        </Node>
        <Node pos="r" depth="1" NCoef="0" IVar="4" Cut="-5.9082031250000000e-02" cType="1" res="4.6779483556747437e-02" rms="4.5250028371810913e-01" purity="6.5475475788116455e-01" nType="0">
          <Node pos="l" depth="2" NCoef="0" IVar="-1" Cut="0.0000000000000000e+00" cType="1" res="-1.9406039500609040e-03" rms="4.7937792539596558e-01" purity="4.3956220149993896e-01" nType="-99"/>
          <Node pos="r" depth="2" NCoef="0" IVar="-1" Cut="0.0000000000000000e+00" cType="1" res="5.2556539885699749e-03" rms="4.3012434244155884e-01" purity="7.3338288068771362e-01" nType="-99"/>
        </Node>
      </Node>
    </BinaryTree>
    <BinaryTree type="DecisionTree" boostWeight="1.0000000000000000e+00" itree="38">
      <Node pos="s" depth="0" NCoef="0" IVar="3" Cut="6.2388390302658081e-01" cType="1" res="-6.5134093165397644e-02" rms="4.4917681813240051e-01" purity="4.9255570769309998e-01" nType="0">
        <Node pos="l" depth="1" NCoef="0" IVar="3" Cut="-5.9058777987957001e-03" cType="1" res="-3.1251654028892517e-01" rms="3.3207991719245911e-01" purity="1.2757016718387604e-01" nType="0">
          <Node pos="l" depth="2" NCoef="0" IVar="-1" Cut="0.0000000000000000e+00" cType="1" res="-2.8946637175977230e-03" rms="2.2523370385169983e-01" purity="5.3609691560268402e-02" nType="-99"/>
          <Node pos="r" depth="2" NCoef="0" IVar="-1" Cut="0.0000000000000000e+00" cType="1" res="-2.9678065329790115e-03" rms="3.9157399535179138e-01" purity="1.9077686965465546e-01" nType="-99"/>
        </Node>
        <Node pos="r" depth="1" NCoef="0" IVar="4" Cut="3.1898716092109680e-01" cType="1" res="5.3299169987440109e-02" rms="4.4970214366912842e-01" purity="6.6729092597961426e-01" nType="0">
          <Node pos="l" depth="2" NCoef="0" IVar="-1" Cut="0.0000000000000000e+00" cType="1" res="-1.1220860760658979e-03" rms="4.8172119259834290e-01" purity="5.1350915431976318e-01" nType="-99"/>
          <Node pos="r" depth="2" NCoef="0" IVar="-1" Cut="0.0000000000000000e+00" cType="1" res="6.7568235099315643e-03" rms="4.1263541579246521e-01" purity="7.7204000949859619e-01" nType="-99"/>
        </Node>
      </Node>
    </BinaryTree>
    <BinaryTree type="DecisionTree" boostWeight="1.0000000000000000e+00" itree="39">
      <Node pos="s" depth="0" NCoef="0" IVar="3" Cut="6.2167501449584961e-01" cType="1" res="-6.0555581003427505e-02" rms="4.4962802529335022e-01" purity="5.0149756669998169e-01" nType="0">
        <Node pos="l" depth="1" NCoef="0" IVar="3" Cut="1.0344587266445160e-01" cType="1" res="-3.0751681327819824e-01" rms="3.3639860153198242e-01" purity="1.3140700757503510e-01" nType="0">
          <Node pos="l" depth="2" NCoef="0" IVar="-1" Cut="0.0000000000000000e+00" cType="1" res="-3.4705572761595249e-03" rms="2.5423374772071838e-01" purity="6.9544509053230286e-02" nType="-99"/>
          <Node pos="r" depth="2" NCoef="0" IVar="-1" Cut="0.0000000000000000e+00" cType="1" res="-2.8269379399716854e-03" rms="4.0512689948081970e-01" purity="2.0851841568946838e-01" nType="-99"/>
        </Node>
        <Node pos="r" depth="1" NCoef="0" IVar="4" Cut="3.1898716092109680e-01" cType="1" res="4.4223267585039139e-02" rms="4.5063430070877075e-01" purity="6.5851682424545288e-01" nType="0">
          <Node pos="l" depth="2" NCoef="0" IVar="-1" Cut="0.0000000000000000e+00" cType="1" res="-1.3178872177377343e-03" rms="4.8098057508468628e-01" purity="4.9790236353874207e-01" nType="-99"/>
          <Node pos="r" depth="2" NCoef="0" IVar="-1" Cut="0.0000000000000000e+00" cType="1" res="7.0584150962531567e-03" rms="4.1139224171638489e-01" purity="7.7260148525238037e-01" nType="-99"/>
        </Node>
      </Node>
    </BinaryTree>
    <BinaryTree type="DecisionTree" boostWeight="1.0000000000000000e+00" itree="40">
      <Node pos="s" depth="0" NCoef="0" IVar="3" Cut="8.4856307506561279e-01" cType="1" res="-6.1839941889047623e-02" rms="4.4814640283584595e-01" purity="4.9803888797760010e-01" nType="0">
        <Node pos="l" depth="1" NCoef="0" IVar="4" Cut="-4.2433965951204300e-02" cType="1" res="-2.5870671868324280e-01" rms="3.8477194309234619e-01" purity="1.9015508890151978e-01" nType="0">
          <Node pos="l" depth="2" NCoef="0" IVar="-1" Cut="0.0000000000000000e+00" cType="1" res="-3.0969523359090090e-03" rms="3.2602080702781677e-01" purity="1.2291871756315231e-01" nType="-99"/>
          <Node pos="r" depth="2" NCoef="0" IVar="-1" Cut="0.0000000000000000e+00" cType="1" res="-9.6297392155975103e-04" rms="4.8906594514846802e-01" purity="4.1900235414505005e-01" nType="-99"/>
        </Node>
        <Node pos="r" depth="1" NCoef="0" IVar="0" Cut="9.8574691772460938e+01" cType="1" res="7.6050966978073120e-02" rms="4.3777590990066528e-01" purity="7.1368914842605591e-01" nType="0">
          <Node pos="l" depth="2" NCoef="0" IVar="-1" Cut="0.0000000000000000e+00" cType="1" res="-3.0419968534260988e-03" rms="4.8442611098289490e-01" purity="4.3593558669090271e-01" nType="-99"/>
          <Node pos="r" depth="2" NCoef="0" IVar="-1" Cut="0.0000000000000000e+00" cType="1" res="5.5893817916512489e-03" rms="4.2513847351074219e-01" purity="7.4339449405670166e-01" nType="-99"/>
        </Node>
      </Node>
    </BinaryTree>
    <BinaryTree type="DecisionTree" boostWeight="1.0000000000000000e+00" itree="41">
      <Node pos="s" depth="0" NCoef="0" IVar="3" Cut="8.4837704896926880e-01" cType="1" res="-6.6219910979270935e-02" rms="4.4918450713157654e-01" purity="4.9553295969963074e-01" nType="0">
        <Node pos="l" depth="1" NCoef="0" IVar="3" Cut="3.0126953125000000e-01" cType="1" res="-2.5463253259658813e-01" rms="3.8834846019744873e-01" purity="1.9357119500637054e-01" nType="0">
          <Node pos="l" depth="2" NCoef="0" IVar="-1" Cut="0.0000000000000000e+00" cType="1" res="-3.1545939855277538e-03" rms="2.9696601629257202e-01" purity="9.7963050007820129e-02" nType="-99"/>
          <Node pos="r" depth="2" NCoef="0" IVar="-1" Cut="0.0000000000000000e+00" cType="1" res="-2.1156172733753920e-03" rms="4.5908340811729431e-01" purity="3.1234753131866455e-01" nType="-99"/>
        </Node>
        <Node pos="r" depth="1" NCoef="0" IVar="0" Cut="1.0429412841796875e+02" cType="1" res="6.3972249627113342e-02" rms="4.4214770197868347e-01" purity="7.0418697595596313e-01" nType="0">
          <Node pos="l" depth="2" NCoef="0" IVar="-1" Cut="0.0000000000000000e+00" cType="1" res="-3.1021069735288620e-03" rms="4.9060845375061035e-01" purity="5.1055061817169189e-01" nType="-99"/>
          <Node pos="r" depth="2" NCoef="0" IVar="-1" Cut="0.0000000000000000e+00" cType="1" res="5.1328195258975029e-03" rms="4.2327478528022766e-01" purity="7.4564498662948608e-01" nType="-99"/>
        </Node>
      </Node>
    </BinaryTree>
    <BinaryTree type="DecisionTree" boostWeight="1.0000000000000000e+00" itree="42">
      <Node pos="s" depth="0" NCoef="0" IVar="3" Cut="6.2214004993438721e-01" cType="1" res="-5.8932427316904068e-02" rms="4.4801864027976990e-01" purity="5.0460559129714966e-01" nType="0">
        <Node pos="l" depth="1" NCoef="0" IVar="3" Cut="3.9206659793853760e-01" cType="1" res="-2.9782241582870483e-01" rms="3.4185209870338440e-01" purity="1.3669346272945404e-01" nType="0">
          <Node pos="l" depth="2" NCoef="0" IVar="-1" Cut="0.0000000000000000e+00" cType="1" res="-3.2059031073004007e-03" rms="3.0540031194686890e-01" purity="1.0443939268589020e-01" nType="-99"/>
          <Node pos="r" depth="2" NCoef="0" IVar="-1" Cut="0.0000000000000000e+00" cType="1" res="-1.9831336103379726e-03" rms="4.4736966490745544e-01" purity="2.7930569648742676e-01" nType="-99"/>
        </Node>
        <Node pos="r" depth="1" NCoef="0" IVar="4" Cut="4.7021484375000000e-01" cType="1" res="4.5412130653858185e-02" rms="4.4892567396163940e-01" purity="6.6530561447143555e-01" nType="0">
          <Node pos="l" depth="2" NCoef="0" IVar="-1" Cut="0.0000000000000000e+00" cType="1" res="-1.0314561659470201e-03" rms="4.8116648197174072e-01" purity="5.2780783176422119e-01" nType="-99"/>
          <Node pos="r" depth="2" NCoef="0" IVar="-1" Cut="0.0000000000000000e+00" cType="1" res="7.6965661719441414e-03" rms="4.0460047125816345e-01" purity="7.8249633312225342e-01" nType="-99"/>
        </Node>
      </Node>
    </BinaryTree>
    <BinaryTree type="DecisionTree" boostWeight="1.0000000000000000e+00" itree="43">
      <Node pos="s" depth="0" NCoef="0" IVar="3" Cut="6.2214004993438721e-01" cType="1" res="-6.7114315927028656e-02" rms="4.4513604044914246e-01" purity="4.9396413564682007e-01" nType="0">
        <Node pos="l" depth="1" NCoef="0" IVar="4" Cut="-7.3800221085548401e-02" cType="1" res="-3.0736449360847473e-01" rms="3.2931068539619446e-01" purity="1.2528425455093384e-01" nType="0">
          <Node pos="l" depth="2" NCoef="0" IVar="-1" Cut="0.0000000000000000e+00" cType="1" res="-2.9478482902050018e-03" rms="2.9204368591308594e-01" purity="9.4483628869056702e-02" nType="-99"/>
          <Node pos="r" depth="2" NCoef="0" IVar="-1" Cut="0.0000000000000000e+00" cType="1" res="-2.4447333998978138e-03" rms="4.5700195431709290e-01" purity="2.9931598901748657e-01" nType="-99"/>
        </Node>
        <Node pos="r" depth="1" NCoef="0" IVar="3" Cut="9.4566124677658081e-01" cType="1" res="4.8136942088603973e-02" rms="4.4744238257408142e-01" purity="6.7082494497299194e-01" nType="0">
          <Node pos="l" depth="2" NCoef="0" IVar="-1" Cut="0.0000000000000000e+00" cType="1" res="-1.5977902803570032e-03" rms="4.8547002673149109e-01" purity="4.4041755795478821e-01" nType="-99"/>
          <Node pos="r" depth="2" NCoef="0" IVar="-1" Cut="0.0000000000000000e+00" cType="1" res="5.8151716366410255e-03" rms="4.2515799403190613e-01" purity="7.4644726514816284e-01" nType="-99"/>
        </Node>
      </Node>
    </BinaryTree>
    <BinaryTree type="DecisionTree" boostWeight="1.0000000000000000e+00" itree="44">
      <Node pos="s" depth="0" NCoef="0" IVar="3" Cut="6.2167501449584961e-01" cType="1" res="-6.2962844967842102e-02" rms="4.4558358192443848e-01" purity="4.9997812509536743e-01" nType="0">
        <Node pos="l" depth="1" NCoef="0" IVar="4" Cut="-3.0250185728073120e-01" cType="1" res="-3.0224990844726562e-01" rms="3.3412346243858337e-01" purity="1.2938332557678223e-01" nType="0">
          <Node pos="l" depth="2" NCoef="0" IVar="-1" Cut="0.0000000000000000e+00" cType="1" res="-3.0137796420603991e-03" rms="2.7540570497512817e-01" purity="8.2977019250392914e-02" nType="-99"/>
          <Node pos="r" depth="2" NCoef="0" IVar="-1" Cut="0.0000000000000000e+00" cType="1" res="-2.4825255386531353e-03" rms="4.0543121099472046e-01" purity="2.0919579267501831e-01" nType="-99"/>
        </Node>
        <Node pos="r" depth="1" NCoef="0" IVar="10" Cut="5.2427680969238281e+01" cType="1" res="4.6879637986421585e-02" rms="4.4731307029724121e-01" purity="6.7009621858596802e-01" nType="0">
          <Node pos="l" depth="2" NCoef="0" IVar="-1" Cut="0.0000000000000000e+00" cType="1" res="-1.5251844888553023e-03" rms="4.7792983055114746e-01" purity="5.4823052883148193e-01" nType="-99"/>
          <Node pos="r" depth="2" NCoef="0" IVar="-1" Cut="0.0000000000000000e+00" cType="1" res="5.2302391268312931e-03" rms="4.1333320736885071e-01" purity="7.4886304140090942e-01" nType="-99"/>
        </Node>
      </Node>
    </BinaryTree>
    <BinaryTree type="DecisionTree" boostWeight="1.0000000000000000e+00" itree="45">
      <Node pos="s" depth="0" NCoef="0" IVar="3" Cut="6.2167501449584961e-01" cType="1" res="-6.5552346408367157e-02" rms="4.4509285688400269e-01" purity="4.9739527702331543e-01" nType="0">
        <Node pos="l" depth="1" NCoef="0" IVar="3" Cut="1.0344587266445160e-01" cType="1" res="-3.0240166187286377e-01" rms="3.3199229836463928e-01" purity="1.2764745950698853e-01" nType="0">
          <Node pos="l" depth="2" NCoef="0" IVar="-1" Cut="0.0000000000000000e+00" cType="1" res="-3.1062643975019455e-03" rms="2.5056678056716919e-01" purity="6.7421764135360718e-02" nType="-99"/>
          <Node pos="r" depth="2" NCoef="0" IVar="-1" Cut="0.0000000000000000e+00" cType="1" res="-2.6242258027195930e-03" rms="4.0327122807502747e-01" purity="2.0629161596298218e-01" nType="-99"/>
        </Node>
        <Node pos="r" depth="1" NCoef="0" IVar="5" Cut="3.8095238804817200e-01" cType="1" res="4.2160209268331528e-02" rms="4.4828942418098450e-01" purity="6.6554635763168335e-01" nType="0">
          <Node pos="l" depth="2" NCoef="0" IVar="-1" Cut="0.0000000000000000e+00" cType="1" res="4.5214421115815639e-03" rms="4.1697221994400024e-01" purity="7.4540698528289795e-01" nType="-99"/>
          <Node pos="r" depth="2" NCoef="0" IVar="-1" Cut="0.0000000000000000e+00" cType="1" res="-1.5517341671511531e-03" rms="4.6988511085510254e-01" purity="5.5861133337020874e-01" nType="-99"/>
        </Node>
      </Node>
    </BinaryTree>
    <BinaryTree type="DecisionTree" boostWeight="1.0000000000000000e+00" itree="46">
      <Node pos="s" depth="0" NCoef="0" IVar="3" Cut="6.2214004993438721e-01" cType="1" res="-6.4714677631855011e-02" rms="4.4387933611869812e-01" purity="4.9930477142333984e-01" nType="0">
        <Node pos="l" depth="1" NCoef="0" IVar="3" Cut="-1.0439918376505375e-02" cType="1" res="-3.0604371428489685e-01" rms="3.2670870423316956e-01" purity="1.2291368842124939e-01" nType="0">
          <Node pos="l" depth="2" NCoef="0" IVar="-1" Cut="0.0000000000000000e+00" cType="1" res="-3.0510511714965105e-03" rms="2.2436879575252533e-01" purity="5.3173463791608810e-02" nType="-99"/>
          <Node pos="r" depth="2" NCoef="0" IVar="-1" Cut="0.0000000000000000e+00" cType="1" res="-2.7276407927274704e-03" rms="3.7912046909332275e-01" purity="1.7560523748397827e-01" nType="-99"/>
        </Node>
        <Node pos="r" depth="1" NCoef="0" IVar="0" Cut="1.0428813171386719e+02" cType="1" res="4.7264002263545990e-02" rms="4.4649899005889893e-01" purity="6.7395335435867310e-01" nType="0">
          <Node pos="l" depth="2" NCoef="0" IVar="-1" Cut="0.0000000000000000e+00" cType="1" res="-2.4516307748854160e-03" rms="4.8581308126449585e-01" purity="4.8033720254898071e-01" nType="-99"/>
          <Node pos="r" depth="2" NCoef="0" IVar="-1" Cut="0.0000000000000000e+00" cType="1" res="4.1087660938501358e-03" rms="4.2835745215415955e-01" purity="7.1867656707763672e-01" nType="-99"/>
        </Node>
      </Node>
    </BinaryTree>
    <BinaryTree type="DecisionTree" boostWeight="1.0000000000000000e+00" itree="47">
      <Node pos="s" depth="0" NCoef="0" IVar="3" Cut="6.2411642074584961e-01" cType="1" res="-5.6752815842628479e-02" rms="4.4533625245094299e-01" purity="5.0976943969726562e-01" nType="0">
        <Node pos="l" depth="1" NCoef="0" IVar="3" Cut="-5.1618302240967751e-03" cType="1" res="-2.8691840171813965e-01" rms="3.4647515416145325e-01" purity="1.4113633334636688e-01" nType="0">
          <Node pos="l" depth="2" NCoef="0" IVar="-1" Cut="0.0000000000000000e+00" cType="1" res="-3.3916421234607697e-03" rms="2.4185709655284882e-01" purity="6.2394790351390839e-02" nType="-99"/>
          <Node pos="r" depth="2" NCoef="0" IVar="-1" Cut="0.0000000000000000e+00" cType="1" res="-2.9117977246642113e-03" rms="3.9990517497062683e-01" purity="2.0152671635150909e-01" nType="-99"/>
        </Node>
        <Node pos="r" depth="1" NCoef="0" IVar="0" Cut="1.0143289184570312e+02" cType="1" res="4.1484516113996506e-02" rms="4.4662454724311829e-01" purity="6.6710627079010010e-01" nType="0">
          <Node pos="l" depth="2" NCoef="0" IVar="-1" Cut="0.0000000000000000e+00" cType="1" res="-2.2912132553756237e-03" rms="4.7594398260116577e-01" purity="4.1463342308998108e-01" nType="-99"/>
          <Node pos="r" depth="2" NCoef="0" IVar="-1" Cut="0.0000000000000000e+00" cType="1" res="3.5062639508396387e-03" rms="4.3139865994453430e-01" purity="7.1159654855728149e-01" nType="-99"/>
        </Node>
      </Node>
    </BinaryTree>
    <BinaryTree type="DecisionTree" boostWeight="1.0000000000000000e+00" itree="48">
      <Node pos="s" depth="0" NCoef="0" IVar="3" Cut="9.2394435405731201e-01" cType="1" res="-6.1295542865991592e-02" rms="4.4266191124916077e-01" purity="5.0308561325073242e-01" nType="0">
        <Node pos="l" depth="1" NCoef="0" IVar="3" Cut="4.9204799532890320e-01" cType="1" res="-2.3119580745697021e-01" rms="4.0192490816116333e-01" purity="2.2463278472423553e-01" nType="0">
          <Node pos="l" depth="2" NCoef="0" IVar="-1" Cut="0.0000000000000000e+00" cType="1" res="-3.0255038291215897e-03" rms="3.0789792537689209e-01" purity="1.0667403787374496e-01" nType="-99"/>
          <Node pos="r" depth="2" NCoef="0" IVar="-1" Cut="0.0000000000000000e+00" cType="1" res="-1.7854511970654130e-03" rms="4.7899368405342102e-01" purity="3.8747492432594299e-01" nType="-99"/>
        </Node>
        <Node pos="r" depth="1" NCoef="0" IVar="5" Cut="1.1428571939468384e+00" cType="1" res="8.8742114603519440e-02" rms="4.2229193449020386e-01" purity="7.4898517131805420e-01" nType="0">
          <Node pos="l" depth="2" NCoef="0" IVar="-1" Cut="0.0000000000000000e+00" cType="1" res="7.7016088180243969e-03" rms="4.0887582302093506e-01" purity="7.7195447683334351e-01" nType="-99"/>
          <Node pos="r" depth="2" NCoef="0" IVar="-1" Cut="0.0000000000000000e+00" cType="1" res="-5.7146446779370308e-03" rms="4.8179888725280762e-01" purity="5.6626701354980469e-01" nType="-99"/>
        </Node>
      </Node>
    </BinaryTree>
    <BinaryTree type="DecisionTree" boostWeight="1.0000000000000000e+00" itree="49">
      <Node pos="s" depth="0" NCoef="0" IVar="3" Cut="6.2167501449584961e-01" cType="1" res="-6.5215073525905609e-02" rms="4.4319805502891541e-01" purity="4.9943527579307556e-01" nType="0">
        <Node pos="l" depth="1" NCoef="0" IVar="3" Cut="-1.1695498600602150e-02" cType="1" res="-2.8830653429031372e-01" rms="3.4184157848358154e-01" purity="1.3676121830940247e-01" nType="0">
          <Node pos="l" depth="2" NCoef="0" IVar="-1" Cut="0.0000000000000000e+00" cType="1" res="-3.4830875229090452e-03" rms="2.3623192310333252e-01" purity="5.9329595416784286e-02" nType="-99"/>
          <Node pos="r" depth="2" NCoef="0" IVar="-1" Cut="0.0000000000000000e+00" cType="1" res="-2.3539143148809671e-03" rms="3.9146286249160767e-01" purity="1.9069314002990723e-01" nType="-99"/>
        </Node>
        <Node pos="r" depth="1" NCoef="0" IVar="12" Cut="1.2541681528091431e+00" cType="1" res="3.7763088941574097e-02" rms="4.4673836231231689e-01" purity="6.6684424877166748e-01" nType="0">
          <Node pos="l" depth="2" NCoef="0" IVar="-1" Cut="0.0000000000000000e+00" cType="1" res="2.8439112938940525e-03" rms="4.3499282002449036e-01" purity="6.9945210218429565e-01" nType="-99"/>
          <Node pos="r" depth="2" NCoef="0" IVar="-1" Cut="0.0000000000000000e+00" cType="1" res="-2.5941417552530766e-03" rms="4.7534382343292236e-01" purity="4.5571351051330566e-01" nType="-99"/>
        </Node>
      </Node>
    </BinaryTree>
    <BinaryTree type="DecisionTree" boostWeight="1.0000000000000000e+00" itree="50">
      <Node pos="s" depth="0" NCoef="0" IVar="3" Cut="6.2167501449584961e-01" cType="1" res="-6.7579060792922974e-02" rms="4.4106599688529968e-01" purity="4.9659252166748047e-01" nType="0">
        <Node pos="l" depth="1" NCoef="0" IVar="4" Cut="-7.4009485542774200e-02" cType="1" res="-2.9503783583641052e-01" rms="3.3170920610427856e-01" purity="1.2753060460090637e-01" nType="0">
          <Node pos="l" depth="2" NCoef="0" IVar="-1" Cut="0.0000000000000000e+00" cType="1" res="-2.8830769006162882e-03" rms="2.9582798480987549e-01" purity="9.7363717854022980e-02" nType="-99"/>
          <Node pos="r" depth="2" NCoef="0" IVar="-1" Cut="0.0000000000000000e+00" cType="1" res="-2.5408919900655746e-03" rms="4.6396994590759277e-01" purity="3.1519681215286255e-01" nType="-99"/>
        </Node>
        <Node pos="r" depth="1" NCoef="0" IVar="4" Cut="-1.3469587266445160e-01" cType="1" res="3.9169643074274063e-02" rms="4.4555982947349548e-01" purity="6.6979694366455078e-01" nType="0">
          <Node pos="l" depth="2" NCoef="0" IVar="-1" Cut="0.0000000000000000e+00" cType="1" res="-2.1447716280817986e-03" rms="4.7883418202400208e-01" purity="4.3782621622085571e-01" nType="-99"/>
          <Node pos="r" depth="2" NCoef="0" IVar="-1" Cut="0.0000000000000000e+00" cType="1" res="4.6663577668368816e-03" rms="4.2444622516632080e-01" purity="7.3996782302856445e-01" nType="-99"/>
        </Node>
      </Node>
    </BinaryTree>
    <BinaryTree type="DecisionTree" boostWeight="1.0000000000000000e+00" itree="51">
      <Node pos="s" depth="0" NCoef="0" IVar="3" Cut="6.2272137403488159e-01" cType="1" res="-5.7123042643070221e-02" rms="4.4167453050613403e-01" purity="5.1205575466156006e-01" nType="0">
        <Node pos="l" depth="1" NCoef="0" IVar="3" Cut="1.0588727891445160e-01" cType="1" res="-2.8550508618354797e-01" rms="3.4130740165710449e-01" purity="1.3633055984973907e-01" nType="0">
          <Node pos="l" depth="2" NCoef="0" IVar="-1" Cut="0.0000000000000000e+00" cType="1" res="-3.2808454707264900e-03" rms="2.5381660461425781e-01" purity="6.9261990487575531e-02" nType="-99"/>
          <Node pos="r" depth="2" NCoef="0" IVar="-1" Cut="0.0000000000000000e+00" cType="1" res="-2.7620273176580667e-03" rms="4.0882381796836853e-01" purity="2.1407233178615570e-01" nType="-99"/>
        </Node>
        <Node pos="r" depth="1" NCoef="0" IVar="4" Cut="3.1898716092109680e-01" cType="1" res="4.1425038129091263e-02" rms="4.4358560442924500e-01" purity="6.7418318986892700e-01" nType="0">
          <Node pos="l" depth="2" NCoef="0" IVar="-1" Cut="0.0000000000000000e+00" cType="1" res="-1.2192978756502271e-03" rms="4.8075726628303528e-01" purity="5.2140682935714722e-01" nType="-99"/>
          <Node pos="r" depth="2" NCoef="0" IVar="-1" Cut="0.0000000000000000e+00" cType="1" res="7.2012357413768768e-03" rms="4.0348678827285767e-01" purity="7.8064417839050293e-01" nType="-99"/>
        </Node>
      </Node>
    </BinaryTree>
    <BinaryTree type="DecisionTree" boostWeight="1.0000000000000000e+00" itree="52">
      <Node pos="s" depth="0" NCoef="0" IVar="3" Cut="8.4949314594268799e-01" cType="1" res="-6.7440509796142578e-02" rms="4.4100496172904968e-01" purity="4.9933376908302307e-01" nType="0">
        <Node pos="l" depth="1" NCoef="0" IVar="3" Cut="4.4203403592109680e-01" cType="1" res="-2.4767903983592987e-01" rms="3.8191869854927063e-01" purity="1.8940217792987823e-01" nType="0">
          <Node pos="l" depth="2" NCoef="0" IVar="-1" Cut="0.0000000000000000e+00" cType="1" res="-3.1199993100017309e-03" rms="3.0525723099708557e-01" purity="1.0455883294343948e-01" nType="-99"/>
          <Node pos="r" depth="2" NCoef="0" IVar="-1" Cut="0.0000000000000000e+00" cType="1" res="-1.9556849729269743e-03" rms="4.6690523624420166e-01" purity="3.3906516432762146e-01" nType="-99"/>
        </Node>
        <Node pos="r" depth="1" NCoef="0" IVar="10" Cut="5.8891532897949219e+01" cType="1" res="5.6345913559198380e-02" rms="4.3617132306098938e-01" purity="7.1219235658645630e-01" nType="0">
          <Node pos="l" depth="2" NCoef="0" IVar="-1" Cut="0.0000000000000000e+00" cType="1" res="-7.0955889532342553e-04" rms="4.7294881939888000e-01" purity="6.1330670118331909e-01" nType="-99"/>
          <Node pos="r" depth="2" NCoef="0" IVar="-1" Cut="0.0000000000000000e+00" cType="1" res="7.2728428058326244e-03" rms="3.8975802063941956e-01" purity="7.9585623741149902e-01" nType="-99"/>
        </Node>
      </Node>
    </BinaryTree>
    <BinaryTree type="DecisionTree" boostWeight="1.0000000000000000e+00" itree="53">
      <Node pos="s" depth="0" NCoef="0" IVar="3" Cut="6.2411642074584961e-01" cType="1" res="-6.6776618361473083e-02" rms="4.4209405779838562e-01" purity="5.0279980897903442e-01" nType="0">
        <Node pos="l" depth="1" NCoef="0" IVar="4" Cut="-7.4009485542774200e-02" cType="1" res="-2.8530815243721008e-01" rms="3.3822464942932129e-01" purity="1.3359563052654266e-01" nType="0">
          <Node pos="l" depth="2" NCoef="0" IVar="-1" Cut="0.0000000000000000e+00" cType="1" res="-3.2242350280284882e-03" rms="3.0122435092926025e-01" purity="1.0142038762569427e-01" nType="-99"/>
          <Node pos="r" depth="2" NCoef="0" IVar="-1" Cut="0.0000000000000000e+00" cType="1" res="-1.8399042310193181e-03" rms="4.5346057415008545e-01" purity="2.9085093736648560e-01" nType="-99"/>
        </Node>
        <Node pos="r" depth="1" NCoef="0" IVar="10" Cut="5.8891532897949219e+01" cType="1" res="3.2065205276012421e-02" rms="4.4803670048713684e-01" purity="6.6979092359542847e-01" nType="0">
          <Node pos="l" depth="2" NCoef="0" IVar="-1" Cut="0.0000000000000000e+00" cType="1" res="-1.6247504390776157e-03" rms="4.7733309864997864e-01" purity="5.6705838441848755e-01" nType="-99"/>
          <Node pos="r" depth="2" NCoef="0" IVar="-1" Cut="0.0000000000000000e+00" cType="1" res="6.0064978897571564e-03" rms="4.0574413537979126e-01" purity="7.6254862546920776e-01" nType="-99"/>
        </Node>
      </Node>
    </BinaryTree>
    <BinaryTree type="DecisionTree" boostWeight="1.0000000000000000e+00" itree="54">
      <Node pos="s" depth="0" NCoef="0" IVar="3" Cut="6.2167501449584961e-01" cType="1" res="-6.3375845551490784e-02" rms="4.4183388352394104e-01" purity="5.0875836610794067e-01" nType="0">
        <Node pos="l" depth="1" NCoef="0" IVar="4" Cut="-7.6939173042774200e-02" cType="1" res="-2.8372427821159363e-01" rms="3.3810311555862427e-01" purity="1.3365532457828522e-01" nType="0">
          <Node pos="l" depth="2" NCoef="0" IVar="-1" Cut="0.0000000000000000e+00" cType="1" res="-3.3788785804063082e-03" rms="2.9606086015701294e-01" purity="9.7537137567996979e-02" nType="-99"/>
          <Node pos="r" depth="2" NCoef="0" IVar="-1" Cut="0.0000000000000000e+00" cType="1" res="-1.8546689534559846e-03" rms="4.5750948786735535e-01" purity="3.0086722970008850e-01" nType="-99"/>
        </Node>
        <Node pos="r" depth="1" NCoef="0" IVar="10" Cut="5.5490314483642578e+01" cType="1" res="2.7197174727916718e-02" rms="4.4756120443344116e-01" purity="6.6294240951538086e-01" nType="0">
          <Node pos="l" depth="2" NCoef="0" IVar="-1" Cut="0.0000000000000000e+00" cType="1" res="-1.6463332576677203e-03" rms="4.7512996196746826e-01" purity="5.5091691017150879e-01" nType="-99"/>
          <Node pos="r" depth="2" NCoef="0" IVar="-1" Cut="0.0000000000000000e+00" cType="1" res="4.5334752649068832e-03" rms="4.1400101780891418e-01" purity="7.4749898910522461e-01" nType="-99"/>
        </Node>
      </Node>
    </BinaryTree>
    <BinaryTree type="DecisionTree" boostWeight="1.0000000000000000e+00" itree="55">
      <Node pos="s" depth="0" NCoef="0" IVar="3" Cut="6.2167501449584961e-01" cType="1" res="-6.4754515886306763e-02" rms="4.4094491004943848e-01" purity="5.0427740812301636e-01" nType="0">
        <Node pos="l" depth="1" NCoef="0" IVar="4" Cut="-3.0261811614036560e-01" cType="1" res="-2.8124493360519409e-01" rms="3.3950796723365784e-01" purity="1.3477014005184174e-01" nType="0">
          <Node pos="l" depth="2" NCoef="0" IVar="-1" Cut="0.0000000000000000e+00" cType="1" res="-3.0707591213285923e-03" rms="2.7726012468338013e-01" purity="8.4226287901401520e-02" nType="-99"/>
          <Node pos="r" depth="2" NCoef="0" IVar="-1" Cut="0.0000000000000000e+00" cType="1" res="-2.7254014275968075e-03" rms="4.1247662901878357e-01" purity="2.2016371786594391e-01" nType="-99"/>
        </Node>
        <Node pos="r" depth="1" NCoef="0" IVar="10" Cut="5.2427680969238281e+01" cType="1" res="3.3101812005043030e-02" rms="4.4660490751266479e-01" purity="6.7129921913146973e-01" nType="0">
          <Node pos="l" depth="2" NCoef="0" IVar="-1" Cut="0.0000000000000000e+00" cType="1" res="-1.8393289064988494e-03" rms="4.7953727841377258e-01" purity="5.4949849843978882e-01" nType="-99"/>
          <Node pos="r" depth="2" NCoef="0" IVar="-1" Cut="0.0000000000000000e+00" cType="1" res="4.4026128016412258e-03" rms="4.1289281845092773e-01" purity="7.4949437379837036e-01" nType="-99"/>
        </Node>
      </Node>
    </BinaryTree>
    <BinaryTree type="DecisionTree" boostWeight="1.0000000000000000e+00" itree="56">
      <Node pos="s" depth="0" NCoef="0" IVar="3" Cut="8.4837704896926880e-01" cType="1" res="-7.3305256664752960e-02" rms="4.3869054317474365e-01" purity="4.9486097693443298e-01" nType="0">
        <Node pos="l" depth="1" NCoef="0" IVar="3" Cut="3.0126953125000000e-01" cType="1" res="-2.4732078611850739e-01" rms="3.7757751345634460e-01" purity="1.8459317088127136e-01" nType="0">
          <Node pos="l" depth="2" NCoef="0" IVar="-1" Cut="0.0000000000000000e+00" cType="1" res="-2.9821812640875578e-03" rms="2.8386014699935913e-01" purity="8.8779821991920471e-02" nType="-99"/>
          <Node pos="r" depth="2" NCoef="0" IVar="-1" Cut="0.0000000000000000e+00" cType="1" res="-2.0386110991239548e-03" rms="4.5503145456314087e-01" purity="3.1011566519737244e-01" nType="-99"/>
        </Node>
        <Node pos="r" depth="1" NCoef="0" IVar="0" Cut="1.3571392822265625e+02" cType="1" res="4.6895544975996017e-02" rms="4.3765512108802795e-01" purity="7.0917779207229614e-01" nType="0">
          <Node pos="l" depth="2" NCoef="0" IVar="-1" Cut="0.0000000000000000e+00" cType="1" res="4.3518785387277603e-03" rms="4.2346340417861938e-01" purity="7.3782581090927124e-01" nType="-99"/>
          <Node pos="r" depth="2" NCoef="0" IVar="-1" Cut="0.0000000000000000e+00" cType="1" res="-5.2063344046473503e-03" rms="4.8345547914505005e-01" purity="5.1799285411834717e-01" nType="-99"/>
        </Node>
      </Node>
    </BinaryTree>
    <BinaryTree type="DecisionTree" boostWeight="1.0000000000000000e+00" itree="57">
      <Node pos="s" depth="0" NCoef="0" IVar="3" Cut="6.2167501449584961e-01" cType="1" res="-6.9930315017700195e-02" rms="4.3742057681083679e-01" purity="4.9726057052612305e-01" nType="0">
        <Node pos="l" depth="1" NCoef="0" IVar="3" Cut="-1.1695498600602150e-02" cType="1" res="-2.8920125961303711e-01" rms="3.2816645503044128e-01" purity="1.2427105754613876e-01" nType="0">
          <Node pos="l" depth="2" NCoef="0" IVar="-1" Cut="0.0000000000000000e+00" cType="1" res="-3.0299113132059574e-03" rms="2.2487357258796692e-01" purity="5.3439512848854065e-02" nType="-99"/>
          <Node pos="r" depth="2" NCoef="0" IVar="-1" Cut="0.0000000000000000e+00" cType="1" res="-2.4077943526208401e-03" rms="3.8426649570465088e-01" purity="1.8139249086380005e-01" nType="-99"/>
        </Node>
        <Node pos="r" depth="1" NCoef="0" IVar="5" Cut="1.3333333730697632e+00" cType="1" res="3.2554160803556442e-02" rms="4.4435992836952209e-01" purity="6.7159122228622437e-01" nType="0">
          <Node pos="l" depth="2" NCoef="0" IVar="-1" Cut="0.0000000000000000e+00" cType="1" res="2.1311929449439049e-03" rms="4.3420678377151489e-01" purity="7.0084494352340698e-01" nType="-99"/>
          <Node pos="r" depth="2" NCoef="0" IVar="-1" Cut="0.0000000000000000e+00" cType="1" res="-5.1102139987051487e-03" rms="4.7181469202041626e-01" purity="4.7070425748825073e-01" nType="-99"/>
        </Node>
      </Node>
    </BinaryTree>
    <BinaryTree type="DecisionTree" boostWeight="1.0000000000000000e+00" itree="58">
      <Node pos="s" depth="0" NCoef="0" IVar="3" Cut="6.2167501449584961e-01" cType="1" res="-7.1320272982120514e-02" rms="4.3537154793739319e-01" purity="4.9361562728881836e-01" nType="0">
        <Node pos="l" depth="1" NCoef="0" IVar="4" Cut="-7.4009485542774200e-02" cType="1" res="-2.9264014959335327e-01" rms="3.2158234715461731e-01" purity="1.1891275644302368e-01" nType="0">
          <Node pos="l" depth="2" NCoef="0" IVar="-1" Cut="0.0000000000000000e+00" cType="1" res="-2.6361895725131035e-03" rms="2.8599479794502258e-01" purity="9.0311639010906219e-02" nType="-99"/>
          <Node pos="r" depth="2" NCoef="0" IVar="-1" Cut="0.0000000000000000e+00" cType="1" res="-2.2177095524966717e-03" rms="4.4647455215454102e-01" purity="2.7775204181671143e-01" nType="-99"/>
        </Node>
        <Node pos="r" depth="1" NCoef="0" IVar="0" Cut="9.8574691772460938e+01" cType="1" res="3.5167399793863297e-02" rms="4.4281342625617981e-01" purity="6.7390328645706177e-01" nType="0">
          <Node pos="l" depth="2" NCoef="0" IVar="-1" Cut="0.0000000000000000e+00" cType="1" res="-4.5810290612280369e-03" rms="4.8151865601539612e-01" purity="4.0645301342010498e-01" nType="-99"/>
          <Node pos="r" depth="2" NCoef="0" IVar="-1" Cut="0.0000000000000000e+00" cType="1" res="2.8041175100952387e-03" rms="4.3136623501777649e-01" purity="7.0453292131423950e-01" nType="-99"/>
        </Node>
      </Node>
    </BinaryTree>
    <BinaryTree type="DecisionTree" boostWeight="1.0000000000000000e+00" itree="59">
      <Node pos="s" depth="0" NCoef="0" IVar="3" Cut="5.4610770940780640e-01" cType="1" res="-7.1080952882766724e-02" rms="4.3879541754722595e-01" purity="4.9785962700843811e-01" nType="0">
        <Node pos="l" depth="1" NCoef="0" IVar="3" Cut="6.2313987873494625e-03" cType="1" res="-2.9164090752601624e-01" rms="3.2024243474006653e-01" purity="1.1721406131982803e-01" nType="0">
          <Node pos="l" depth="2" NCoef="0" IVar="-1" Cut="0.0000000000000000e+00" cType="1" res="-2.8130381833761930e-03" rms="2.3474992811679840e-01" purity="5.8552280068397522e-02" nType="-99"/>
          <Node pos="r" depth="2" NCoef="0" IVar="-1" Cut="0.0000000000000000e+00" cType="1" res="-2.7607756201177835e-03" rms="3.8109758496284485e-01" purity="1.7768192291259766e-01" nType="-99"/>
        </Node>
        <Node pos="r" depth="1" NCoef="0" IVar="5" Cut="1.3333333730697632e+00" cType="1" res="1.8726563081145287e-02" rms="4.4867429137229919e-01" purity="6.5285068750381470e-01" nType="0">
          <Node pos="l" depth="2" NCoef="0" IVar="-1" Cut="0.0000000000000000e+00" cType="1" res="1.9326669862493873e-03" rms="4.3980517983436584e-01" purity="6.8638211488723755e-01" nType="-99"/>
          <Node pos="r" depth="2" NCoef="0" IVar="-1" Cut="0.0000000000000000e+00" cType="1" res="-5.1191910170018673e-03" rms="4.6185043454170227e-01" purity="4.3570905923843384e-01" nType="-99"/>
        </Node>
      </Node>
    </BinaryTree>
    <BinaryTree type="DecisionTree" boostWeight="1.0000000000000000e+00" itree="60">
      <Node pos="s" depth="0" NCoef="0" IVar="3" Cut="6.9807940721511841e-01" cType="1" res="-6.6706173121929169e-02" rms="4.3863144516944885e-01" purity="5.0294530391693115e-01" nType="0">
        <Node pos="l" depth="1" NCoef="0" IVar="4" Cut="-4.1155133396387100e-02" cType="1" res="-2.5922542810440063e-01" rms="3.5723561048507690e-01" purity="1.5560007095336914e-01" nType="0">
          <Node pos="l" depth="2" NCoef="0" IVar="-1" Cut="0.0000000000000000e+00" cType="1" res="-2.8891339898109436e-03" rms="3.1405529379844666e-01" purity="1.1234771460294724e-01" nType="-99"/>
          <Node pos="r" depth="2" NCoef="0" IVar="-1" Cut="0.0000000000000000e+00" cType="1" res="-1.4269126113504171e-03" rms="4.7918689250946045e-01" purity="3.7512561678886414e-01" nType="-99"/>
        </Node>
        <Node pos="r" depth="1" NCoef="0" IVar="12" Cut="1.3645019531250000e+00" cType="1" res="3.2844819128513336e-02" rms="4.4364324212074280e-01" purity="6.8255621194839478e-01" nType="0">
          <Node pos="l" depth="2" NCoef="0" IVar="-1" Cut="0.0000000000000000e+00" cType="1" res="2.3704294580966234e-03" rms="4.3523475527763367e-01" purity="7.0420759916305542e-01" nType="-99"/>
          <Node pos="r" depth="2" NCoef="0" IVar="-1" Cut="0.0000000000000000e+00" cType="1" res="-4.2762900702655315e-03" rms="4.8092353343963623e-01" purity="4.5643270015716553e-01" nType="-99"/>
        </Node>
      </Node>
    </BinaryTree>
    <BinaryTree type="DecisionTree" boostWeight="1.0000000000000000e+00" itree="61">
      <Node pos="s" depth="0" NCoef="0" IVar="3" Cut="5.4610770940780640e-01" cType="1" res="-6.2813080847263336e-02" rms="4.3825671076774597e-01" purity="5.0885289907455444e-01" nType="0">
        <Node pos="l" depth="1" NCoef="0" IVar="3" Cut="6.2313987873494625e-03" cType="1" res="-2.8077578544616699e-01" rms="3.3004677295684814e-01" purity="1.2568426132202148e-01" nType="0">
          <Node pos="l" depth="2" NCoef="0" IVar="-1" Cut="0.0000000000000000e+00" cType="1" res="-3.6051219794899225e-03" rms="2.4192878603935242e-01" purity="6.2443520873785019e-02" nType="-99"/>
