<?xml version="1.0"?>
<MethodSetup Method="BDT::BDTG">
  <GeneralInfo>
    <Info name="TMVA Release" value="4.2.1 [262657]"/>
    <Info name="ROOT Release" value="6.10/09 [395785]"/>
    <Info name="Creator" value="lmastrol"/>
    <Info name="Date" value="Fri Jun  8 22:13:38 2018"/>
    <Info name="Host" value="Linux cmsbuild09.cern.ch 2.6.32-696.18.7.el6.x86_64 #1 SMP Thu Jan 4 13:27:39 CET 2018 x86_64 x86_64 x86_64 GNU/Linux"/>
    <Info name="Dir" value="/afs/desy.de/user/l/lmastrol/Work/May18/dnn/20_05/CMSSW_10_1_0/src/AnalysisTools/scripts"/>
    <Info name="Training events" value="103790"/>
    <Info name="TrainingTime" value="6.23307970e+01"/>
    <Info name="AnalysisType" value="Classification"/>
  </GeneralInfo>
  <Options>
    <Option name="V" modified="Yes">False</Option>
    <Option name="VerbosityLevel" modified="No">Default</Option>
    <Option name="VarTransform" modified="No">None</Option>
    <Option name="H" modified="Yes">False</Option>
    <Option name="CreateMVAPdfs" modified="No">False</Option>
    <Option name="IgnoreNegWeightsInTraining" modified="No">False</Option>
    <Option name="NTrees" modified="Yes">1000</Option>
    <Option name="MaxDepth" modified="Yes">2</Option>
    <Option name="MinNodeSize" modified="Yes">2.5%</Option>
    <Option name="nCuts" modified="Yes">20</Option>
    <Option name="BoostType" modified="Yes">Grad</Option>
    <Option name="AdaBoostR2Loss" modified="No">quadratic</Option>
    <Option name="UseBaggedBoost" modified="Yes">True</Option>
    <Option name="Shrinkage" modified="Yes">1.000000e-01</Option>
    <Option name="AdaBoostBeta" modified="No">5.000000e-01</Option>
    <Option name="UseRandomisedTrees" modified="No">False</Option>
    <Option name="UseNvars" modified="No">4</Option>
    <Option name="UsePoissonNvars" modified="No">True</Option>
    <Option name="BaggedSampleFraction" modified="Yes">5.000000e-01</Option>
    <Option name="UseYesNoLeaf" modified="No">True</Option>
    <Option name="NegWeightTreatment" modified="No">pray</Option>
    <Option name="Css" modified="No">1.000000e+00</Option>
    <Option name="Cts_sb" modified="No">1.000000e+00</Option>
    <Option name="Ctb_ss" modified="No">1.000000e+00</Option>
    <Option name="Cbb" modified="No">1.000000e+00</Option>
    <Option name="NodePurityLimit" modified="No">5.000000e-01</Option>
    <Option name="SeparationType" modified="No">giniindex</Option>
    <Option name="RegressionLossFunctionBDTG" modified="No">huber</Option>
    <Option name="HuberQuantile" modified="No">7.000000e-01</Option>
    <Option name="DoBoostMonitor" modified="No">False</Option>
    <Option name="UseFisherCuts" modified="No">False</Option>
    <Option name="MinLinCorrForFisher" modified="No">8.000000e-01</Option>
    <Option name="UseExclusiveVars" modified="No">False</Option>
    <Option name="DoPreselection" modified="No">False</Option>
    <Option name="SigToBkgFraction" modified="No">1.000000e+00</Option>
    <Option name="PruneMethod" modified="No">nopruning</Option>
    <Option name="PruneStrength" modified="No">0.000000e+00</Option>
    <Option name="PruningValFraction" modified="No">5.000000e-01</Option>
    <Option name="SkipNormalization" modified="No">False</Option>
    <Option name="nEventsMin" modified="No">0</Option>
    <Option name="UseBaggedGrad" modified="No">False</Option>
    <Option name="GradBaggingFraction" modified="No">5.000000e-01</Option>
    <Option name="UseNTrainEvents" modified="No">0</Option>
    <Option name="NNodesMax" modified="No">0</Option>
  </Options>
  <Variables NVar="16">
    <Variable VarIndex="0" Expression="H_mass_fit_fallback" Label="H_mass_fit_fallback" Title="H_mass_fit_fallback" Unit="" Internal="H_mass_fit_fallback" Type="F" Min="9.00002899e+01" Max="1.49998367e+02"/>
    <Variable VarIndex="1" Expression="H_pt_fit_fallback" Label="H_pt_fit_fallback" Title="H_pt_fit_fallback" Unit="" Internal="H_pt_fit_fallback" Type="F" Min="1.00010498e+02" Max="2.60346729e+03"/>
    <Variable VarIndex="2" Expression="V_pt" Label="V_pt" Title="V_pt" Unit="" Internal="V_pt" Type="F" Min="1.50000702e+02" Max="2.13390527e+03"/>
    <Variable VarIndex="3" Expression="hJets_DeepCSV_0" Label="hJets_DeepCSV_0" Title="hJets_DeepCSV_0" Unit="" Internal="hJets_DeepCSV_0" Type="F" Min="1.53686523e-01" Max="9.99511719e-01"/>
    <Variable VarIndex="4" Expression="hJets_DeepCSV_1" Label="hJets_DeepCSV_1" Title="hJets_DeepCSV_1" Unit="" Internal="hJets_DeepCSV_1" Type="F" Min="1.52221680e-01" Max="9.99511719e-01"/>
    <Variable VarIndex="5" Expression="nAddJets_2lep" Label="nAddJets_2lep" Title="nAddJets_2lep" Unit="" Internal="nAddJets_2lep" Type="F" Min="0.00000000e+00" Max="9.00000000e+00"/>
    <Variable VarIndex="6" Expression="SA5" Label="SA5" Title="SA5" Unit="" Internal="SA5" Type="I" Min="-1.00000000e+00" Max="5.00000000e+00"/>
    <Variable VarIndex="7" Expression="V_mass" Label="V_mass" Title="V_mass" Unit="" Internal="V_mass" Type="F" Min="7.50076294e+01" Max="1.04996658e+02"/>
    <Variable VarIndex="8" Expression="MET_Pt" Label="MET_Pt" Title="MET_Pt" Unit="" Internal="MET_Pt" Type="F" Min="1.54888570e-01" Max="6.51550171e+02"/>
    <Variable VarIndex="9" Expression="hJets_leadingPt" Label="hJets_leadingPt" Title="hJets_leadingPt" Unit="" Internal="hJets_leadingPt" Type="F" Min="2.28824635e+01" Max="2.57842163e+03"/>
    <Variable VarIndex="10" Expression="hJets_subleadingPt" Label="hJets_subleadingPt" Title="hJets_subleadingPt" Unit="" Internal="hJets_subleadingPt" Type="F" Min="2.00006123e+01" Max="1.72656311e+03"/>
    <Variable VarIndex="11" Expression="jjVPtRatio_fit_fallback" Label="jjVPtRatio_fit_fallback" Title="jjVPtRatio_fit_fallback" Unit="" Internal="jjVPtRatio_fit_fallback" Type="F" Min="1.06552951e-01" Max="1.14208660e+01"/>
    <Variable VarIndex="12" Expression="HJ1_HJ2_dEta" Label="HJ1_HJ2_dEta" Title="HJ1_HJ2_dEta" Unit="" Internal="HJ1_HJ2_dEta" Type="F" Min="0.00000000e+00" Max="4.49229336e+00"/>
    <Variable VarIndex="13" Expression="HVdPhi_fit_fallback" Label="HVdPhi_fit_fallback" Title="HVdPhi_fit_fallback" Unit="" Internal="HVdPhi_fit_fallback" Type="F" Min="1.54016614e+00" Max="3.14159226e+00"/>
    <Variable VarIndex="14" Expression="n_recoil_jets_fit" Label="n_recoil_jets_fit" Title="n_recoil_jets_fit" Unit="" Internal="n_recoil_jets_fit" Type="F" Min="-1.00000000e+00" Max="1.40000000e+01"/>
    <Variable VarIndex="15" Expression="H_mass_sigma_fit" Label="H_mass_sigma_fit" Title="H_mass_sigma_fit" Unit="" Internal="H_mass_sigma_fit" Type="F" Min="-1.00000000e+00" Max="7.76557373e+02"/>
  </Variables>
  <Spectators NSpec="0"/>
  <Classes NClass="2">
    <Class Name="Signal" Index="0"/>
    <Class Name="Background" Index="1"/>
  </Classes>
  <Transformations NTransformations="0"/>
  <MVAPdfs/>
  <Weights NTrees="1000" AnalysisType="1">
    <BinaryTree type="DecisionTree" boostWeight="1.0000000000000000e+00" itree="0">
      <Node pos="s" depth="0" NCoef="0" IVar="3" Cut="7.9824101924896240e-01" cType="1" res="-3.3231272827833891e-03" rms="4.9998894333839417e-01" purity="4.9667689204216003e-01" nType="0">
        <Node pos="l" depth="1" NCoef="0" IVar="4" Cut="4.2829242348670959e-01" cType="1" res="-3.6641252040863037e-01" rms="3.4020856022834778e-01" purity="1.3358749449253082e-01" nType="0">
          <Node pos="l" depth="2" NCoef="0" IVar="-1" Cut="0.0000000000000000e+00" cType="1" res="-9.1627249494194984e-03" rms="2.9248034954071045e-01" purity="9.4469167292118073e-02" nType="-99"/>
          <Node pos="r" depth="2" NCoef="0" IVar="-1" Cut="0.0000000000000000e+00" cType="1" res="-5.4447969887405634e-04" rms="4.9979731440544128e-01" purity="4.8576480150222778e-01" nType="-99"/>
        </Node>
        <Node pos="r" depth="1" NCoef="0" IVar="4" Cut="4.3465170264244080e-01" cType="1" res="2.9051795601844788e-01" rms="4.0693897008895874e-01" purity="7.9051792621612549e-01" nType="0">
          <Node pos="l" depth="2" NCoef="0" IVar="-1" Cut="0.0000000000000000e+00" cType="1" res="4.4507831335067749e-03" rms="4.8899137973785400e-01" purity="6.0434287786483765e-01" nType="-99"/>
          <Node pos="r" depth="2" NCoef="0" IVar="-1" Cut="0.0000000000000000e+00" cType="1" res="2.5916209444403648e-02" rms="3.5225743055343628e-01" purity="8.5484457015991211e-01" nType="-99"/>
        </Node>
      </Node>
    </BinaryTree>
    <BinaryTree type="DecisionTree" boostWeight="1.0000000000000000e+00" itree="1">
      <Node pos="s" depth="0" NCoef="0" IVar="3" Cut="7.9827010631561279e-01" cType="1" res="7.6026935130357742e-03" rms="4.9444338679313660e-01" purity="5.1148885488510132e-01" nType="0">
        <Node pos="l" depth="1" NCoef="0" IVar="4" Cut="4.2661830782890320e-01" cType="1" res="-3.5727873444557190e-01" rms="3.4506890177726746e-01" purity="1.3860622048377991e-01" nType="0">
          <Node pos="l" depth="2" NCoef="0" IVar="-1" Cut="0.0000000000000000e+00" cType="1" res="-9.3502029776573181e-03" rms="2.9471951723098755e-01" purity="9.6093595027923584e-02" nType="-99"/>
          <Node pos="r" depth="2" NCoef="0" IVar="-1" Cut="0.0000000000000000e+00" cType="1" res="-6.1261211521923542e-04" rms="4.9975168704986572e-01" purity="4.8458680510520935e-01" nType="-99"/>
        </Node>
        <Node pos="r" depth="1" NCoef="0" IVar="4" Cut="3.9430454373359680e-01" cType="1" res="2.9475808143615723e-01" rms="3.9487642049789429e-01" purity="8.0494105815887451e-01" nType="0">
          <Node pos="l" depth="2" NCoef="0" IVar="-1" Cut="0.0000000000000000e+00" cType="1" res="3.4707174636423588e-03" rms="4.9240338802337646e-01" purity="5.8682703971862793e-01" nType="-99"/>
          <Node pos="r" depth="2" NCoef="0" IVar="-1" Cut="0.0000000000000000e+00" cType="1" res="2.7549481019377708e-02" rms="3.3623796701431274e-01" purity="8.6994028091430664e-01" nType="-99"/>
        </Node>
      </Node>
    </BinaryTree>
    <BinaryTree type="DecisionTree" boostWeight="1.0000000000000000e+00" itree="2">
      <Node pos="s" depth="0" NCoef="0" IVar="3" Cut="7.5798690319061279e-01" cType="1" res="-6.4752125181257725e-03" rms="4.8909574747085571e-01" purity="5.0187158584594727e-01" nType="0">
        <Node pos="l" depth="1" NCoef="0" IVar="4" Cut="4.3734306097030640e-01" cType="1" res="-3.7523674964904785e-01" rms="3.1980228424072266e-01" purity="1.1627071350812912e-01" nType="0">
          <Node pos="l" depth="2" NCoef="0" IVar="-1" Cut="0.0000000000000000e+00" cType="1" res="-9.0282699093222618e-03" rms="2.8155973553657532e-01" purity="8.6835794150829315e-02" nType="-99"/>
          <Node pos="r" depth="2" NCoef="0" IVar="-1" Cut="0.0000000000000000e+00" cType="1" res="-1.7492298502475023e-03" rms="4.9790620803833008e-01" purity="4.5429021120071411e-01" nType="-99"/>
        </Node>
        <Node pos="r" depth="1" NCoef="0" IVar="4" Cut="4.7499883174896240e-01" cType="1" res="2.5373703241348267e-01" rms="4.1494441032409668e-01" purity="7.7396631240844727e-01" nType="0">
          <Node pos="l" depth="2" NCoef="0" IVar="-1" Cut="0.0000000000000000e+00" cType="1" res="2.6309827808290720e-03" rms="4.9304381012916565e-01" purity="5.7596027851104736e-01" nType="-99"/>
          <Node pos="r" depth="2" NCoef="0" IVar="-1" Cut="0.0000000000000000e+00" cType="1" res="2.4222178384661674e-02" rms="3.4857487678527832e-01" purity="8.5811173915863037e-01" nType="-99"/>
        </Node>
      </Node>
    </BinaryTree>
    <BinaryTree type="DecisionTree" boostWeight="1.0000000000000000e+00" itree="3">
      <Node pos="s" depth="0" NCoef="0" IVar="3" Cut="7.9815381765365601e-01" cType="1" res="-1.8006451427936554e-02" rms="4.8401901125907898e-01" purity="4.9294030666351318e-01" nType="0">
        <Node pos="l" depth="1" NCoef="0" IVar="4" Cut="4.2661830782890320e-01" cType="1" res="-3.5616561770439148e-01" rms="3.3643680810928345e-01" purity="1.3161832094192505e-01" nType="0">
          <Node pos="l" depth="2" NCoef="0" IVar="-1" Cut="0.0000000000000000e+00" cType="1" res="-8.5905687883496284e-03" rms="2.8941732645034790e-01" purity="9.2358976602554321e-02" nType="-99"/>
          <Node pos="r" depth="2" NCoef="0" IVar="-1" Cut="0.0000000000000000e+00" cType="1" res="-3.7580824573524296e-04" rms="4.9902629852294922e-01" purity="4.8963481187820435e-01" nType="-99"/>
        </Node>
        <Node pos="r" depth="1" NCoef="0" IVar="4" Cut="4.3465170264244080e-01" cType="1" res="2.6201277971267700e-01" rms="4.0179482102394104e-01" purity="7.9214000701904297e-01" nType="0">
          <Node pos="l" depth="2" NCoef="0" IVar="-1" Cut="0.0000000000000000e+00" cType="1" res="3.5869311541318893e-03" rms="4.9135014414787292e-01" purity="5.9154874086380005e-01" nType="-99"/>
          <Node pos="r" depth="2" NCoef="0" IVar="-1" Cut="0.0000000000000000e+00" cType="1" res="2.4727519601583481e-02" rms="3.4379643201828003e-01" purity="8.6293709278106689e-01" nType="-99"/>
        </Node>
      </Node>
    </BinaryTree>
    <BinaryTree type="DecisionTree" boostWeight="1.0000000000000000e+00" itree="4">
      <Node pos="s" depth="0" NCoef="0" IVar="3" Cut="7.5788223743438721e-01" cType="1" res="-1.8657496199011803e-02" rms="4.7920486330986023e-01" purity="4.9635228514671326e-01" nType="0">
        <Node pos="l" depth="1" NCoef="0" IVar="4" Cut="3.7957471609115601e-01" cType="1" res="-3.6990758776664734e-01" rms="3.1563964486122131e-01" purity="1.1329475045204163e-01" nType="0">
          <Node pos="l" depth="2" NCoef="0" IVar="-1" Cut="0.0000000000000000e+00" cType="1" res="-8.8134640827775002e-03" rms="2.6816442608833313e-01" purity="7.7995449304580688e-02" nType="-99"/>
          <Node pos="r" depth="2" NCoef="0" IVar="-1" Cut="0.0000000000000000e+00" cType="1" res="-3.5790661349892616e-03" rms="4.8355266451835632e-01" purity="3.7875983119010925e-01" nType="-99"/>
        </Node>
        <Node pos="r" depth="1" NCoef="0" IVar="4" Cut="4.3465170264244080e-01" cType="1" res="2.3824575543403625e-01" rms="4.1047391295433044e-01" purity="7.7651947736740112e-01" nType="0">
          <Node pos="l" depth="2" NCoef="0" IVar="-1" Cut="0.0000000000000000e+00" cType="1" res="2.2211272735148668e-03" rms="4.9489063024520874e-01" purity="5.6433260440826416e-01" nType="-99"/>
          <Node pos="r" depth="2" NCoef="0" IVar="-1" Cut="0.0000000000000000e+00" cType="1" res="2.2396625950932503e-02" rms="3.5267379879951477e-01" purity="8.5383176803588867e-01" nType="-99"/>
        </Node>
      </Node>
    </BinaryTree>
    <BinaryTree type="DecisionTree" boostWeight="1.0000000000000000e+00" itree="5">
      <Node pos="s" depth="0" NCoef="0" IVar="3" Cut="7.9812479019165039e-01" cType="1" res="-1.4780954457819462e-02" rms="4.7532033920288086e-01" purity="5.0399959087371826e-01" nType="0">
        <Node pos="l" depth="1" NCoef="0" IVar="4" Cut="4.5896694064140320e-01" cType="1" res="-3.4169438481330872e-01" rms="3.4297466278076172e-01" purity="1.3886328041553497e-01" nType="0">
          <Node pos="l" depth="2" NCoef="0" IVar="-1" Cut="0.0000000000000000e+00" cType="1" res="-8.4201414138078690e-03" rms="3.0267351865768433e-01" purity="1.0239282250404358e-01" nType="-99"/>
          <Node pos="r" depth="2" NCoef="0" IVar="-1" Cut="0.0000000000000000e+00" cType="1" res="9.5754920039325953e-04" rms="4.9784988164901733e-01" purity="5.2880024909973145e-01" nType="-99"/>
        </Node>
        <Node pos="r" depth="1" NCoef="0" IVar="4" Cut="4.7499883174896240e-01" cType="1" res="2.3630215227603912e-01" rms="4.0494626760482788e-01" purity="7.8443944454193115e-01" nType="0">
          <Node pos="l" depth="2" NCoef="0" IVar="-1" Cut="0.0000000000000000e+00" cType="1" res="2.7695870958268642e-03" rms="4.9101674556732178e-01" purity="5.9089720249176025e-01" nType="-99"/>
          <Node pos="r" depth="2" NCoef="0" IVar="-1" Cut="0.0000000000000000e+00" cType="1" res="2.3640545085072517e-02" rms="3.4267354011535645e-01" purity="8.6410832405090332e-01" nType="-99"/>
        </Node>
      </Node>
    </BinaryTree>
    <BinaryTree type="DecisionTree" boostWeight="1.0000000000000000e+00" itree="6">
      <Node pos="s" depth="0" NCoef="0" IVar="3" Cut="7.5788223743438721e-01" cType="1" res="-2.1748447790741920e-02" rms="4.7096487879753113e-01" purity="4.9994966387748718e-01" nType="0">
        <Node pos="l" depth="1" NCoef="0" IVar="4" Cut="4.6355327963829041e-01" cType="1" res="-3.5570079088211060e-01" rms="3.2270464301109314e-01" purity="1.1981208622455597e-01" nType="0">
          <Node pos="l" depth="2" NCoef="0" IVar="-1" Cut="0.0000000000000000e+00" cType="1" res="-8.6774285882711411e-03" rms="2.8892910480499268e-01" purity="9.2143356800079346e-02" nType="-99"/>
          <Node pos="r" depth="2" NCoef="0" IVar="-1" Cut="0.0000000000000000e+00" cType="1" res="1.2966886060894467e-05" rms="4.9999311566352844e-01" purity="4.9737575650215149e-01" nType="-99"/>
        </Node>
        <Node pos="r" depth="1" NCoef="0" IVar="4" Cut="7.1708172559738159e-01" cType="1" res="2.1762949228286743e-01" rms="4.1098806262016296e-01" purity="7.7243334054946899e-01" nType="0">
          <Node pos="l" depth="2" NCoef="0" IVar="-1" Cut="0.0000000000000000e+00" cType="1" res="4.8213643021881580e-03" rms="4.7093328833580017e-01" purity="6.5097397565841675e-01" nType="-99"/>
          <Node pos="r" depth="2" NCoef="0" IVar="-1" Cut="0.0000000000000000e+00" cType="1" res="2.7738748118281364e-02" rms="3.1262949109077454e-01" purity="8.9013701677322388e-01" nType="-99"/>
        </Node>
      </Node>
    </BinaryTree>
    <BinaryTree type="DecisionTree" boostWeight="1.0000000000000000e+00" itree="7">
      <Node pos="s" depth="0" NCoef="0" IVar="3" Cut="7.5784736871719360e-01" cType="1" res="-2.3941803723573685e-02" rms="4.6560394763946533e-01" purity="5.0057446956634521e-01" nType="0">
        <Node pos="l" depth="1" NCoef="0" IVar="3" Cut="4.9890136718750000e-01" cType="1" res="-3.5682955384254456e-01" rms="3.1637424230575562e-01" purity="1.1453221738338470e-01" nType="0">
          <Node pos="l" depth="2" NCoef="0" IVar="-1" Cut="0.0000000000000000e+00" cType="1" res="-9.0810107067227364e-03" rms="2.1979211270809174e-01" purity="5.0910782068967819e-02" nType="-99"/>
          <Node pos="r" depth="2" NCoef="0" IVar="-1" Cut="0.0000000000000000e+00" cType="1" res="-6.4374580979347229e-03" rms="4.2522972822189331e-01" purity="2.4148987233638763e-01" nType="-99"/>
        </Node>
        <Node pos="r" depth="1" NCoef="0" IVar="4" Cut="4.3465170264244080e-01" cType="1" res="2.2045509517192841e-01" rms="4.0171408653259277e-01" purity="7.8399586677551270e-01" nType="0">
          <Node pos="l" depth="2" NCoef="0" IVar="-1" Cut="0.0000000000000000e+00" cType="1" res="2.2793873213231564e-03" rms="4.9373692274093628e-01" purity="5.6901764869689941e-01" nType="-99"/>
          <Node pos="r" depth="2" NCoef="0" IVar="-1" Cut="0.0000000000000000e+00" cType="1" res="2.2527225315570831e-02" rms="3.4527936577796936e-01" purity="8.6057806015014648e-01" nType="-99"/>
        </Node>
      </Node>
    </BinaryTree>
    <BinaryTree type="DecisionTree" boostWeight="1.0000000000000000e+00" itree="8">
      <Node pos="s" depth="0" NCoef="0" IVar="3" Cut="7.5788223743438721e-01" cType="1" res="-1.6586823388934135e-02" rms="4.6248301863670349e-01" purity="5.1254677772521973e-01" nType="0">
        <Node pos="l" depth="1" NCoef="0" IVar="4" Cut="3.7808662652969360e-01" cType="1" res="-3.4565314650535583e-01" rms="3.2435494661331177e-01" purity="1.2163476645946503e-01" nType="0">
          <Node pos="l" depth="2" NCoef="0" IVar="-1" Cut="0.0000000000000000e+00" cType="1" res="-8.8123427703976631e-03" rms="2.7596801519393921e-01" purity="8.3133451640605927e-02" nType="-99"/>
          <Node pos="r" depth="2" NCoef="0" IVar="-1" Cut="0.0000000000000000e+00" cType="1" res="-2.9394102748483419e-03" rms="4.8767331242561340e-01" purity="3.9989253878593445e-01" nType="-99"/>
        </Node>
        <Node pos="r" depth="1" NCoef="0" IVar="4" Cut="2.7326312661170959e-01" cType="1" res="2.0913751423358917e-01" rms="4.0399661660194397e-01" purity="7.8069448471069336e-01" nType="0">
          <Node pos="l" depth="2" NCoef="0" IVar="-1" Cut="0.0000000000000000e+00" cType="1" res="-3.6116194678470492e-04" rms="4.9901044368743896e-01" purity="5.0040817260742188e-01" nType="-99"/>
          <Node pos="r" depth="2" NCoef="0" IVar="-1" Cut="0.0000000000000000e+00" cType="1" res="1.6404006630182266e-02" rms="3.7361311912536621e-01" purity="8.2728999853134155e-01" nType="-99"/>
        </Node>
      </Node>
    </BinaryTree>
    <BinaryTree type="DecisionTree" boostWeight="1.0000000000000000e+00" itree="9">
      <Node pos="s" depth="0" NCoef="0" IVar="3" Cut="7.5802177190780640e-01" cType="1" res="-3.1577263027429581e-02" rms="4.5851647853851318e-01" purity="4.9822002649307251e-01" nType="0">
        <Node pos="l" depth="1" NCoef="0" IVar="4" Cut="3.2273647189140320e-01" cType="1" res="-3.4660425782203674e-01" rms="3.1864511966705322e-01" purity="1.1681451648473740e-01" nType="0">
          <Node pos="l" depth="2" NCoef="0" IVar="-1" Cut="0.0000000000000000e+00" cType="1" res="-8.9570796117186546e-03" rms="2.5463765859603882e-01" purity="6.9758944213390350e-02" nType="-99"/>
          <Node pos="r" depth="2" NCoef="0" IVar="-1" Cut="0.0000000000000000e+00" cType="1" res="-4.7498550266027451e-03" rms="4.5607018470764160e-01" purity="3.0142313241958618e-01" nType="-99"/>
        </Node>
        <Node pos="r" depth="1" NCoef="0" IVar="4" Cut="4.3465170264244080e-01" cType="1" res="1.9636878371238708e-01" rms="4.0635386109352112e-01" purity="7.7419596910476685e-01" nType="0">
          <Node pos="l" depth="2" NCoef="0" IVar="-1" Cut="0.0000000000000000e+00" cType="1" res="1.3914683368057013e-03" rms="4.9506005644798279e-01" purity="5.5436605215072632e-01" nType="-99"/>
          <Node pos="r" depth="2" NCoef="0" IVar="-1" Cut="0.0000000000000000e+00" cType="1" res="1.9275706261396408e-02" rms="3.4995907545089722e-01" purity="8.5630619525909424e-01" nType="-99"/>
        </Node>
      </Node>
    </BinaryTree>
    <BinaryTree type="DecisionTree" boostWeight="1.0000000000000000e+00" itree="10">
      <Node pos="s" depth="0" NCoef="0" IVar="3" Cut="7.5784736871719360e-01" cType="1" res="-3.8582798093557358e-02" rms="4.5442783832550049e-01" purity="4.9226790666580200e-01" nType="0">
        <Node pos="l" depth="1" NCoef="0" IVar="3" Cut="6.1397296190261841e-01" cType="1" res="-3.4780123829841614e-01" rms="3.1178283691406250e-01" purity="1.1139902472496033e-01" nType="0">
          <Node pos="l" depth="2" NCoef="0" IVar="-1" Cut="0.0000000000000000e+00" cType="1" res="-8.0697564408183098e-03" rms="2.5346404314041138e-01" purity="6.9676622748374939e-02" nType="-99"/>
          <Node pos="r" depth="2" NCoef="0" IVar="-1" Cut="0.0000000000000000e+00" cType="1" res="-5.1714843139052391e-03" rms="4.5877194404602051e-01" purity="3.1032234430313110e-01" nType="-99"/>
        </Node>
        <Node pos="r" depth="1" NCoef="0" IVar="4" Cut="5.1534599065780640e-01" cType="1" res="1.9513927400112152e-01" rms="4.0276381373405457e-01" purity="7.8014677762985229e-01" nType="0">
          <Node pos="l" depth="2" NCoef="0" IVar="-1" Cut="0.0000000000000000e+00" cType="1" res="3.1520244665443897e-03" rms="4.8435798287391663e-01" purity="6.0768246650695801e-01" nType="-99"/>
          <Node pos="r" depth="2" NCoef="0" IVar="-1" Cut="0.0000000000000000e+00" cType="1" res="1.9900666549801826e-02" rms="3.4084644913673401e-01" purity="8.6518645286560059e-01" nType="-99"/>
        </Node>
      </Node>
    </BinaryTree>
    <BinaryTree type="DecisionTree" boostWeight="1.0000000000000000e+00" itree="11">
      <Node pos="s" depth="0" NCoef="0" IVar="3" Cut="7.5798690319061279e-01" cType="1" res="-3.3401809632778168e-02" rms="4.5172381401062012e-01" purity="5.0187933444976807e-01" nType="0">
        <Node pos="l" depth="1" NCoef="0" IVar="4" Cut="3.7790063023567200e-01" cType="1" res="-3.3833792805671692e-01" rms="3.1824213266372681e-01" purity="1.1696905642747879e-01" nType="0">
          <Node pos="l" depth="2" NCoef="0" IVar="-1" Cut="0.0000000000000000e+00" cType="1" res="-8.4255533292889595e-03" rms="2.6803883910179138e-01" purity="7.8072480857372284e-02" nType="-99"/>
          <Node pos="r" depth="2" NCoef="0" IVar="-1" Cut="0.0000000000000000e+00" cType="1" res="-2.4514654651284218e-03" rms="4.8749202489852905e-01" purity="4.0052762627601624e-01" nType="-99"/>
        </Node>
        <Node pos="r" depth="1" NCoef="0" IVar="4" Cut="5.9604024887084961e-01" cType="1" res="1.8307358026504517e-01" rms="4.0514564514160156e-01" purity="7.7512860298156738e-01" nType="0">
          <Node pos="l" depth="2" NCoef="0" IVar="-1" Cut="0.0000000000000000e+00" cType="1" res="3.2072905451059341e-03" rms="4.7899591922760010e-01" purity="6.2245160341262817e-01" nType="-99"/>
          <Node pos="r" depth="2" NCoef="0" IVar="-1" Cut="0.0000000000000000e+00" cType="1" res="2.2072389721870422e-02" rms="3.3119502663612366e-01" purity="8.7416517734527588e-01" nType="-99"/>
        </Node>
      </Node>
    </BinaryTree>
    <BinaryTree type="DecisionTree" boostWeight="1.0000000000000000e+00" itree="12">
      <Node pos="s" depth="0" NCoef="0" IVar="3" Cut="7.5798690319061279e-01" cType="1" res="-4.4115647673606873e-02" rms="4.4770976901054382e-01" purity="4.9203059077262878e-01" nType="0">
        <Node pos="l" depth="1" NCoef="0" IVar="4" Cut="4.3734306097030640e-01" cType="1" res="-3.3438646793365479e-01" rms="3.1794574856758118e-01" purity="1.1694575101137161e-01" nType="0">
          <Node pos="l" depth="2" NCoef="0" IVar="-1" Cut="0.0000000000000000e+00" cType="1" res="-7.9850284382700920e-03" rms="2.8291973471641541e-01" purity="8.8167436420917511e-02" nType="-99"/>
          <Node pos="r" depth="2" NCoef="0" IVar="-1" Cut="0.0000000000000000e+00" cType="1" res="7.7373877866193652e-04" rms="4.9939623475074768e-01" purity="4.9989944696426392e-01" nType="-99"/>
        </Node>
        <Node pos="r" depth="1" NCoef="0" IVar="4" Cut="4.7499883174896240e-01" cType="1" res="1.6856510937213898e-01" rms="4.0776556730270386e-01" purity="7.6685434579849243e-01" nType="0">
          <Node pos="l" depth="2" NCoef="0" IVar="-1" Cut="0.0000000000000000e+00" cType="1" res="8.5260771447792649e-04" rms="4.9477037787437439e-01" purity="5.4973363876342773e-01" nType="-99"/>
          <Node pos="r" depth="2" NCoef="0" IVar="-1" Cut="0.0000000000000000e+00" cType="1" res="1.7867416143417358e-02" rms="3.4535509347915649e-01" purity="8.6074227094650269e-01" nType="-99"/>
        </Node>
      </Node>
    </BinaryTree>
    <BinaryTree type="DecisionTree" boostWeight="1.0000000000000000e+00" itree="13">
      <Node pos="s" depth="0" NCoef="0" IVar="3" Cut="7.5784736871719360e-01" cType="1" res="-3.5778760910034180e-02" rms="4.4489303231239319e-01" purity="5.0358235836029053e-01" nType="0">
        <Node pos="l" depth="1" NCoef="0" IVar="3" Cut="5.8520507812500000e-01" cType="1" res="-3.2862702012062073e-01" rms="3.2097825407981873e-01" purity="1.1968822032213211e-01" nType="0">
          <Node pos="l" depth="2" NCoef="0" IVar="-1" Cut="0.0000000000000000e+00" cType="1" res="-8.1604691222310066e-03" rms="2.5422251224517822e-01" purity="7.0086486637592316e-02" nType="-99"/>
          <Node pos="r" depth="2" NCoef="0" IVar="-1" Cut="0.0000000000000000e+00" cType="1" res="-4.6525807119905949e-03" rms="4.5491629838943481e-01" purity="3.0329212546348572e-01" nType="-99"/>
        </Node>
        <Node pos="r" depth="1" NCoef="0" IVar="4" Cut="3.9430454373359680e-01" cType="1" res="1.7874120175838470e-01" rms="3.9825654029846191e-01" purity="7.8479605913162231e-01" nType="0">
          <Node pos="l" depth="2" NCoef="0" IVar="-1" Cut="0.0000000000000000e+00" cType="1" res="2.1508738864213228e-03" rms="4.9323982000350952e-01" purity="5.7226151227951050e-01" nType="-99"/>
          <Node pos="r" depth="2" NCoef="0" IVar="-1" Cut="0.0000000000000000e+00" cType="1" res="1.6630191355943680e-02" rms="3.5715752840042114e-01" purity="8.4769070148468018e-01" nType="-99"/>
        </Node>
      </Node>
    </BinaryTree>
    <BinaryTree type="DecisionTree" boostWeight="1.0000000000000000e+00" itree="14">
      <Node pos="s" depth="0" NCoef="0" IVar="3" Cut="7.9812479019165039e-01" cType="1" res="-3.8146499544382095e-02" rms="4.4165691733360291e-01" purity="5.0116407871246338e-01" nType="0">
        <Node pos="l" depth="1" NCoef="0" IVar="4" Cut="3.6694335937500000e-01" cType="1" res="-3.1224423646926880e-01" rms="3.3564877510070801e-01" purity="1.3663570582866669e-01" nType="0">
          <Node pos="l" depth="2" NCoef="0" IVar="-1" Cut="0.0000000000000000e+00" cType="1" res="-8.1847859546542168e-03" rms="2.8210222721099854e-01" purity="8.7948009371757507e-02" nType="-99"/>
          <Node pos="r" depth="2" NCoef="0" IVar="-1" Cut="0.0000000000000000e+00" cType="1" res="-2.3039467632770538e-03" rms="4.8087599873542786e-01" purity="4.0564173460006714e-01" nType="-99"/>
        </Node>
        <Node pos="r" depth="1" NCoef="0" IVar="10" Cut="3.9450149536132812e+01" cType="1" res="1.8688371777534485e-01" rms="3.8780379295349121e-01" purity="8.0043655633926392e-01" nType="0">
          <Node pos="l" depth="2" NCoef="0" IVar="-1" Cut="0.0000000000000000e+00" cType="1" res="8.4645370952785015e-04" rms="4.6858671307563782e-01" purity="6.1759370565414429e-01" nType="-99"/>
          <Node pos="r" depth="2" NCoef="0" IVar="-1" Cut="0.0000000000000000e+00" cType="1" res="1.8419580534100533e-02" rms="3.4367454051971436e-01" purity="8.5636430978775024e-01" nType="-99"/>
        </Node>
      </Node>
    </BinaryTree>
    <BinaryTree type="DecisionTree" boostWeight="1.0000000000000000e+00" itree="15">
      <Node pos="s" depth="0" NCoef="0" IVar="3" Cut="8.3842539787292480e-01" cType="1" res="-4.7499712556600571e-02" rms="4.3864914774894714e-01" purity="4.9454748630523682e-01" nType="0">
        <Node pos="l" depth="1" NCoef="0" IVar="4" Cut="3.7915039062500000e-01" cType="1" res="-3.0004066228866577e-01" rms="3.4509918093681335e-01" purity="1.5212489664554596e-01" nType="0">
          <Node pos="l" depth="2" NCoef="0" IVar="-1" Cut="0.0000000000000000e+00" cType="1" res="-8.0280983820557594e-03" rms="2.8969770669937134e-01" purity="9.4837710261344910e-02" nType="-99"/>
          <Node pos="r" depth="2" NCoef="0" IVar="-1" Cut="0.0000000000000000e+00" cType="1" res="-1.9120420329272747e-03" rms="4.8380443453788757e-01" purity="4.5050853490829468e-01" nType="-99"/>
        </Node>
        <Node pos="r" depth="1" NCoef="0" IVar="12" Cut="1.4256882667541504e+00" cType="1" res="1.7749226093292236e-01" rms="3.8767695426940918e-01" purity="7.9961615800857544e-01" nType="0">
          <Node pos="l" depth="2" NCoef="0" IVar="-1" Cut="0.0000000000000000e+00" cType="1" res="1.4620422385632992e-02" rms="3.7353906035423279e-01" purity="8.1928211450576782e-01" nType="-99"/>
          <Node pos="r" depth="2" NCoef="0" IVar="-1" Cut="0.0000000000000000e+00" cType="1" res="-1.3946583494544029e-03" rms="4.7902143001556396e-01" purity="5.4839080572128296e-01" nType="-99"/>
        </Node>
      </Node>
    </BinaryTree>
    <BinaryTree type="DecisionTree" boostWeight="1.0000000000000000e+00" itree="16">
      <Node pos="s" depth="0" NCoef="0" IVar="3" Cut="7.9824101924896240e-01" cType="1" res="-5.2436720579862595e-02" rms="4.3601012229919434e-01" purity="4.9193638563156128e-01" nType="0">
        <Node pos="l" depth="1" NCoef="0" IVar="4" Cut="3.3626884222030640e-01" cType="1" res="-3.1330344080924988e-01" rms="3.2599204778671265e-01" purity="1.2824979424476624e-01" nType="0">
          <Node pos="l" depth="2" NCoef="0" IVar="-1" Cut="0.0000000000000000e+00" cType="1" res="-7.7223135158419609e-03" rms="2.6264005899429321e-01" purity="7.5104661285877228e-02" nType="-99"/>
          <Node pos="r" depth="2" NCoef="0" IVar="-1" Cut="0.0000000000000000e+00" cType="1" res="-3.1239029485732317e-03" rms="4.7037282586097717e-01" purity="3.6098891496658325e-01" nType="-99"/>
        </Node>
        <Node pos="r" depth="1" NCoef="0" IVar="4" Cut="3.1361025571823120e-01" cType="1" res="1.5596945583820343e-01" rms="3.9909940958023071e-01" purity="7.8248518705368042e-01" nType="0">
          <Node pos="l" depth="2" NCoef="0" IVar="-1" Cut="0.0000000000000000e+00" cType="1" res="-3.2686639315215871e-05" rms="4.9718084931373596e-01" purity="5.3065139055252075e-01" nType="-99"/>
          <Node pos="r" depth="2" NCoef="0" IVar="-1" Cut="0.0000000000000000e+00" cType="1" res="1.3841857202351093e-02" rms="3.6835867166519165e-01" purity="8.3305805921554565e-01" nType="-99"/>
        </Node>
      </Node>
    </BinaryTree>
    <BinaryTree type="DecisionTree" boostWeight="1.0000000000000000e+00" itree="17">
      <Node pos="s" depth="0" NCoef="0" IVar="3" Cut="7.5784736871719360e-01" cType="1" res="-4.2639777064323425e-02" rms="4.3373906612396240e-01" purity="5.0504577159881592e-01" nType="0">
        <Node pos="l" depth="1" NCoef="0" IVar="4" Cut="3.2329449057579041e-01" cType="1" res="-3.1560137867927551e-01" rms="3.1851685047149658e-01" purity="1.1829108744859695e-01" nType="0">
          <Node pos="l" depth="2" NCoef="0" IVar="-1" Cut="0.0000000000000000e+00" cType="1" res="-7.9337358474731445e-03" rms="2.5668597221374512e-01" purity="7.1079976856708527e-02" nType="-99"/>
          <Node pos="r" depth="2" NCoef="0" IVar="-1" Cut="0.0000000000000000e+00" cType="1" res="-3.9677415043115616e-03" rms="4.6061015129089355e-01" purity="3.1547901034355164e-01" nType="-99"/>
        </Node>
        <Node pos="r" depth="1" NCoef="0" IVar="10" Cut="5.6502239227294922e+01" cType="1" res="1.4771483838558197e-01" rms="4.0047553181648254e-01" purity="7.7475601434707642e-01" nType="0">
          <Node pos="l" depth="2" NCoef="0" IVar="-1" Cut="0.0000000000000000e+00" cType="1" res="1.6658793902024627e-03" rms="4.5507559180259705e-01" purity="6.5517252683639526e-01" nType="-99"/>
          <Node pos="r" depth="2" NCoef="0" IVar="-1" Cut="0.0000000000000000e+00" cType="1" res="2.0357800647616386e-02" rms="3.2322049140930176e-01" purity="8.7328159809112549e-01" nType="-99"/>
        </Node>
      </Node>
    </BinaryTree>
    <BinaryTree type="DecisionTree" boostWeight="1.0000000000000000e+00" itree="18">
      <Node pos="s" depth="0" NCoef="0" IVar="3" Cut="7.9812479019165039e-01" cType="1" res="-4.9727186560630798e-02" rms="4.2989701032638550e-01" purity="4.9783590435981750e-01" nType="0">
        <Node pos="l" depth="1" NCoef="0" IVar="3" Cut="5.5245536565780640e-01" cType="1" res="-3.0348107218742371e-01" rms="3.2958576083183289e-01" purity="1.3263310492038727e-01" nType="0">
          <Node pos="l" depth="2" NCoef="0" IVar="-1" Cut="0.0000000000000000e+00" cType="1" res="-8.0845495685935020e-03" rms="2.4189089238643646e-01" purity="6.2998108565807343e-02" nType="-99"/>
          <Node pos="r" depth="2" NCoef="0" IVar="-1" Cut="0.0000000000000000e+00" cType="1" res="-4.6361070126295090e-03" rms="4.4491970539093018e-01" purity="2.9476302862167358e-01" nType="-99"/>
        </Node>
        <Node pos="r" depth="1" NCoef="0" IVar="10" Cut="6.5217918395996094e+01" cType="1" res="1.5236763656139374e-01" rms="3.9161440730094910e-01" purity="7.8869086503982544e-01" nType="0">
          <Node pos="l" depth="2" NCoef="0" IVar="-1" Cut="0.0000000000000000e+00" cType="1" res="3.6582788452506065e-03" rms="4.3932130932807922e-01" purity="7.0041459798812866e-01" nType="-99"/>
          <Node pos="r" depth="2" NCoef="0" IVar="-1" Cut="0.0000000000000000e+00" cType="1" res="2.3467546328902245e-02" rms="3.0177056789398193e-01" purity="8.9325892925262451e-01" nType="-99"/>
        </Node>
      </Node>
    </BinaryTree>
    <BinaryTree type="DecisionTree" boostWeight="1.0000000000000000e+00" itree="19">
      <Node pos="s" depth="0" NCoef="0" IVar="3" Cut="7.1757000684738159e-01" cType="1" res="-4.6927087008953094e-02" rms="4.2883619666099548e-01" purity="5.0395172834396362e-01" nType="0">
        <Node pos="l" depth="1" NCoef="0" IVar="4" Cut="3.6339169740676880e-01" cType="1" res="-3.1686288118362427e-01" rms="3.0738744139671326e-01" purity="1.0900062322616577e-01" nType="0">
          <Node pos="l" depth="2" NCoef="0" IVar="-1" Cut="0.0000000000000000e+00" cType="1" res="-7.5348909012973309e-03" rms="2.6327946782112122e-01" purity="7.5223997235298157e-02" nType="-99"/>
          <Node pos="r" depth="2" NCoef="0" IVar="-1" Cut="0.0000000000000000e+00" cType="1" res="-3.0377365183085203e-03" rms="4.7597312927246094e-01" purity="3.5504657030105591e-01" nType="-99"/>
        </Node>
        <Node pos="r" depth="1" NCoef="0" IVar="10" Cut="4.2609264373779297e+01" cType="1" res="1.2775489687919617e-01" rms="4.0508687496185303e-01" purity="7.5953412055969238e-01" nType="0">
          <Node pos="l" depth="2" NCoef="0" IVar="-1" Cut="0.0000000000000000e+00" cType="1" res="-3.3247147803194821e-04" rms="4.6585050225257874e-01" purity="5.9410649538040161e-01" nType="-99"/>
          <Node pos="r" depth="2" NCoef="0" IVar="-1" Cut="0.0000000000000000e+00" cType="1" res="1.3862398453056812e-02" rms="3.6333736777305603e-01" purity="8.2674783468246460e-01" nType="-99"/>
        </Node>
      </Node>
    </BinaryTree>
    <BinaryTree type="DecisionTree" boostWeight="1.0000000000000000e+00" itree="20">
      <Node pos="s" depth="0" NCoef="0" IVar="3" Cut="7.5784736871719360e-01" cType="1" res="-5.3391344845294952e-02" rms="4.2646756768226624e-01" purity="4.9789851903915405e-01" nType="0">
        <Node pos="l" depth="1" NCoef="0" IVar="3" Cut="5.2766925096511841e-01" cType="1" res="-3.0493345856666565e-01" rms="3.1845104694366455e-01" purity="1.1879835277795792e-01" nType="0">
          <Node pos="l" depth="2" NCoef="0" IVar="-1" Cut="0.0000000000000000e+00" cType="1" res="-7.9969670623540878e-03" rms="2.3214237391948700e-01" purity="5.7438515126705170e-02" nType="-99"/>
          <Node pos="r" depth="2" NCoef="0" IVar="-1" Cut="0.0000000000000000e+00" cType="1" res="-4.9320589751005173e-03" rms="4.3639761209487915e-01" purity="2.6595443487167358e-01" nType="-99"/>
        </Node>
        <Node pos="r" depth="1" NCoef="0" IVar="12" Cut="1.4256882667541504e+00" cType="1" res="1.2687626481056213e-01" rms="4.0211623907089233e-01" purity="7.6958060264587402e-01" nType="0">
          <Node pos="l" depth="2" NCoef="0" IVar="-1" Cut="0.0000000000000000e+00" cType="1" res="1.0469507426023483e-02" rms="3.8588544726371765e-01" purity="7.9661923646926880e-01" nType="-99"/>
          <Node pos="r" depth="2" NCoef="0" IVar="-1" Cut="0.0000000000000000e+00" cType="1" res="-3.5596953239291906e-03" rms="4.7799521684646606e-01" purity="4.4968128204345703e-01" nType="-99"/>
        </Node>
      </Node>
    </BinaryTree>
    <BinaryTree type="DecisionTree" boostWeight="1.0000000000000000e+00" itree="21">
      <Node pos="s" depth="0" NCoef="0" IVar="3" Cut="7.1761065721511841e-01" cType="1" res="-5.2055913954973221e-02" rms="4.2256730794906616e-01" purity="4.9933400750160217e-01" nType="0">
        <Node pos="l" depth="1" NCoef="0" IVar="4" Cut="4.1571918129920959e-01" cType="1" res="-3.1567856669425964e-01" rms="2.9988944530487061e-01" purity="1.0310150682926178e-01" nType="0">
          <Node pos="l" depth="2" NCoef="0" IVar="-1" Cut="0.0000000000000000e+00" cType="1" res="-7.4584176763892174e-03" rms="2.6897656917572021e-01" purity="7.9060912132263184e-02" nType="-99"/>
          <Node pos="r" depth="2" NCoef="0" IVar="-1" Cut="0.0000000000000000e+00" cType="1" res="-2.0942338742315769e-03" rms="4.8882412910461426e-01" purity="3.9780050516128540e-01" nType="-99"/>
        </Node>
        <Node pos="r" depth="1" NCoef="0" IVar="4" Cut="4.7499883174896240e-01" cType="1" res="1.2406593561172485e-01" rms="4.0040773153305054e-01" purity="7.6405030488967896e-01" nType="0">
          <Node pos="l" depth="2" NCoef="0" IVar="-1" Cut="0.0000000000000000e+00" cType="1" res="-2.3715243150945753e-04" rms="4.8660823702812195e-01" purity="5.4438781738281250e-01" nType="-99"/>
          <Node pos="r" depth="2" NCoef="0" IVar="-1" Cut="0.0000000000000000e+00" cType="1" res="1.6922844573855400e-02" rms="3.3599320054054260e-01" purity="8.6675000190734863e-01" nType="-99"/>
        </Node>
      </Node>
    </BinaryTree>
    <BinaryTree type="DecisionTree" boostWeight="1.0000000000000000e+00" itree="22">
      <Node pos="s" depth="0" NCoef="0" IVar="3" Cut="7.5798690319061279e-01" cType="1" res="-5.0304073840379715e-02" rms="4.2078602313995361e-01" purity="5.0328695774078369e-01" nType="0">
        <Node pos="l" depth="1" NCoef="0" IVar="4" Cut="3.2203891873359680e-01" cType="1" res="-2.9644659161567688e-01" rms="3.1967845559120178e-01" purity="1.2069375813007355e-01" nType="0">
          <Node pos="l" depth="2" NCoef="0" IVar="-1" Cut="0.0000000000000000e+00" cType="1" res="-7.4277841486036777e-03" rms="2.5719541311264038e-01" purity="7.1566037833690643e-02" nType="-99"/>
          <Node pos="r" depth="2" NCoef="0" IVar="-1" Cut="0.0000000000000000e+00" cType="1" res="-3.4004640765488148e-03" rms="4.6517831087112427e-01" purity="3.3300623297691345e-01" nType="-99"/>
        </Node>
        <Node pos="r" depth="1" NCoef="0" IVar="10" Cut="4.2599765777587891e+01" cType="1" res="1.2830914556980133e-01" rms="3.9436122775077820e-01" purity="7.8091549873352051e-01" nType="0">
          <Node pos="l" depth="2" NCoef="0" IVar="-1" Cut="0.0000000000000000e+00" cType="1" res="1.8560155876912177e-04" rms="4.6192428469657898e-01" purity="6.2208646535873413e-01" nType="-99"/>
          <Node pos="r" depth="2" NCoef="0" IVar="-1" Cut="0.0000000000000000e+00" cType="1" res="1.3874765485525131e-02" rms="3.5425072908401489e-01" purity="8.4122246503829956e-01" nType="-99"/>
        </Node>
      </Node>
    </BinaryTree>
    <BinaryTree type="DecisionTree" boostWeight="1.0000000000000000e+00" itree="23">
      <Node pos="s" depth="0" NCoef="0" IVar="3" Cut="7.1773272752761841e-01" cType="1" res="-5.5506087839603424e-02" rms="4.1785332560539246e-01" purity="4.9846976995468140e-01" nType="0">
        <Node pos="l" depth="1" NCoef="0" IVar="3" Cut="5.0276690721511841e-01" cType="1" res="-3.0954727530479431e-01" rms="2.9854950308799744e-01" purity="1.0252531617879868e-01" nType="0">
          <Node pos="l" depth="2" NCoef="0" IVar="-1" Cut="0.0000000000000000e+00" cType="1" res="-7.6461886055767536e-03" rms="2.2097432613372803e-01" purity="5.1806021481752396e-02" nType="-99"/>
          <Node pos="r" depth="2" NCoef="0" IVar="-1" Cut="0.0000000000000000e+00" cType="1" res="-5.2292910404503345e-03" rms="4.1988727450370789e-01" purity="2.3710919916629791e-01" nType="-99"/>
        </Node>
        <Node pos="r" depth="1" NCoef="0" IVar="4" Cut="5.9604024887084961e-01" cType="1" res="1.1125034093856812e-01" rms="4.0066719055175781e-01" purity="7.5837361812591553e-01" nType="0">
          <Node pos="l" depth="2" NCoef="0" IVar="-1" Cut="0.0000000000000000e+00" cType="1" res="1.9993999740108848e-04" rms="4.7420895099639893e-01" purity="5.8288872241973877e-01" nType="-99"/>
          <Node pos="r" depth="2" NCoef="0" IVar="-1" Cut="0.0000000000000000e+00" cType="1" res="1.8582783639431000e-02" rms="3.1514292955398560e-01" purity="8.8639301061630249e-01" nType="-99"/>
        </Node>
      </Node>
    </BinaryTree>
    <BinaryTree type="DecisionTree" boostWeight="1.0000000000000000e+00" itree="24">
      <Node pos="s" depth="0" NCoef="0" IVar="3" Cut="6.7733907699584961e-01" cType="1" res="-5.8391436934471130e-02" rms="4.1638275980949402e-01" purity="4.9758553504943848e-01" nType="0">
        <Node pos="l" depth="1" NCoef="0" IVar="3" Cut="5.2769249677658081e-01" cType="1" res="-3.1591597199440002e-01" rms="2.8475174307823181e-01" purity="9.1228991746902466e-02" nType="0">
          <Node pos="l" depth="2" NCoef="0" IVar="-1" Cut="0.0000000000000000e+00" cType="1" res="-7.5383959338068962e-03" rms="2.3565299808979034e-01" purity="5.9584882110357285e-02" nType="-99"/>
          <Node pos="r" depth="2" NCoef="0" IVar="-1" Cut="0.0000000000000000e+00" cType="1" res="-5.5568940006196499e-03" rms="4.1140028834342957e-01" purity="2.2011165320873260e-01" nType="-99"/>
        </Node>
        <Node pos="r" depth="1" NCoef="0" IVar="4" Cut="3.1361025571823120e-01" cType="1" res="9.8617300391197205e-02" rms="4.0565708279609680e-01" purity="7.4533480405807495e-01" nType="0">
          <Node pos="l" depth="2" NCoef="0" IVar="-1" Cut="0.0000000000000000e+00" cType="1" res="-2.6854055467993021e-03" rms="4.8088109493255615e-01" purity="4.4814786314964294e-01" nType="-99"/>
          <Node pos="r" depth="2" NCoef="0" IVar="-1" Cut="0.0000000000000000e+00" cType="1" res="1.0861888527870178e-02" rms="3.7130439281463623e-01" purity="8.1997573375701904e-01" nType="-99"/>
        </Node>
      </Node>
    </BinaryTree>
    <BinaryTree type="DecisionTree" boostWeight="1.0000000000000000e+00" itree="25">
      <Node pos="s" depth="0" NCoef="0" IVar="3" Cut="6.7729258537292480e-01" cType="1" res="-5.5030290037393570e-02" rms="4.1516390442848206e-01" purity="5.0234025716781616e-01" nType="0">
        <Node pos="l" depth="1" NCoef="0" IVar="3" Cut="4.5286342501640320e-01" cType="1" res="-3.0881279706954956e-01" rms="2.9113817214965820e-01" purity="9.6166782081127167e-02" nType="0">
          <Node pos="l" depth="2" NCoef="0" IVar="-1" Cut="0.0000000000000000e+00" cType="1" res="-8.1714736297726631e-03" rms="2.0636513829231262e-01" purity="4.4754400849342346e-02" nType="-99"/>
          <Node pos="r" depth="2" NCoef="0" IVar="-1" Cut="0.0000000000000000e+00" cType="1" res="-5.7324124500155449e-03" rms="3.9623516798019409e-01" purity="1.9914938509464264e-01" nType="-99"/>
        </Node>
        <Node pos="r" depth="1" NCoef="0" IVar="0" Cut="1.0143120574951172e+02" cType="1" res="9.8823212087154388e-02" rms="4.0342456102371216e-01" purity="7.4857950210571289e-01" nType="0">
          <Node pos="l" depth="2" NCoef="0" IVar="-1" Cut="0.0000000000000000e+00" cType="1" res="-4.3137306347489357e-03" rms="4.7447532415390015e-01" purity="5.1429873704910278e-01" nType="-99"/>
          <Node pos="r" depth="2" NCoef="0" IVar="-1" Cut="0.0000000000000000e+00" cType="1" res="8.9645236730575562e-03" rms="3.8132452964782715e-01" purity="7.8443926572799683e-01" nType="-99"/>
        </Node>
      </Node>
    </BinaryTree>
    <BinaryTree type="DecisionTree" boostWeight="1.0000000000000000e+00" itree="26">
      <Node pos="s" depth="0" NCoef="0" IVar="3" Cut="7.5788223743438721e-01" cType="1" res="-5.9301573783159256e-02" rms="4.1394531726837158e-01" purity="4.9895879626274109e-01" nType="0">
        <Node pos="l" depth="1" NCoef="0" IVar="3" Cut="5.2771580219268799e-01" cType="1" res="-2.8548872470855713e-01" rms="3.1824797391891479e-01" purity="1.2042184919118881e-01" nType="0">
          <Node pos="l" depth="2" NCoef="0" IVar="-1" Cut="0.0000000000000000e+00" cType="1" res="-7.5542186386883259e-03" rms="2.3459075391292572e-01" purity="5.8962486684322357e-02" nType="-99"/>
          <Node pos="r" depth="2" NCoef="0" IVar="-1" Cut="0.0000000000000000e+00" cType="1" res="-4.7468794509768486e-03" rms="4.3551415205001831e-01" purity="2.6636371016502380e-01" nType="-99"/>
        </Node>
        <Node pos="r" depth="1" NCoef="0" IVar="4" Cut="3.1361025571823120e-01" cType="1" res="1.0325773060321808e-01" rms="3.9813882112503052e-01" purity="7.7101105451583862e-01" nType="0">
          <Node pos="l" depth="2" NCoef="0" IVar="-1" Cut="0.0000000000000000e+00" cType="1" res="-2.0287386141717434e-03" rms="4.9116924405097961e-01" purity="4.9339786171913147e-01" nType="-99"/>
          <Node pos="r" depth="2" NCoef="0" IVar="-1" Cut="0.0000000000000000e+00" cType="1" res="1.1004157364368439e-02" rms="3.6524346470832825e-01" purity="8.3205646276473999e-01" nType="-99"/>
        </Node>
      </Node>
    </BinaryTree>
    <BinaryTree type="DecisionTree" boostWeight="1.0000000000000000e+00" itree="27">
      <Node pos="s" depth="0" NCoef="0" IVar="3" Cut="7.1757000684738159e-01" cType="1" res="-5.9517811983823776e-02" rms="4.1036826372146606e-01" purity="4.9879878759384155e-01" nType="0">
        <Node pos="l" depth="1" NCoef="0" IVar="4" Cut="3.3699545264244080e-01" cType="1" res="-2.9611435532569885e-01" rms="2.9827836155891418e-01" purity="1.0296420007944107e-01" nType="0">
          <Node pos="l" depth="2" NCoef="0" IVar="-1" Cut="0.0000000000000000e+00" cType="1" res="-7.3789521120488644e-03" rms="2.4657543003559113e-01" purity="6.5515622496604919e-02" nType="-99"/>
          <Node pos="r" depth="2" NCoef="0" IVar="-1" Cut="0.0000000000000000e+00" cType="1" res="-4.0751672349870205e-03" rms="4.5982131361961365e-01" purity="3.1503447890281677e-01" nType="-99"/>
        </Node>
        <Node pos="r" depth="1" NCoef="0" IVar="4" Cut="3.1361025571823120e-01" cType="1" res="9.7598411142826080e-02" rms="3.9911374449729919e-01" purity="7.6165992021560669e-01" nType="0">
          <Node pos="l" depth="2" NCoef="0" IVar="-1" Cut="0.0000000000000000e+00" cType="1" res="-2.0448749419301748e-03" rms="4.9066475033760071e-01" purity="4.8132508993148804e-01" nType="-99"/>
          <Node pos="r" depth="2" NCoef="0" IVar="-1" Cut="0.0000000000000000e+00" cType="1" res="1.0711981914937496e-02" rms="3.6421796679496765e-01" purity="8.2826352119445801e-01" nType="-99"/>
        </Node>
      </Node>
    </BinaryTree>
    <BinaryTree type="DecisionTree" boostWeight="1.0000000000000000e+00" itree="28">
      <Node pos="s" depth="0" NCoef="0" IVar="3" Cut="6.7747861146926880e-01" cType="1" res="-6.2637127935886383e-02" rms="4.1209715604782104e-01" purity="4.9729320406913757e-01" nType="0">
        <Node pos="l" depth="1" NCoef="0" IVar="3" Cut="4.5307269692420959e-01" cType="1" res="-2.9886904358863831e-01" rms="2.8951680660247803e-01" purity="9.5206461846828461e-02" nType="0">
          <Node pos="l" depth="2" NCoef="0" IVar="-1" Cut="0.0000000000000000e+00" cType="1" res="-7.6275337487459183e-03" rms="2.1031637489795685e-01" purity="4.6571236103773117e-02" nType="-99"/>
          <Node pos="r" depth="2" NCoef="0" IVar="-1" Cut="0.0000000000000000e+00" cType="1" res="-5.7826032862067223e-03" rms="3.9149132370948792e-01" purity="1.9399860501289368e-01" nType="-99"/>
        </Node>
        <Node pos="r" depth="1" NCoef="0" IVar="4" Cut="3.1361025571823120e-01" cType="1" res="7.8645251691341400e-02" rms="4.0978544950485229e-01" purity="7.3776781558990479e-01" nType="0">
          <Node pos="l" depth="2" NCoef="0" IVar="-1" Cut="0.0000000000000000e+00" cType="1" res="-2.4370157625526190e-03" rms="4.8401069641113281e-01" purity="4.5731776952743530e-01" nType="-99"/>
          <Node pos="r" depth="2" NCoef="0" IVar="-1" Cut="0.0000000000000000e+00" cType="1" res="8.3209630101919174e-03" rms="3.7934353947639465e-01" purity="8.0899316072463989e-01" nType="-99"/>
        </Node>
      </Node>
    </BinaryTree>
    <BinaryTree type="DecisionTree" boostWeight="1.0000000000000000e+00" itree="29">
      <Node pos="s" depth="0" NCoef="0" IVar="3" Cut="7.5819617509841919e-01" cType="1" res="-6.7069850862026215e-02" rms="4.0799230337142944e-01" purity="4.9212598800659180e-01" nType="0">
        <Node pos="l" depth="1" NCoef="0" IVar="4" Cut="3.2273647189140320e-01" cType="1" res="-2.8313612937927246e-01" rms="3.0761125683784485e-01" purity="1.1277682334184647e-01" nType="0">
          <Node pos="l" depth="2" NCoef="0" IVar="-1" Cut="0.0000000000000000e+00" cType="1" res="-7.2005838155746460e-03" rms="2.4421636760234833e-01" purity="6.4361773431301117e-02" nType="-99"/>
          <Node pos="r" depth="2" NCoef="0" IVar="-1" Cut="0.0000000000000000e+00" cType="1" res="-3.7069462705403566e-03" rms="4.5601278543472290e-01" purity="3.1615808606147766e-01" nType="-99"/>
        </Node>
        <Node pos="r" depth="1" NCoef="0" IVar="10" Cut="5.6497447967529297e+01" cType="1" res="9.0831041336059570e-02" rms="3.9987924695014954e-01" purity="7.6935374736785889e-01" nType="0">
          <Node pos="l" depth="2" NCoef="0" IVar="-1" Cut="0.0000000000000000e+00" cType="1" res="5.0182733684778214e-04" rms="4.5103758573532104e-01" purity="6.6273999214172363e-01" nType="-99"/>
          <Node pos="r" depth="2" NCoef="0" IVar="-1" Cut="0.0000000000000000e+00" cType="1" res="1.4163267798721790e-02" rms="3.3945432305335999e-01" purity="8.5566222667694092e-01" nType="-99"/>
        </Node>
      </Node>
    </BinaryTree>
    <BinaryTree type="DecisionTree" boostWeight="1.0000000000000000e+00" itree="30">
      <Node pos="s" depth="0" NCoef="0" IVar="3" Cut="6.7733907699584961e-01" cType="1" res="-6.5529912710189819e-02" rms="4.0592813491821289e-01" purity="4.9302244186401367e-01" nType="0">
        <Node pos="l" depth="1" NCoef="0" IVar="3" Cut="5.0276690721511841e-01" cType="1" res="-2.9716381430625916e-01" rms="2.8220379352569580e-01" purity="9.0349473059177399e-02" nType="0">
          <Node pos="l" depth="2" NCoef="0" IVar="-1" Cut="0.0000000000000000e+00" cType="1" res="-7.4710436165332794e-03" rms="2.1870200335979462e-01" purity="5.0725542008876801e-02" nType="-99"/>
          <Node pos="r" depth="2" NCoef="0" IVar="-1" Cut="0.0000000000000000e+00" cType="1" res="-4.8006875440478325e-03" rms="4.0023359656333923e-01" purity="2.0734815299510956e-01" nType="-99"/>
        </Node>
        <Node pos="r" depth="1" NCoef="0" IVar="4" Cut="4.7499883174896240e-01" cType="1" res="7.7956594526767731e-02" rms="4.0458920598030090e-01" purity="7.4245971441268921e-01" nType="0">
          <Node pos="l" depth="2" NCoef="0" IVar="-1" Cut="0.0000000000000000e+00" cType="1" res="-1.1530772317200899e-03" rms="4.7992563247680664e-01" purity="5.2319264411926270e-01" nType="-99"/>
          <Node pos="r" depth="2" NCoef="0" IVar="-1" Cut="0.0000000000000000e+00" cType="1" res="1.1855882592499256e-02" rms="3.4842494130134583e-01" purity="8.5206454992294312e-01" nType="-99"/>
        </Node>
      </Node>
    </BinaryTree>
    <BinaryTree type="DecisionTree" boostWeight="1.0000000000000000e+00" itree="31">
      <Node pos="s" depth="0" NCoef="0" IVar="3" Cut="8.3840215206146240e-01" cType="1" res="-5.9643730521202087e-02" rms="4.0666839480400085e-01" purity="5.0373655557632446e-01" nType="0">
        <Node pos="l" depth="1" NCoef="0" IVar="4" Cut="4.4398716092109680e-01" cType="1" res="-2.5111049413681030e-01" rms="3.4073722362518311e-01" purity="1.5888096392154694e-01" nType="0">
          <Node pos="l" depth="2" NCoef="0" IVar="-1" Cut="0.0000000000000000e+00" cType="1" res="-6.9652674719691277e-03" rms="3.0496072769165039e-01" purity="1.0978987812995911e-01" nType="-99"/>
          <Node pos="r" depth="2" NCoef="0" IVar="-1" Cut="0.0000000000000000e+00" cType="1" res="1.1929551837965846e-03" rms="4.7272482514381409e-01" purity="5.7133769989013672e-01" nType="-99"/>
        </Node>
        <Node pos="r" depth="1" NCoef="0" IVar="0" Cut="1.0142785644531250e+02" cType="1" res="9.9993765354156494e-02" rms="3.8783407211303711e-01" purity="7.9126375913619995e-01" nType="0">
          <Node pos="l" depth="2" NCoef="0" IVar="-1" Cut="0.0000000000000000e+00" cType="1" res="-2.7940345462411642e-03" rms="4.6802347898483276e-01" purity="6.0551697015762329e-01" nType="-99"/>
          <Node pos="r" depth="2" NCoef="0" IVar="-1" Cut="0.0000000000000000e+00" cType="1" res="8.8911633938550949e-03" rms="3.6979073286056519e-01" purity="8.1701701879501343e-01" nType="-99"/>
        </Node>
      </Node>
    </BinaryTree>
    <BinaryTree type="DecisionTree" boostWeight="1.0000000000000000e+00" itree="32">
      <Node pos="s" depth="0" NCoef="0" IVar="3" Cut="7.9829913377761841e-01" cType="1" res="-5.2519038319587708e-02" rms="4.0373781323432922e-01" purity="5.1176291704177856e-01" nType="0">
        <Node pos="l" depth="1" NCoef="0" IVar="4" Cut="3.3626884222030640e-01" cType="1" res="-2.5457754731178284e-01" rms="3.3340507745742798e-01" purity="1.4225162565708160e-01" nType="0">
          <Node pos="l" depth="2" NCoef="0" IVar="-1" Cut="0.0000000000000000e+00" cType="1" res="-7.1936836466193199e-03" rms="2.7303525805473328e-01" purity="8.3451956510543823e-02" nType="-99"/>
          <Node pos="r" depth="2" NCoef="0" IVar="-1" Cut="0.0000000000000000e+00" cType="1" res="-2.4769450537860394e-03" rms="4.7506010532379150e-01" purity="3.9213475584983826e-01" nType="-99"/>
        </Node>
        <Node pos="r" depth="1" NCoef="0" IVar="12" Cut="1.5211355686187744e+00" cType="1" res="1.0184767097234726e-01" rms="3.8417744636535645e-01" purity="7.9405862092971802e-01" nType="0">
          <Node pos="l" depth="2" NCoef="0" IVar="-1" Cut="0.0000000000000000e+00" cType="1" res="9.3197636306285858e-03" rms="3.7266546487808228e-01" purity="8.1413865089416504e-01" nType="-99"/>
          <Node pos="r" depth="2" NCoef="0" IVar="-1" Cut="0.0000000000000000e+00" cType="1" res="-3.5576336085796356e-03" rms="4.6613901853561401e-01" purity="4.4399169087409973e-01" nType="-99"/>
        </Node>
      </Node>
    </BinaryTree>
    <BinaryTree type="DecisionTree" boostWeight="1.0000000000000000e+00" itree="33">
      <Node pos="s" depth="0" NCoef="0" IVar="3" Cut="8.3840215206146240e-01" cType="1" res="-5.8149300515651703e-02" rms="4.0189749002456665e-01" purity="5.0698661804199219e-01" nType="0">
        <Node pos="l" depth="1" NCoef="0" IVar="4" Cut="4.1194081306457520e-01" cType="1" res="-2.4752487242221832e-01" rms="3.3958187699317932e-01" purity="1.5773199498653412e-01" nType="0">
          <Node pos="l" depth="2" NCoef="0" IVar="-1" Cut="0.0000000000000000e+00" cType="1" res="-6.9609754718840122e-03" rms="2.9667961597442627e-01" purity="1.0345266759395599e-01" nType="-99"/>
          <Node pos="r" depth="2" NCoef="0" IVar="-1" Cut="0.0000000000000000e+00" cType="1" res="-8.0464087659493089e-04" rms="4.8281362652778625e-01" purity="5.0912493467330933e-01" nType="-99"/>
        </Node>
        <Node pos="r" depth="1" NCoef="0" IVar="10" Cut="4.1164070129394531e+01" cType="1" res="9.9258065223693848e-02" rms="3.8123643398284912e-01" purity="7.9728412628173828e-01" nType="0">
          <Node pos="l" depth="2" NCoef="0" IVar="-1" Cut="0.0000000000000000e+00" cType="1" res="-8.6653971811756492e-04" rms="4.5728614926338196e-01" purity="6.3382226228713989e-01" nType="-99"/>
          <Node pos="r" depth="2" NCoef="0" IVar="-1" Cut="0.0000000000000000e+00" cType="1" res="1.2169810011982918e-02" rms="3.4279420971870422e-01" purity="8.5233134031295776e-01" nType="-99"/>
        </Node>
      </Node>
    </BinaryTree>
    <BinaryTree type="DecisionTree" boostWeight="1.0000000000000000e+00" itree="34">
      <Node pos="s" depth="0" NCoef="0" IVar="3" Cut="6.3701522350311279e-01" cType="1" res="-5.8147903531789780e-02" rms="4.0128013491630554e-01" purity="5.0714874267578125e-01" nType="0">
        <Node pos="l" depth="1" NCoef="0" IVar="3" Cut="4.2970493435859680e-01" cType="1" res="-2.8885185718536377e-01" rms="2.7407124638557434e-01" purity="8.4542021155357361e-02" nType="0">
          <Node pos="l" depth="2" NCoef="0" IVar="-1" Cut="0.0000000000000000e+00" cType="1" res="-7.5288834050297737e-03" rms="1.9870148599147797e-01" purity="4.1285201907157898e-02" nType="-99"/>
          <Node pos="r" depth="2" NCoef="0" IVar="-1" Cut="0.0000000000000000e+00" cType="1" res="-5.2865375764667988e-03" rms="3.7903505563735962e-01" purity="1.7941500246524811e-01" nType="-99"/>
        </Node>
        <Node pos="r" depth="1" NCoef="0" IVar="4" Cut="3.5395741462707520e-01" cType="1" res="6.6274985671043396e-02" rms="4.0394684672355652e-01" purity="7.3506832122802734e-01" nType="0">
          <Node pos="l" depth="2" NCoef="0" IVar="-1" Cut="0.0000000000000000e+00" cType="1" res="-2.2258211392909288e-03" rms="4.7569084167480469e-01" purity="4.6295729279518127e-01" nType="-99"/>
          <Node pos="r" depth="2" NCoef="0" IVar="-1" Cut="0.0000000000000000e+00" cType="1" res="8.6961770430207253e-03" rms="3.6919420957565308e-01" purity="8.2098537683486938e-01" nType="-99"/>
        </Node>
      </Node>
    </BinaryTree>
    <BinaryTree type="DecisionTree" boostWeight="1.0000000000000000e+00" itree="35">
      <Node pos="s" depth="0" NCoef="0" IVar="3" Cut="8.3840215206146240e-01" cType="1" res="-6.1475455760955811e-02" rms="3.9692524075508118e-01" purity="5.0061839818954468e-01" nType="0">
        <Node pos="l" depth="1" NCoef="0" IVar="4" Cut="4.4398716092109680e-01" cType="1" res="-2.4561411142349243e-01" rms="3.3349001407623291e-01" purity="1.5360645949840546e-01" nType="0">
          <Node pos="l" depth="2" NCoef="0" IVar="-1" Cut="0.0000000000000000e+00" cType="1" res="-6.6684465855360031e-03" rms="2.9928034543991089e-01" purity="1.0602185130119324e-01" nType="-99"/>
          <Node pos="r" depth="2" NCoef="0" IVar="-1" Cut="0.0000000000000000e+00" cType="1" res="-1.0483062214916572e-04" rms="4.6782165765762329e-01" purity="5.3641891479492188e-01" nType="-99"/>
        </Node>
        <Node pos="r" depth="1" NCoef="0" IVar="0" Cut="1.0714289855957031e+02" cType="1" res="9.9596016108989716e-02" rms="3.7745982408523560e-01" purity="8.0415982007980347e-01" nType="0">
          <Node pos="l" depth="2" NCoef="0" IVar="-1" Cut="0.0000000000000000e+00" cType="1" res="-1.1377527844160795e-03" rms="4.5405834913253784e-01" purity="6.6799831390380859e-01" nType="-99"/>
          <Node pos="r" depth="2" NCoef="0" IVar="-1" Cut="0.0000000000000000e+00" cType="1" res="1.0814609006047249e-02" rms="3.4660091996192932e-01" purity="8.4118616580963135e-01" nType="-99"/>
        </Node>
      </Node>
    </BinaryTree>
    <BinaryTree type="DecisionTree" boostWeight="1.0000000000000000e+00" itree="36">
      <Node pos="s" depth="0" NCoef="0" IVar="3" Cut="7.9812479019165039e-01" cType="1" res="-5.6973725557327271e-02" rms="3.9749014377593994e-01" purity="5.0978505611419678e-01" nType="0">
        <Node pos="l" depth="1" NCoef="0" IVar="3" Cut="5.5245536565780640e-01" cType="1" res="-2.4728859961032867e-01" rms="3.2930493354797363e-01" purity="1.3824561238288879e-01" nType="0">
          <Node pos="l" depth="2" NCoef="0" IVar="-1" Cut="0.0000000000000000e+00" cType="1" res="-6.8922312930226326e-03" rms="2.4696801602840424e-01" purity="6.6159442067146301e-02" nType="-99"/>
          <Node pos="r" depth="2" NCoef="0" IVar="-1" Cut="0.0000000000000000e+00" cType="1" res="-4.2027044110000134e-03" rms="4.5145744085311890e-01" purity="3.1614792346954346e-01" nType="-99"/>
        </Node>
        <Node pos="r" depth="1" NCoef="0" IVar="12" Cut="1.4070870876312256e+00" cType="1" res="8.8530972599983215e-02" rms="3.8343644142150879e-01" purity="7.9384446144104004e-01" nType="0">
          <Node pos="l" depth="2" NCoef="0" IVar="-1" Cut="0.0000000000000000e+00" cType="1" res="8.9025851339101791e-03" rms="3.6917796730995178e-01" purity="8.1814211606979370e-01" nType="-99"/>
          <Node pos="r" depth="2" NCoef="0" IVar="-1" Cut="0.0000000000000000e+00" cType="1" res="-3.7760813720524311e-03" rms="4.6915158629417419e-01" purity="5.0469458103179932e-01" nType="-99"/>
        </Node>
      </Node>
    </BinaryTree>
    <BinaryTree type="DecisionTree" boostWeight="1.0000000000000000e+00" itree="37">
      <Node pos="s" depth="0" NCoef="0" IVar="3" Cut="6.7733907699584961e-01" cType="1" res="-6.5557770431041718e-02" rms="3.9849755167961121e-01" purity="4.9961191415786743e-01" nType="0">
        <Node pos="l" depth="1" NCoef="0" IVar="3" Cut="4.7784131765365601e-01" cType="1" res="-2.7174609899520874e-01" rms="2.8702020645141602e-01" purity="9.4304002821445465e-02" nType="0">
          <Node pos="l" depth="2" NCoef="0" IVar="-1" Cut="0.0000000000000000e+00" cType="1" res="-6.9155041128396988e-03" rms="2.1940323710441589e-01" purity="5.1073286682367325e-02" nType="-99"/>
          <Node pos="r" depth="2" NCoef="0" IVar="-1" Cut="0.0000000000000000e+00" cType="1" res="-5.0464803352952003e-03" rms="4.0233108401298523e-01" purity="2.1051646769046783e-01" nType="-99"/>
        </Node>
        <Node pos="r" depth="1" NCoef="0" IVar="3" Cut="8.9225262403488159e-01" cType="1" res="5.6008148938417435e-02" rms="4.0498471260070801e-01" purity="7.3857605457305908e-01" nType="0">
          <Node pos="l" depth="2" NCoef="0" IVar="-1" Cut="0.0000000000000000e+00" cType="1" res="-3.0351921450346708e-03" rms="4.6894621849060059e-01" purity="4.8026165366172791e-01" nType="-99"/>
          <Node pos="r" depth="2" NCoef="0" IVar="-1" Cut="0.0000000000000000e+00" cType="1" res="6.3449605368077755e-03" rms="3.8045823574066162e-01" purity="8.0110239982604980e-01" nType="-99"/>
        </Node>
      </Node>
    </BinaryTree>
    <BinaryTree type="DecisionTree" boostWeight="1.0000000000000000e+00" itree="38">
      <Node pos="s" depth="0" NCoef="0" IVar="3" Cut="7.5788223743438721e-01" cType="1" res="-6.2268655747175217e-02" rms="3.9247691631317139e-01" purity="5.0295299291610718e-01" nType="0">
        <Node pos="l" depth="1" NCoef="0" IVar="3" Cut="5.2771580219268799e-01" cType="1" res="-2.5525909662246704e-01" rms="3.0817735195159912e-01" purity="1.1480323970317841e-01" nType="0">
          <Node pos="l" depth="2" NCoef="0" IVar="-1" Cut="0.0000000000000000e+00" cType="1" res="-7.0542078465223312e-03" rms="2.2688756883144379e-01" purity="5.5135264992713928e-02" nType="-99"/>
          <Node pos="r" depth="2" NCoef="0" IVar="-1" Cut="0.0000000000000000e+00" cType="1" res="-4.0300157852470875e-03" rms="4.3086510896682739e-01" purity="2.6528844237327576e-01" nType="-99"/>
        </Node>
        <Node pos="r" depth="1" NCoef="0" IVar="12" Cut="1.5211355686187744e+00" cType="1" res="7.5730167329311371e-02" rms="3.8806781172752380e-01" purity="7.8050154447555542e-01" nType="0">
          <Node pos="l" depth="2" NCoef="0" IVar="-1" Cut="0.0000000000000000e+00" cType="1" res="7.2576142847537994e-03" rms="3.7598976492881775e-01" purity="8.0373954772949219e-01" nType="-99"/>
          <Node pos="r" depth="2" NCoef="0" IVar="-1" Cut="0.0000000000000000e+00" cType="1" res="-4.0882676839828491e-03" rms="4.5841357111930847e-01" purity="4.0470805764198303e-01" nType="-99"/>
        </Node>
      </Node>
    </BinaryTree>
    <BinaryTree type="DecisionTree" boostWeight="1.0000000000000000e+00" itree="39">
      <Node pos="s" depth="0" NCoef="0" IVar="3" Cut="6.7729258537292480e-01" cType="1" res="-6.6831499338150024e-02" rms="3.9466786384582520e-01" purity="4.9851027131080627e-01" nType="0">
        <Node pos="l" depth="1" NCoef="0" IVar="3" Cut="4.7779482603073120e-01" cType="1" res="-2.6935005187988281e-01" rms="2.8317070007324219e-01" purity="9.1544792056083679e-02" nType="0">
          <Node pos="l" depth="2" NCoef="0" IVar="-1" Cut="0.0000000000000000e+00" cType="1" res="-6.9225742481648922e-03" rms="2.1043467521667480e-01" purity="4.6624880284070969e-02" nType="-99"/>
          <Node pos="r" depth="2" NCoef="0" IVar="-1" Cut="0.0000000000000000e+00" cType="1" res="-5.0400905311107635e-03" rms="3.9350023865699768e-01" purity="1.9813051819801331e-01" nType="-99"/>
        </Node>
        <Node pos="r" depth="1" NCoef="0" IVar="12" Cut="1.4645646810531616e+00" cType="1" res="5.4946269840002060e-02" rms="4.0213975310325623e-01" purity="7.4322533607482910e-01" nType="0">
          <Node pos="l" depth="2" NCoef="0" IVar="-1" Cut="0.0000000000000000e+00" cType="1" res="5.5304169654846191e-03" rms="3.9178198575973511e-01" purity="7.6945096254348755e-01" nType="-99"/>
          <Node pos="r" depth="2" NCoef="0" IVar="-1" Cut="0.0000000000000000e+00" cType="1" res="-4.1501135565340519e-03" rms="4.4775286316871643e-01" purity="3.8961252570152283e-01" nType="-99"/>
        </Node>
      </Node>
    </BinaryTree>
    <BinaryTree type="DecisionTree" boostWeight="1.0000000000000000e+00" itree="40">
      <Node pos="s" depth="0" NCoef="0" IVar="3" Cut="7.9815381765365601e-01" cType="1" res="-6.6737219691276550e-02" rms="3.9399775862693787e-01" purity="4.9764370918273926e-01" nType="0">
        <Node pos="l" depth="1" NCoef="0" IVar="3" Cut="5.2183312177658081e-01" cType="1" res="-2.3784583806991577e-01" rms="3.2792377471923828e-01" purity="1.3941201567649841e-01" nType="0">
          <Node pos="l" depth="2" NCoef="0" IVar="-1" Cut="0.0000000000000000e+00" cType="1" res="-6.8476297892630100e-03" rms="2.2942757606506348e-01" purity="5.6309584528207779e-02" nType="-99"/>
          <Node pos="r" depth="2" NCoef="0" IVar="-1" Cut="0.0000000000000000e+00" cType="1" res="-3.9172829128801823e-03" rms="4.3948793411254883e-01" purity="2.9445928335189819e-01" nType="-99"/>
        </Node>
        <Node pos="r" depth="1" NCoef="0" IVar="0" Cut="9.8571441650390625e+01" cType="1" res="7.0765264332294464e-02" rms="3.8875600695610046e-01" purity="7.8551793098449707e-01" nType="0">
          <Node pos="l" depth="2" NCoef="0" IVar="-1" Cut="0.0000000000000000e+00" cType="1" res="-6.2680975534021854e-03" rms="4.8119318485260010e-01" purity="5.4374343156814575e-01" nType="-99"/>
          <Node pos="r" depth="2" NCoef="0" IVar="-1" Cut="0.0000000000000000e+00" cType="1" res="6.8437992595136166e-03" rms="3.7217253446578979e-01" purity="8.0900800228118896e-01" nType="-99"/>
        </Node>
      </Node>
    </BinaryTree>
    <BinaryTree type="DecisionTree" boostWeight="1.0000000000000000e+00" itree="41">
      <Node pos="s" depth="0" NCoef="0" IVar="3" Cut="8.3849513530731201e-01" cType="1" res="-6.3484467566013336e-02" rms="3.9036017656326294e-01" purity="4.9836751818656921e-01" nType="0">
        <Node pos="l" depth="1" NCoef="0" IVar="4" Cut="3.7703451514244080e-01" cType="1" res="-2.2827494144439697e-01" rms="3.3597734570503235e-01" purity="1.5742726624011993e-01" nType="0">
          <Node pos="l" depth="2" NCoef="0" IVar="-1" Cut="0.0000000000000000e+00" cType="1" res="-6.5233698114752769e-03" rms="2.8617119789123535e-01" purity="9.5684610307216644e-02" nType="-99"/>
          <Node pos="r" depth="2" NCoef="0" IVar="-1" Cut="0.0000000000000000e+00" cType="1" res="-1.4910101890563965e-03" rms="4.7290039062500000e-01" purity="4.5994827151298523e-01" nType="-99"/>
        </Node>
        <Node pos="r" depth="1" NCoef="0" IVar="10" Cut="4.2616603851318359e+01" cType="1" res="8.4586381912231445e-02" rms="3.7622871994972229e-01" purity="8.0471605062484741e-01" nType="0">
          <Node pos="l" depth="2" NCoef="0" IVar="-1" Cut="0.0000000000000000e+00" cType="1" res="-1.3197067892178893e-03" rms="4.5683857798576355e-01" purity="6.4476597309112549e-01" nType="-99"/>
          <Node pos="r" depth="2" NCoef="0" IVar="-1" Cut="0.0000000000000000e+00" cType="1" res="1.1996098794043064e-02" rms="3.3264607191085815e-01" purity="8.6303871870040894e-01" nType="-99"/>
        </Node>
      </Node>
    </BinaryTree>
    <BinaryTree type="DecisionTree" boostWeight="1.0000000000000000e+00" itree="42">
      <Node pos="s" depth="0" NCoef="0" IVar="3" Cut="8.3840215206146240e-01" cType="1" res="-7.1709759533405304e-02" rms="3.9051231741905212e-01" purity="4.9326583743095398e-01" nType="0">
        <Node pos="l" depth="1" NCoef="0" IVar="4" Cut="4.4398716092109680e-01" cType="1" res="-2.3287011682987213e-01" rms="3.2856714725494385e-01" purity="1.5004077553749084e-01" nType="0">
          <Node pos="l" depth="2" NCoef="0" IVar="-1" Cut="0.0000000000000000e+00" cType="1" res="-6.6878208890557289e-03" rms="2.9194858670234680e-01" purity="1.0058338940143585e-01" nType="-99"/>
          <Node pos="r" depth="2" NCoef="0" IVar="-1" Cut="0.0000000000000000e+00" cType="1" res="1.8855438975151628e-04" rms="4.7998788952827454e-01" purity="5.5332589149475098e-01" nType="-99"/>
        </Node>
        <Node pos="r" depth="1" NCoef="0" IVar="10" Cut="3.6060310363769531e+01" cType="1" res="6.8456009030342102e-02" rms="3.8601168990135193e-01" purity="7.9177844524383545e-01" nType="0">
          <Node pos="l" depth="2" NCoef="0" IVar="-1" Cut="0.0000000000000000e+00" cType="1" res="-3.3967304043471813e-03" rms="4.7356823086738586e-01" purity="5.8499240875244141e-01" nType="-99"/>
          <Node pos="r" depth="2" NCoef="0" IVar="-1" Cut="0.0000000000000000e+00" cType="1" res="8.6285620927810669e-03" rms="3.5394772887229919e-01" purity="8.3963763713836670e-01" nType="-99"/>
        </Node>
      </Node>
    </BinaryTree>
    <BinaryTree type="DecisionTree" boostWeight="1.0000000000000000e+00" itree="43">
      <Node pos="s" depth="0" NCoef="0" IVar="3" Cut="7.5798690319061279e-01" cType="1" res="-7.2823397815227509e-02" rms="3.8956919312477112e-01" purity="4.9186173081398010e-01" nType="0">
        <Node pos="l" depth="1" NCoef="0" IVar="4" Cut="2.9478237032890320e-01" cType="1" res="-2.4540977180004120e-01" rms="3.0524212121963501e-01" purity="1.1157436668872833e-01" nType="0">
          <Node pos="l" depth="2" NCoef="0" IVar="-1" Cut="0.0000000000000000e+00" cType="1" res="-6.4006545580923557e-03" rms="2.4371583759784698e-01" purity="6.4187578856945038e-02" nType="-99"/>
          <Node pos="r" depth="2" NCoef="0" IVar="-1" Cut="0.0000000000000000e+00" cType="1" res="-3.7164718378335238e-03" rms="4.3486613035202026e-01" purity="2.7079415321350098e-01" nType="-99"/>
        </Node>
        <Node pos="r" depth="1" NCoef="0" IVar="4" Cut="4.7499883174896240e-01" cType="1" res="5.2895948290824890e-02" rms="3.9615890383720398e-01" purity="7.6887941360473633e-01" nType="0">
          <Node pos="l" depth="2" NCoef="0" IVar="-1" Cut="0.0000000000000000e+00" cType="1" res="-1.4686977956444025e-03" rms="4.7920531034469604e-01" purity="5.6699466705322266e-01" nType="-99"/>
          <Node pos="r" depth="2" NCoef="0" IVar="-1" Cut="0.0000000000000000e+00" cType="1" res="9.5974737778306007e-03" rms="3.4632351994514465e-01" purity="8.5677862167358398e-01" nType="-99"/>
        </Node>
      </Node>
    </BinaryTree>
    <BinaryTree type="DecisionTree" boostWeight="1.0000000000000000e+00" itree="44">
      <Node pos="s" depth="0" NCoef="0" IVar="3" Cut="7.9824101924896240e-01" cType="1" res="-6.8081691861152649e-02" rms="3.9015352725982666e-01" purity="4.9931147694587708e-01" nType="0">
        <Node pos="l" depth="1" NCoef="0" IVar="3" Cut="4.9133881926536560e-01" cType="1" res="-2.3080708086490631e-01" rms="3.2628768682479858e-01" purity="1.3698060810565948e-01" nType="0">
          <Node pos="l" depth="2" NCoef="0" IVar="-1" Cut="0.0000000000000000e+00" cType="1" res="-7.3054954409599304e-03" rms="2.2234889864921570e-01" purity="5.2543930709362030e-02" nType="-99"/>
          <Node pos="r" depth="2" NCoef="0" IVar="-1" Cut="0.0000000000000000e+00" cType="1" res="-4.0143379010260105e-03" rms="4.2631134390830994e-01" purity="2.6493489742279053e-01" nType="-99"/>
        </Node>
        <Node pos="r" depth="1" NCoef="0" IVar="10" Cut="4.2609264373779297e+01" cType="1" res="6.0536623001098633e-02" rms="3.8847565650939941e-01" purity="7.8569811582565308e-01" nType="0">
          <Node pos="l" depth="2" NCoef="0" IVar="-1" Cut="0.0000000000000000e+00" cType="1" res="-2.1026553586125374e-03" rms="4.5807698369026184e-01" purity="6.2385809421539307e-01" nType="-99"/>
          <Node pos="r" depth="2" NCoef="0" IVar="-1" Cut="0.0000000000000000e+00" cType="1" res="9.4517944380640984e-03" rms="3.5005137324333191e-01" purity="8.4744006395339966e-01" nType="-99"/>
        </Node>
      </Node>
    </BinaryTree>
    <BinaryTree type="DecisionTree" boostWeight="1.0000000000000000e+00" itree="45">
      <Node pos="s" depth="0" NCoef="0" IVar="3" Cut="7.1777343750000000e-01" cType="1" res="-5.8893963694572449e-02" rms="3.8638663291931152e-01" purity="5.0691288709640503e-01" nType="0">
        <Node pos="l" depth="1" NCoef="0" IVar="4" Cut="3.3878579735755920e-01" cType="1" res="-2.3714669048786163e-01" rms="3.0438792705535889e-01" purity="1.1025442928075790e-01" nType="0">
          <Node pos="l" depth="2" NCoef="0" IVar="-1" Cut="0.0000000000000000e+00" cType="1" res="-6.5587102435529232e-03" rms="2.5544348359107971e-01" purity="7.0894367992877960e-02" nType="-99"/>
          <Node pos="r" depth="2" NCoef="0" IVar="-1" Cut="0.0000000000000000e+00" cType="1" res="-2.5847391225397587e-03" rms="4.5977663993835449e-01" purity="3.2530367374420166e-01" nType="-99"/>
        </Node>
        <Node pos="r" depth="1" NCoef="0" IVar="3" Cut="9.3243116140365601e-01" cType="1" res="5.9032399207353592e-02" rms="3.8966688513755798e-01" purity="7.6932954788208008e-01" nType="0">
          <Node pos="l" depth="2" NCoef="0" IVar="-1" Cut="0.0000000000000000e+00" cType="1" res="-2.2006582003086805e-03" rms="4.5414423942565918e-01" purity="5.7668256759643555e-01" nType="-99"/>
          <Node pos="r" depth="2" NCoef="0" IVar="-1" Cut="0.0000000000000000e+00" cType="1" res="7.7631706371903419e-03" rms="3.6158758401870728e-01" purity="8.2836252450942993e-01" nType="-99"/>
        </Node>
      </Node>
    </BinaryTree>
    <BinaryTree type="DecisionTree" boostWeight="1.0000000000000000e+00" itree="46">
      <Node pos="s" depth="0" NCoef="0" IVar="3" Cut="7.9812479019165039e-01" cType="1" res="-6.7334972321987152e-02" rms="3.8657084107398987e-01" purity="4.9829038977622986e-01" nType="0">
        <Node pos="l" depth="1" NCoef="0" IVar="4" Cut="3.6694335937500000e-01" cType="1" res="-2.2541852295398712e-01" rms="3.2265737652778625e-01" purity="1.3453720510005951e-01" nType="0">
          <Node pos="l" depth="2" NCoef="0" IVar="-1" Cut="0.0000000000000000e+00" cType="1" res="-6.2726931646466255e-03" rms="2.7701288461685181e-01" purity="8.6520887911319733e-02" nType="-99"/>
          <Node pos="r" depth="2" NCoef="0" IVar="-1" Cut="0.0000000000000000e+00" cType="1" res="-2.4653421714901924e-03" rms="4.6932002902030945e-01" purity="3.8786983489990234e-01" nType="-99"/>
        </Node>
        <Node pos="r" depth="1" NCoef="0" IVar="12" Cut="8.9105516672134399e-01" cType="1" res="5.7957328855991364e-02" rms="3.8711595535278320e-01" purity="7.8659033775329590e-01" nType="0">
          <Node pos="l" depth="2" NCoef="0" IVar="-1" Cut="0.0000000000000000e+00" cType="1" res="1.0553515516221523e-02" rms="3.4876748919487000e-01" purity="8.4416419267654419e-01" nType="-99"/>
          <Node pos="r" depth="2" NCoef="0" IVar="-1" Cut="0.0000000000000000e+00" cType="1" res="-1.2881688307970762e-03" rms="4.3811681866645813e-01" purity="6.7631584405899048e-01" nType="-99"/>
        </Node>
      </Node>
    </BinaryTree>
    <BinaryTree type="DecisionTree" boostWeight="1.0000000000000000e+00" itree="47">
      <Node pos="s" depth="0" NCoef="0" IVar="3" Cut="6.7729258537292480e-01" cType="1" res="-6.8262696266174316e-02" rms="3.8365060091018677e-01" purity="4.9578976631164551e-01" nType="0">
        <Node pos="l" depth="1" NCoef="0" IVar="3" Cut="4.5286342501640320e-01" cType="1" res="-2.4633736908435822e-01" rms="2.8349086642265320e-01" purity="9.2137679457664490e-02" nType="0">
          <Node pos="l" depth="2" NCoef="0" IVar="-1" Cut="0.0000000000000000e+00" cType="1" res="-6.6140252165496349e-03" rms="1.9900800287723541e-01" purity="4.1458949446678162e-02" nType="-99"/>
          <Node pos="r" depth="2" NCoef="0" IVar="-1" Cut="0.0000000000000000e+00" cType="1" res="-4.3457453139126301e-03" rms="3.9391753077507019e-01" purity="1.9789175689220428e-01" nType="-99"/>
        </Node>
        <Node pos="r" depth="1" NCoef="0" IVar="4" Cut="3.1361025571823120e-01" cType="1" res="4.1974581778049469e-02" rms="3.9594253897666931e-01" purity="7.4567097425460815e-01" nType="0">
          <Node pos="l" depth="2" NCoef="0" IVar="-1" Cut="0.0000000000000000e+00" cType="1" res="-3.3830003812909126e-03" rms="4.7077849507331848e-01" purity="4.5684775710105896e-01" nType="-99"/>
          <Node pos="r" depth="2" NCoef="0" IVar="-1" Cut="0.0000000000000000e+00" cType="1" res="6.1640781350433826e-03" rms="3.6716037988662720e-01" purity="8.1808680295944214e-01" nType="-99"/>
        </Node>
      </Node>
    </BinaryTree>
    <BinaryTree type="DecisionTree" boostWeight="1.0000000000000000e+00" itree="48">
      <Node pos="s" depth="0" NCoef="0" IVar="3" Cut="7.1761065721511841e-01" cType="1" res="-6.6574662923812866e-02" rms="3.8221737742424011e-01" purity="5.0023961067199707e-01" nType="0">
        <Node pos="l" depth="1" NCoef="0" IVar="3" Cut="5.2945965528488159e-01" cType="1" res="-2.4011059105396271e-01" rms="2.9229930043220520e-01" purity="1.0062276571989059e-01" nType="0">
          <Node pos="l" depth="2" NCoef="0" IVar="-1" Cut="0.0000000000000000e+00" cType="1" res="-6.8750362843275070e-03" rms="2.2236119210720062e-01" purity="5.2650898694992065e-02" nType="-99"/>
          <Node pos="r" depth="2" NCoef="0" IVar="-1" Cut="0.0000000000000000e+00" cType="1" res="-3.7630104925483465e-03" rms="4.1696995496749878e-01" purity="2.3660793900489807e-01" nType="-99"/>
        </Node>
        <Node pos="r" depth="1" NCoef="0" IVar="4" Cut="2.7326312661170959e-01" cType="1" res="4.8774044960737228e-02" rms="3.9125734567642212e-01" purity="7.6586353778839111e-01" nType="0">
          <Node pos="l" depth="2" NCoef="0" IVar="-1" Cut="0.0000000000000000e+00" cType="1" res="-3.2356190495193005e-03" rms="4.7757643461227417e-01" purity="4.6669501066207886e-01" nType="-99"/>
          <Node pos="r" depth="2" NCoef="0" IVar="-1" Cut="0.0000000000000000e+00" cType="1" res="6.0483431443572044e-03" rms="3.6903551220893860e-01" purity="8.1736958026885986e-01" nType="-99"/>
        </Node>
      </Node>
    </BinaryTree>
    <BinaryTree type="DecisionTree" boostWeight="1.0000000000000000e+00" itree="49">
      <Node pos="s" depth="0" NCoef="0" IVar="3" Cut="6.3727676868438721e-01" cType="1" res="-6.5042637288570404e-02" rms="3.8286244869232178e-01" purity="5.0122636556625366e-01" nType="0">
        <Node pos="l" depth="1" NCoef="0" IVar="3" Cut="4.0724980831146240e-01" cType="1" res="-2.4765266478061676e-01" rms="2.7010059356689453e-01" purity="8.2479521632194519e-02" nType="0">
          <Node pos="l" depth="2" NCoef="0" IVar="-1" Cut="0.0000000000000000e+00" cType="1" res="-7.0225629024207592e-03" rms="1.8986454606056213e-01" purity="3.7496738135814667e-02" nType="-99"/>
          <Node pos="r" depth="2" NCoef="0" IVar="-1" Cut="0.0000000000000000e+00" cType="1" res="-5.3661866113543510e-03" rms="3.6386001110076904e-01" purity="1.6282582283020020e-01" nType="-99"/>
        </Node>
        <Node pos="r" depth="1" NCoef="0" IVar="10" Cut="5.6502769470214844e+01" cType="1" res="3.4575361758470535e-02" rms="3.9829030632972717e-01" purity="7.2966241836547852e-01" nType="0">
          <Node pos="l" depth="2" NCoef="0" IVar="-1" Cut="0.0000000000000000e+00" cType="1" res="-1.9158666254952550e-03" rms="4.3973538279533386e-01" purity="6.0970753431320190e-01" nType="-99"/>
          <Node pos="r" depth="2" NCoef="0" IVar="-1" Cut="0.0000000000000000e+00" cType="1" res="9.2731239274144173e-03" rms="3.4607264399528503e-01" purity="8.3184605836868286e-01" nType="-99"/>
        </Node>
      </Node>
    </BinaryTree>
    <BinaryTree type="DecisionTree" boostWeight="1.0000000000000000e+00" itree="50">
      <Node pos="s" depth="0" NCoef="0" IVar="3" Cut="6.7733907699584961e-01" cType="1" res="-6.6381074488162994e-02" rms="3.7978678941726685e-01" purity="4.9587428569793701e-01" nType="0">
        <Node pos="l" depth="1" NCoef="0" IVar="3" Cut="4.2799013853073120e-01" cType="1" res="-2.4115362763404846e-01" rms="2.7842828631401062e-01" purity="8.8906608521938324e-02" nType="0">
          <Node pos="l" depth="2" NCoef="0" IVar="-1" Cut="0.0000000000000000e+00" cType="1" res="-6.7234192974865437e-03" rms="1.8565957248210907e-01" purity="3.5805914551019669e-02" nType="-99"/>
          <Node pos="r" depth="2" NCoef="0" IVar="-1" Cut="0.0000000000000000e+00" cType="1" res="-4.8669115640223026e-03" rms="3.7737426161766052e-01" purity="1.7846918106079102e-01" nType="-99"/>
        </Node>
        <Node pos="r" depth="1" NCoef="0" IVar="12" Cut="1.2814941406250000e+00" cType="1" res="4.3477460741996765e-02" rms="3.9357972145080566e-01" purity="7.5168603658676147e-01" nType="0">
          <Node pos="l" depth="2" NCoef="0" IVar="-1" Cut="0.0000000000000000e+00" cType="1" res="5.7559772394597530e-03" rms="3.7742745876312256e-01" purity="7.8781747817993164e-01" nType="-99"/>
          <Node pos="r" depth="2" NCoef="0" IVar="-1" Cut="0.0000000000000000e+00" cType="1" res="-3.7783812731504440e-03" rms="4.5316588878631592e-01" purity="5.0924801826477051e-01" nType="-99"/>
        </Node>
      </Node>
    </BinaryTree>
    <BinaryTree type="DecisionTree" boostWeight="1.0000000000000000e+00" itree="51">
      <Node pos="s" depth="0" NCoef="0" IVar="3" Cut="8.3842539787292480e-01" cType="1" res="-6.8651966750621796e-02" rms="3.7976250052452087e-01" purity="4.9433293938636780e-01" nType="0">
        <Node pos="l" depth="1" NCoef="0" IVar="4" Cut="4.1194081306457520e-01" cType="1" res="-2.1077734231948853e-01" rms="3.2860997319221497e-01" purity="1.5192183852195740e-01" nType="0">
          <Node pos="l" depth="2" NCoef="0" IVar="-1" Cut="0.0000000000000000e+00" cType="1" res="-6.3586374744772911e-03" rms="2.9038521647453308e-01" purity="9.9935322999954224e-02" nType="-99"/>
          <Node pos="r" depth="2" NCoef="0" IVar="-1" Cut="0.0000000000000000e+00" cType="1" res="-8.1022677477449179e-04" rms="4.7275438904762268e-01" purity="4.9686440825462341e-01" nType="-99"/>
        </Node>
        <Node pos="r" depth="1" NCoef="0" IVar="0" Cut="1.0714221191406250e+02" cType="1" res="5.6887827813625336e-02" rms="3.7765520811080933e-01" purity="7.9678571224212646e-01" nType="0">
          <Node pos="l" depth="2" NCoef="0" IVar="-1" Cut="0.0000000000000000e+00" cType="1" res="-2.8685049619525671e-03" rms="4.5108732581138611e-01" purity="6.5989458560943604e-01" nType="-99"/>
          <Node pos="r" depth="2" NCoef="0" IVar="-1" Cut="0.0000000000000000e+00" cType="1" res="7.4579906649887562e-03" rms="3.4800434112548828e-01" purity="8.3508783578872681e-01" nType="-99"/>
        </Node>
      </Node>
    </BinaryTree>
    <BinaryTree type="DecisionTree" boostWeight="1.0000000000000000e+00" itree="52">
      <Node pos="s" depth="0" NCoef="0" IVar="3" Cut="7.5802177190780640e-01" cType="1" res="-6.2399704009294510e-02" rms="3.7687712907791138e-01" purity="5.0184589624404907e-01" nType="0">
        <Node pos="l" depth="1" NCoef="0" IVar="4" Cut="4.0883091092109680e-01" cType="1" res="-2.1743784844875336e-01" rms="3.0757150053977966e-01" purity="1.1671379953622818e-01" nType="0">
          <Node pos="l" depth="2" NCoef="0" IVar="-1" Cut="0.0000000000000000e+00" cType="1" res="-5.8192098513245583e-03" rms="2.7292340993881226e-01" purity="8.3996966481208801e-02" nType="-99"/>
          <Node pos="r" depth="2" NCoef="0" IVar="-1" Cut="0.0000000000000000e+00" cType="1" res="2.3931432224344462e-04" rms="4.8749476671218872e-01" purity="4.3861892819404602e-01" nType="-99"/>
        </Node>
        <Node pos="r" depth="1" NCoef="0" IVar="4" Cut="2.7326312661170959e-01" cType="1" res="5.1284741610288620e-02" rms="3.8245281577110291e-01" purity="7.8425079584121704e-01" nType="0">
          <Node pos="l" depth="2" NCoef="0" IVar="-1" Cut="0.0000000000000000e+00" cType="1" res="-3.5900454968214035e-03" rms="4.8441874980926514e-01" purity="4.8401618003845215e-01" nType="-99"/>
          <Node pos="r" depth="2" NCoef="0" IVar="-1" Cut="0.0000000000000000e+00" cType="1" res="7.2635198011994362e-03" rms="3.5703352093696594e-01" purity="8.3369272947311401e-01" nType="-99"/>
        </Node>
      </Node>
    </BinaryTree>
    <BinaryTree type="DecisionTree" boostWeight="1.0000000000000000e+00" itree="53">
      <Node pos="s" depth="0" NCoef="0" IVar="3" Cut="5.9697031974792480e-01" cType="1" res="-6.5746225416660309e-02" rms="3.8388094305992126e-01" purity="5.0359475612640381e-01" nType="0">
        <Node pos="l" depth="1" NCoef="0" IVar="3" Cut="4.0703472495079041e-01" cType="1" res="-2.4247533082962036e-01" rms="2.5897160172462463e-01" purity="7.4460417032241821e-02" nType="0">
          <Node pos="l" depth="2" NCoef="0" IVar="-1" Cut="0.0000000000000000e+00" cType="1" res="-7.0898681879043579e-03" rms="1.8962574005126953e-01" purity="3.7421543151140213e-02" nType="-99"/>
          <Node pos="r" depth="2" NCoef="0" IVar="-1" Cut="0.0000000000000000e+00" cType="1" res="-5.2560414187610149e-03" rms="3.5540047287940979e-01" purity="1.5201431512832642e-01" nType="-99"/>
        </Node>
        <Node pos="r" depth="1" NCoef="0" IVar="12" Cut="8.4507530927658081e-01" cType="1" res="1.8856292590498924e-02" rms="4.0459251403808594e-01" purity="7.0902699232101440e-01" nType="0">
          <Node pos="l" depth="2" NCoef="0" IVar="-1" Cut="0.0000000000000000e+00" cType="1" res="5.9113767929375172e-03" rms="3.7118417024612427e-01" purity="7.7633988857269287e-01" nType="-99"/>
          <Node pos="r" depth="2" NCoef="0" IVar="-1" Cut="0.0000000000000000e+00" cType="1" res="-2.5831006933003664e-03" rms="4.4054093956947327e-01" purity="6.0219967365264893e-01" nType="-99"/>
        </Node>
      </Node>
    </BinaryTree>
    <BinaryTree type="DecisionTree" boostWeight="1.0000000000000000e+00" itree="54">
      <Node pos="s" depth="0" NCoef="0" IVar="3" Cut="6.3706749677658081e-01" cType="1" res="-6.9754600524902344e-02" rms="3.8053709268569946e-01" purity="4.9559563398361206e-01" nType="0">
        <Node pos="l" depth="1" NCoef="0" IVar="3" Cut="4.5275297760963440e-01" cType="1" res="-2.3387713730335236e-01" rms="2.7020028233528137e-01" purity="8.3068862557411194e-02" nType="0">
          <Node pos="l" depth="2" NCoef="0" IVar="-1" Cut="0.0000000000000000e+00" cType="1" res="-6.5510068088769913e-03" rms="2.0701107382774353e-01" purity="4.5091688632965088e-02" nType="-99"/>
          <Node pos="r" depth="2" NCoef="0" IVar="-1" Cut="0.0000000000000000e+00" cType="1" res="-4.4800192117691040e-03" rms="3.8343963027000427e-01" purity="1.8710926175117493e-01" nType="-99"/>
        </Node>
        <Node pos="r" depth="1" NCoef="0" IVar="10" Cut="5.4072460174560547e+01" cType="1" res="2.0107090473175049e-02" rms="4.0161883831024170e-01" purity="7.2146558761596680e-01" nType="0">
          <Node pos="l" depth="2" NCoef="0" IVar="-1" Cut="0.0000000000000000e+00" cType="1" res="-2.6584684383124113e-03" rms="4.4427111744880676e-01" purity="5.8733302354812622e-01" nType="-99"/>
          <Node pos="r" depth="2" NCoef="0" IVar="-1" Cut="0.0000000000000000e+00" cType="1" res="6.7919860593974590e-03" rms="3.5532870888710022e-01" purity="8.2074946165084839e-01" nType="-99"/>
        </Node>
      </Node>
    </BinaryTree>
    <BinaryTree type="DecisionTree" boostWeight="1.0000000000000000e+00" itree="55">
      <Node pos="s" depth="0" NCoef="0" IVar="3" Cut="8.7869697809219360e-01" cType="1" res="-6.0661729425191879e-02" rms="3.7625178694725037e-01" purity="5.0498360395431519e-01" nType="0">
        <Node pos="l" depth="1" NCoef="0" IVar="4" Cut="5.3133136034011841e-01" cType="1" res="-1.9190546870231628e-01" rms="3.4091871976852417e-01" purity="1.8108762800693512e-01" nType="0">
          <Node pos="l" depth="2" NCoef="0" IVar="-1" Cut="0.0000000000000000e+00" cType="1" res="-5.6059206835925579e-03" rms="3.2063326239585876e-01" purity="1.3672144711017609e-01" nType="-99"/>
          <Node pos="r" depth="2" NCoef="0" IVar="-1" Cut="0.0000000000000000e+00" cType="1" res="3.2845973037183285e-03" rms="4.5146477222442627e-01" purity="6.8741494417190552e-01" nType="-99"/>
        </Node>
        <Node pos="r" depth="1" NCoef="0" IVar="0" Cut="1.0428786468505859e+02" cType="1" res="6.5145827829837799e-02" rms="3.6539930105209351e-01" purity="8.1546366214752197e-01" nType="0">
          <Node pos="l" depth="2" NCoef="0" IVar="-1" Cut="0.0000000000000000e+00" cType="1" res="-3.8527364376932383e-03" rms="4.5644408464431763e-01" purity="6.3741767406463623e-01" nType="-99"/>
          <Node pos="r" depth="2" NCoef="0" IVar="-1" Cut="0.0000000000000000e+00" cType="1" res="8.4741199389100075e-03" rms="3.3797773718833923e-01" purity="8.5017240047454834e-01" nType="-99"/>
        </Node>
      </Node>
    </BinaryTree>
    <BinaryTree type="DecisionTree" boostWeight="1.0000000000000000e+00" itree="56">
      <Node pos="s" depth="0" NCoef="0" IVar="3" Cut="7.1761065721511841e-01" cType="1" res="-6.3257060945034027e-02" rms="3.7539023160934448e-01" purity="4.9973449110984802e-01" nType="0">
        <Node pos="l" depth="1" NCoef="0" IVar="3" Cut="5.0262743234634399e-01" cType="1" res="-2.1665957570075989e-01" rms="2.9356643557548523e-01" purity="1.0286667197942734e-01" nType="0">
          <Node pos="l" depth="2" NCoef="0" IVar="-1" Cut="0.0000000000000000e+00" cType="1" res="-6.2917829491198063e-03" rms="2.2181320190429688e-01" purity="5.2419360727071762e-02" nType="-99"/>
          <Node pos="r" depth="2" NCoef="0" IVar="-1" Cut="0.0000000000000000e+00" cType="1" res="-3.7387462798506021e-03" rms="4.1431164741516113e-01" purity="2.3564627766609192e-01" nType="-99"/>
        </Node>
        <Node pos="r" depth="1" NCoef="0" IVar="10" Cut="5.8398769378662109e+01" cType="1" res="4.0450636297464371e-02" rms="3.8891920447349548e-01" purity="7.6803684234619141e-01" nType="0">
          <Node pos="l" depth="2" NCoef="0" IVar="-1" Cut="0.0000000000000000e+00" cType="1" res="-1.1180735891684890e-03" rms="4.3698027729988098e-01" purity="6.6491091251373291e-01" nType="-99"/>
          <Node pos="r" depth="2" NCoef="0" IVar="-1" Cut="0.0000000000000000e+00" cType="1" res="1.0902552865445614e-02" rms="3.2991427183151245e-01" purity="8.6112135648727417e-01" nType="-99"/>
        </Node>
      </Node>
    </BinaryTree>
    <BinaryTree type="DecisionTree" boostWeight="1.0000000000000000e+00" itree="57">
      <Node pos="s" depth="0" NCoef="0" IVar="3" Cut="8.3840215206146240e-01" cType="1" res="-5.9818617999553680e-02" rms="3.7405279278755188e-01" purity="5.0526690483093262e-01" nType="0">
        <Node pos="l" depth="1" NCoef="0" IVar="4" Cut="3.7915039062500000e-01" cType="1" res="-1.9390197098255157e-01" rms="3.3090421557426453e-01" purity="1.5689261257648468e-01" nType="0">
          <Node pos="l" depth="2" NCoef="0" IVar="-1" Cut="0.0000000000000000e+00" cType="1" res="-5.9558018110692501e-03" rms="2.8587925434112549e-01" purity="9.7162745893001556e-02" nType="-99"/>
          <Node pos="r" depth="2" NCoef="0" IVar="-1" Cut="0.0000000000000000e+00" cType="1" res="-1.1066935257986188e-03" rms="4.7405618429183960e-01" purity="4.7027045488357544e-01" nType="-99"/>
        </Node>
        <Node pos="r" depth="1" NCoef="0" IVar="0" Cut="1.0142849731445312e+02" cType="1" res="5.6847304105758667e-02" rms="3.7030825018882751e-01" purity="8.0838733911514282e-01" nType="0">
          <Node pos="l" depth="2" NCoef="0" IVar="-1" Cut="0.0000000000000000e+00" cType="1" res="-4.2905961163341999e-03" rms="4.6202555298805237e-01" purity="6.3282990455627441e-01" nType="-99"/>
          <Node pos="r" depth="2" NCoef="0" IVar="-1" Cut="0.0000000000000000e+00" cType="1" res="7.1191368624567986e-03" rms="3.5058909654617310e-01" purity="8.3396226167678833e-01" nType="-99"/>
        </Node>
      </Node>
    </BinaryTree>
    <BinaryTree type="DecisionTree" boostWeight="1.0000000000000000e+00" itree="58">
      <Node pos="s" depth="0" NCoef="0" IVar="3" Cut="8.7876671552658081e-01" cType="1" res="-6.5710075199604034e-02" rms="3.7606880068778992e-01" purity="4.9977126717567444e-01" nType="0">
        <Node pos="l" depth="1" NCoef="0" IVar="4" Cut="3.2466053962707520e-01" cType="1" res="-1.8785576522350311e-01" rms="3.4116247296333313e-01" purity="1.8040962517261505e-01" nType="0">
          <Node pos="l" depth="2" NCoef="0" IVar="-1" Cut="0.0000000000000000e+00" cType="1" res="-5.9893145225942135e-03" rms="2.7913501858711243e-01" purity="9.2718511819839478e-02" nType="-99"/>
          <Node pos="r" depth="2" NCoef="0" IVar="-1" Cut="0.0000000000000000e+00" cType="1" res="-2.7002750430256128e-03" rms="4.5487961173057556e-01" purity="4.2891094088554382e-01" nType="-99"/>
        </Node>
        <Node pos="r" depth="1" NCoef="0" IVar="0" Cut="9.8571250915527344e+01" cType="1" res="5.1780551671981812e-02" rms="3.7061372399330139e-01" purity="8.0696183443069458e-01" nType="0">
          <Node pos="l" depth="2" NCoef="0" IVar="-1" Cut="0.0000000000000000e+00" cType="1" res="-6.0483580455183983e-03" rms="4.8012498021125793e-01" purity="5.7038426399230957e-01" nType="-99"/>
          <Node pos="r" depth="2" NCoef="0" IVar="-1" Cut="0.0000000000000000e+00" cType="1" res="5.9268623590469360e-03" rms="3.5424959659576416e-01" purity="8.2839977741241455e-01" nType="-99"/>
        </Node>
      </Node>
    </BinaryTree>
    <BinaryTree type="DecisionTree" boostWeight="1.0000000000000000e+00" itree="59">
      <Node pos="s" depth="0" NCoef="0" IVar="3" Cut="8.3840215206146240e-01" cType="1" res="-6.3810288906097412e-02" rms="3.7013390660285950e-01" purity="4.9690878391265869e-01" nType="0">
        <Node pos="l" depth="1" NCoef="0" IVar="4" Cut="4.1156879067420959e-01" cType="1" res="-1.9478234648704529e-01" rms="3.2320082187652588e-01" purity="1.4953476190567017e-01" nType="0">
          <Node pos="l" depth="2" NCoef="0" IVar="-1" Cut="0.0000000000000000e+00" cType="1" res="-5.6996629573404789e-03" rms="2.8420469164848328e-01" purity="9.5554687082767487e-02" nType="-99"/>
          <Node pos="r" depth="2" NCoef="0" IVar="-1" Cut="0.0000000000000000e+00" cType="1" res="-3.1387724447995424e-04" rms="4.7415855526924133e-01" purity="5.1540905237197876e-01" nType="-99"/>
        </Node>
        <Node pos="r" depth="1" NCoef="0" IVar="0" Cut="9.8575462341308594e+01" cType="1" res="5.4912328720092773e-02" rms="3.6993461847305298e-01" purity="8.1179392337799072e-01" nType="0">
          <Node pos="l" depth="2" NCoef="0" IVar="-1" Cut="0.0000000000000000e+00" cType="1" res="-6.7827361635863781e-03" rms="4.7696760296821594e-01" purity="5.7954847812652588e-01" nType="-99"/>
          <Node pos="r" depth="2" NCoef="0" IVar="-1" Cut="0.0000000000000000e+00" cType="1" res="6.7036547698080540e-03" rms="3.5279607772827148e-01" purity="8.3455717563629150e-01" nType="-99"/>
        </Node>
      </Node>
    </BinaryTree>
    <BinaryTree type="DecisionTree" boostWeight="1.0000000000000000e+00" itree="60">
      <Node pos="s" depth="0" NCoef="0" IVar="3" Cut="8.3851844072341919e-01" cType="1" res="-6.1364512890577316e-02" rms="3.7337499856948853e-01" purity="5.0485175848007202e-01" nType="0">
        <Node pos="l" depth="1" NCoef="0" IVar="4" Cut="5.0933545827865601e-01" cType="1" res="-1.8932107090950012e-01" rms="3.3005973696708679e-01" purity="1.5613326430320740e-01" nType="0">
          <Node pos="l" depth="2" NCoef="0" IVar="-1" Cut="0.0000000000000000e+00" cType="1" res="-5.5810273624956608e-03" rms="3.0891397595405579e-01" purity="1.1820659786462784e-01" nType="-99"/>
          <Node pos="r" depth="2" NCoef="0" IVar="-1" Cut="0.0000000000000000e+00" cType="1" res="1.6954273451119661e-03" rms="4.6371200680732727e-01" purity="6.1041474342346191e-01" nType="-99"/>
        </Node>
        <Node pos="r" depth="1" NCoef="0" IVar="12" Cut="1.2474771738052368e+00" cType="1" res="4.9191091209650040e-02" rms="3.7331748008728027e-01" purity="8.0614769458770752e-01" nType="0">
          <Node pos="l" depth="2" NCoef="0" IVar="-1" Cut="0.0000000000000000e+00" cType="1" res="7.0955185219645500e-03" rms="3.5345524549484253e-01" purity="8.3500599861145020e-01" nType="-99"/>
          <Node pos="r" depth="2" NCoef="0" IVar="-1" Cut="0.0000000000000000e+00" cType="1" res="-2.9803304933011532e-03" rms="4.5934507250785828e-01" purity="6.2245196104049683e-01" nType="-99"/>
        </Node>
      </Node>
    </BinaryTree>
    <BinaryTree type="DecisionTree" boostWeight="1.0000000000000000e+00" itree="61">
      <Node pos="s" depth="0" NCoef="0" IVar="3" Cut="6.7729258537292480e-01" cType="1" res="-6.4838483929634094e-02" rms="3.7553495168685913e-01" purity="5.0331109762191772e-01" nType="0">
        <Node pos="l" depth="1" NCoef="0" IVar="3" Cut="4.5286342501640320e-01" cType="1" res="-2.0801888406276703e-01" rms="2.8814804553985596e-01" purity="9.6876628696918488e-02" nType="0">
          <Node pos="l" depth="2" NCoef="0" IVar="-1" Cut="0.0000000000000000e+00" cType="1" res="-6.1432323418557644e-03" rms="2.1384233236312866e-01" purity="4.8371002078056335e-02" nType="-99"/>
          <Node pos="r" depth="2" NCoef="0" IVar="-1" Cut="0.0000000000000000e+00" cType="1" res="-3.9686635136604309e-03" rms="3.8857769966125488e-01" purity="1.9433657824993134e-01" nType="-99"/>
        </Node>
