<?xml version="1.0"?>
<MethodSetup Method="BDT::BDT">
  <GeneralInfo>
    <Info name="TMVA Release" value="4.2.1 [262657]"/>
    <Info name="ROOT Release" value="6.10/09 [395785]"/>
    <Info name="Creator" value="lmastrol"/>
    <Info name="Date" value="Thu May 31 15:22:49 2018"/>
    <Info name="Host" value="Linux cmsbuild09.cern.ch 2.6.32-696.18.7.el6.x86_64 #1 SMP Thu Jan 4 13:27:39 CET 2018 x86_64 x86_64 x86_64 GNU/Linux"/>
    <Info name="Dir" value="/afs/desy.de/user/l/lmastrol/Work/May18/dnn/20_05/CMSSW_10_1_0/src/AnalysisTools/scripts"/>
    <Info name="Training events" value="67877"/>
    <Info name="TrainingTime" value="2.43464069e+01"/>
    <Info name="AnalysisType" value="Classification"/>
  </GeneralInfo>
  <Options>
    <Option name="V" modified="Yes">False</Option>
    <Option name="VerbosityLevel" modified="No">Default</Option>
    <Option name="VarTransform" modified="No">None</Option>
    <Option name="H" modified="Yes">False</Option>
    <Option name="CreateMVAPdfs" modified="No">False</Option>
    <Option name="IgnoreNegWeightsInTraining" modified="No">False</Option>
    <Option name="NTrees" modified="Yes">400</Option>
    <Option name="MaxDepth" modified="Yes">5</Option>
    <Option name="MinNodeSize" modified="Yes">0.05</Option>
    <Option name="nCuts" modified="No">20</Option>
    <Option name="BoostType" modified="Yes">AdaBoost</Option>
    <Option name="AdaBoostR2Loss" modified="No">quadratic</Option>
    <Option name="UseBaggedBoost" modified="No">False</Option>
    <Option name="Shrinkage" modified="No">1.000000e+00</Option>
    <Option name="AdaBoostBeta" modified="Yes">1.000000e-01</Option>
    <Option name="UseRandomisedTrees" modified="No">False</Option>
    <Option name="UseNvars" modified="No">4</Option>
    <Option name="UsePoissonNvars" modified="No">True</Option>
    <Option name="BaggedSampleFraction" modified="No">6.000000e-01</Option>
    <Option name="UseYesNoLeaf" modified="No">True</Option>
    <Option name="NegWeightTreatment" modified="No">inverseboostnegweights</Option>
    <Option name="Css" modified="No">1.000000e+00</Option>
    <Option name="Cts_sb" modified="No">1.000000e+00</Option>
    <Option name="Ctb_ss" modified="No">1.000000e+00</Option>
    <Option name="Cbb" modified="No">1.000000e+00</Option>
    <Option name="NodePurityLimit" modified="No">5.000000e-01</Option>
    <Option name="SeparationType" modified="Yes">giniindex</Option>
    <Option name="RegressionLossFunctionBDTG" modified="No">huber</Option>
    <Option name="HuberQuantile" modified="No">7.000000e-01</Option>
    <Option name="DoBoostMonitor" modified="No">False</Option>
    <Option name="UseFisherCuts" modified="No">False</Option>
    <Option name="MinLinCorrForFisher" modified="No">8.000000e-01</Option>
    <Option name="UseExclusiveVars" modified="No">False</Option>
    <Option name="DoPreselection" modified="No">False</Option>
    <Option name="SigToBkgFraction" modified="No">1.000000e+00</Option>
    <Option name="PruneMethod" modified="Yes">nopruning</Option>
    <Option name="PruneStrength" modified="No">0.000000e+00</Option>
    <Option name="PruningValFraction" modified="No">5.000000e-01</Option>
    <Option name="SkipNormalization" modified="No">False</Option>
    <Option name="nEventsMin" modified="No">0</Option>
    <Option name="UseBaggedGrad" modified="No">False</Option>
    <Option name="GradBaggingFraction" modified="No">6.000000e-01</Option>
    <Option name="UseNTrainEvents" modified="No">0</Option>
    <Option name="NNodesMax" modified="No">0</Option>
  </Options>
  <Variables NVar="16">
    <Variable VarIndex="0" Expression="H_mass_fit_fallback" Label="H_mass_fit_fallback" Title="H_mass_fit_fallback" Unit="" Internal="H_mass_fit_fallback" Type="F" Min="9.00005569e+01" Max="1.49996841e+02"/>
    <Variable VarIndex="1" Expression="H_pt_fit_fallback" Label="H_pt_fit_fallback" Title="H_pt_fit_fallback" Unit="" Internal="H_pt_fit_fallback" Type="F" Min="8.21817875e-01" Max="1.85395325e+03"/>
    <Variable VarIndex="2" Expression="bdtInput_CMS_vhbb_BDT_Zll_HighPT_13TeV_V_pt" Label="bdtInput_CMS_vhbb_BDT_Zll_HighPT_13TeV_V_pt" Title="bdtInput_CMS_vhbb_BDT_Zll_HighPT_13TeV_V_pt" Unit="" Internal="bdtInput_CMS_vhbb_BDT_Zll_HighPT_13TeV_V_pt" Type="F" Min="1.50001450e+02" Max="1.18168530e+03"/>
    <Variable VarIndex="3" Expression="bdtInput_CMS_vhbb_BDT_Zll_HighPT_13TeV_hJets_btagged_1" Label="bdtInput_CMS_vhbb_BDT_Zll_HighPT_13TeV_hJets_btagged_1" Title="bdtInput_CMS_vhbb_BDT_Zll_HighPT_13TeV_hJets_btagged_1" Unit="" Internal="bdtInput_CMS_vhbb_BDT_Zll_HighPT_13TeV_hJets_btagged_1" Type="F" Min="1.52221680e-01" Max="9.99511719e-01"/>
    <Variable VarIndex="4" Expression="bdtInput_CMS_vhbb_BDT_Zll_HighPT_13TeV_hJets_btagged_0" Label="bdtInput_CMS_vhbb_BDT_Zll_HighPT_13TeV_hJets_btagged_0" Title="bdtInput_CMS_vhbb_BDT_Zll_HighPT_13TeV_hJets_btagged_0" Unit="" Internal="bdtInput_CMS_vhbb_BDT_Zll_HighPT_13TeV_hJets_btagged_0" Type="F" Min="1.55273438e-01" Max="9.99511719e-01"/>
    <Variable VarIndex="5" Expression="bdtInput_CMS_vhbb_BDT_Zll_HighPT_13TeV_nAddJets_2lep" Label="bdtInput_CMS_vhbb_BDT_Zll_HighPT_13TeV_nAddJets_2lep" Title="bdtInput_CMS_vhbb_BDT_Zll_HighPT_13TeV_nAddJets_2lep" Unit="" Internal="bdtInput_CMS_vhbb_BDT_Zll_HighPT_13TeV_nAddJets_2lep" Type="F" Min="0.00000000e+00" Max="8.00000000e+00"/>
    <Variable VarIndex="6" Expression="bdtInput_CMS_vhbb_BDT_Zll_HighPT_13TeV_SA5" Label="bdtInput_CMS_vhbb_BDT_Zll_HighPT_13TeV_SA5" Title="bdtInput_CMS_vhbb_BDT_Zll_HighPT_13TeV_SA5" Unit="" Internal="bdtInput_CMS_vhbb_BDT_Zll_HighPT_13TeV_SA5" Type="I" Min="-1.00000000e+00" Max="1.80000000e+01"/>
    <Variable VarIndex="7" Expression="bdtInput_CMS_vhbb_BDT_Zll_HighPT_13TeV_V_mass" Label="bdtInput_CMS_vhbb_BDT_Zll_HighPT_13TeV_V_mass" Title="bdtInput_CMS_vhbb_BDT_Zll_HighPT_13TeV_V_mass" Unit="" Internal="bdtInput_CMS_vhbb_BDT_Zll_HighPT_13TeV_V_mass" Type="F" Min="7.50081253e+01" Max="1.04998322e+02"/>
    <Variable VarIndex="8" Expression="MET_Pt" Label="MET_Pt" Title="MET_Pt" Unit="" Internal="MET_Pt" Type="F" Min="7.24480078e-02" Max="9.92147705e+02"/>
    <Variable VarIndex="9" Expression="bdtInput_CMS_vhbb_BDT_Zll_HighPT_13TeV_hJets_pt_0" Label="bdtInput_CMS_vhbb_BDT_Zll_HighPT_13TeV_hJets_pt_0" Title="bdtInput_CMS_vhbb_BDT_Zll_HighPT_13TeV_hJets_pt_0" Unit="" Internal="bdtInput_CMS_vhbb_BDT_Zll_HighPT_13TeV_hJets_pt_0" Type="F" Min="2.00004978e+01" Max="1.59855823e+03"/>
    <Variable VarIndex="10" Expression="bdtInput_CMS_vhbb_BDT_Zll_HighPT_13TeV_hJets_pt_1" Label="bdtInput_CMS_vhbb_BDT_Zll_HighPT_13TeV_hJets_pt_1" Title="bdtInput_CMS_vhbb_BDT_Zll_HighPT_13TeV_hJets_pt_1" Unit="" Internal="bdtInput_CMS_vhbb_BDT_Zll_HighPT_13TeV_hJets_pt_1" Type="F" Min="2.00042953e+01" Max="1.82426550e+03"/>
    <Variable VarIndex="11" Expression="jjVPtRatio_fit_fallback" Label="jjVPtRatio_fit_fallback" Title="jjVPtRatio_fit_fallback" Unit="" Internal="jjVPtRatio_fit_fallback" Type="F" Min="1.88116159e-03" Max="1.10211697e+01"/>
    <Variable VarIndex="12" Expression="bdtInput_CMS_vhbb_BDT_Zll_HighPT_13TeV_HJ1_HJ2_dEta" Label="bdtInput_CMS_vhbb_BDT_Zll_HighPT_13TeV_HJ1_HJ2_dEta" Title="bdtInput_CMS_vhbb_BDT_Zll_HighPT_13TeV_HJ1_HJ2_dEta" Unit="" Internal="bdtInput_CMS_vhbb_BDT_Zll_HighPT_13TeV_HJ1_HJ2_dEta" Type="F" Min="0.00000000e+00" Max="4.44663525e+00"/>
    <Variable VarIndex="13" Expression="HVdPhi_fit_fallback" Label="HVdPhi_fit_fallback" Title="HVdPhi_fit_fallback" Unit="" Internal="HVdPhi_fit_fallback" Type="F" Min="1.42031605e-03" Max="3.14159179e+00"/>
    <Variable VarIndex="14" Expression="n_recoil_jets_fit" Label="n_recoil_jets_fit" Title="n_recoil_jets_fit" Unit="" Internal="n_recoil_jets_fit" Type="F" Min="-1.00000000e+00" Max="1.20000000e+01"/>
    <Variable VarIndex="15" Expression="H_mass_sigma_fit" Label="H_mass_sigma_fit" Title="H_mass_sigma_fit" Unit="" Internal="H_mass_sigma_fit" Type="F" Min="-1.00000000e+00" Max="7.33156677e+02"/>
  </Variables>
  <Spectators NSpec="0"/>
  <Classes NClass="2">
    <Class Name="Signal" Index="0"/>
    <Class Name="Background" Index="1"/>
  </Classes>
  <Transformations NTransformations="0"/>
  <MVAPdfs/>
  <Weights NTrees="400" AnalysisType="0">
    <BinaryTree type="DecisionTree" boostWeight="1.2057668912519895e-01" itree="0">
      <Node pos="s" depth="0" NCoef="0" IVar="4" Cut="6.3769531250000000e-01" cType="0" res="-9.9000000000000000e+01" rms="0.0000000000000000e+00" purity="5.0000000000000000e-01" nType="0">
        <Node pos="l" depth="1" NCoef="0" IVar="11" Cut="9.0227705240249634e-01" cType="0" res="-9.9000000000000000e+01" rms="0.0000000000000000e+00" purity="6.6412037611007690e-01" nType="0">
          <Node pos="l" depth="2" NCoef="0" IVar="0" Cut="1.0714176177978516e+02" cType="0" res="-9.9000000000000000e+01" rms="0.0000000000000000e+00" purity="7.4129462242126465e-01" nType="0">
            <Node pos="l" depth="3" NCoef="0" IVar="12" Cut="1.5018429756164551e+00" cType="1" res="-9.9000000000000000e+01" rms="0.0000000000000000e+00" purity="7.8810513019561768e-01" nType="0">
              <Node pos="l" depth="4" NCoef="0" IVar="-1" Cut="1.3366984558105469e+02" cType="1" res="-9.9000000000000000e+01" rms="0.0000000000000000e+00" purity="8.0958116054534912e-01" nType="1"/>
              <Node pos="r" depth="4" NCoef="0" IVar="12" Cut="1.5972958803176880e+00" cType="1" res="-9.9000000000000000e+01" rms="0.0000000000000000e+00" purity="3.3873835206031799e-01" nType="0">
                <Node pos="l" depth="5" NCoef="0" IVar="-1" Cut="0.0000000000000000e+00" cType="1" res="-9.9000000000000000e+01" rms="0.0000000000000000e+00" purity="5.0358533859252930e-01" nType="1"/>
                <Node pos="r" depth="5" NCoef="0" IVar="-1" Cut="0.0000000000000000e+00" cType="1" res="-9.9000000000000000e+01" rms="0.0000000000000000e+00" purity="2.5381818413734436e-01" nType="-1"/>
              </Node>
            </Node>
            <Node pos="r" depth="3" NCoef="0" IVar="0" Cut="9.8162376403808594e+01" cType="0" res="-9.9000000000000000e+01" rms="0.0000000000000000e+00" purity="5.4899287223815918e-01" nType="0">
              <Node pos="l" depth="4" NCoef="0" IVar="12" Cut="9.6637833118438721e-01" cType="1" res="-9.9000000000000000e+01" rms="0.0000000000000000e+00" purity="6.1410856246948242e-01" nType="0">
                <Node pos="l" depth="5" NCoef="0" IVar="-1" Cut="0.0000000000000000e+00" cType="1" res="-9.9000000000000000e+01" rms="0.0000000000000000e+00" purity="6.7647212743759155e-01" nType="1"/>
                <Node pos="r" depth="5" NCoef="0" IVar="-1" Cut="0.0000000000000000e+00" cType="1" res="-9.9000000000000000e+01" rms="0.0000000000000000e+00" purity="4.2713502049446106e-01" nType="-1"/>
              </Node>
              <Node pos="r" depth="4" NCoef="0" IVar="-1" Cut="3.1361606717109680e-01" cType="0" res="-9.9000000000000000e+01" rms="0.0000000000000000e+00" purity="4.3684273958206177e-01" nType="-1"/>
            </Node>
          </Node>
          <Node pos="r" depth="2" NCoef="0" IVar="12" Cut="1.0588157176971436e+00" cType="1" res="-9.9000000000000000e+01" rms="0.0000000000000000e+00" purity="4.8062947392463684e-01" nType="0">
            <Node pos="l" depth="3" NCoef="0" IVar="11" Cut="7.3381298780441284e-01" cType="0" res="-9.9000000000000000e+01" rms="0.0000000000000000e+00" purity="5.7547765970230103e-01" nType="0">
              <Node pos="l" depth="4" NCoef="0" IVar="-1" Cut="5.9615653753280640e-01" cType="0" res="-9.9000000000000000e+01" rms="0.0000000000000000e+00" purity="6.5343242883682251e-01" nType="1"/>
              <Node pos="r" depth="4" NCoef="0" IVar="4" Cut="8.6167687177658081e-01" cType="0" res="-9.9000000000000000e+01" rms="0.0000000000000000e+00" purity="4.5358031988143921e-01" nType="0">
                <Node pos="l" depth="5" NCoef="0" IVar="-1" Cut="0.0000000000000000e+00" cType="1" res="-9.9000000000000000e+01" rms="0.0000000000000000e+00" purity="5.0301975011825562e-01" nType="1"/>
                <Node pos="r" depth="5" NCoef="0" IVar="-1" Cut="0.0000000000000000e+00" cType="1" res="-9.9000000000000000e+01" rms="0.0000000000000000e+00" purity="2.9760277271270752e-01" nType="-1"/>
              </Node>
            </Node>
            <Node pos="r" depth="3" NCoef="0" IVar="12" Cut="1.5428088903427124e+00" cType="1" res="-9.9000000000000000e+01" rms="0.0000000000000000e+00" purity="3.2387667894363403e-01" nType="0">
              <Node pos="l" depth="4" NCoef="0" IVar="3" Cut="4.3448892235755920e-01" cType="0" res="-9.9000000000000000e+01" rms="0.0000000000000000e+00" purity="4.0020969510078430e-01" nType="0">
                <Node pos="l" depth="5" NCoef="0" IVar="-1" Cut="0.0000000000000000e+00" cType="1" res="-9.9000000000000000e+01" rms="0.0000000000000000e+00" purity="5.0852841138839722e-01" nType="1"/>
                <Node pos="r" depth="5" NCoef="0" IVar="-1" Cut="0.0000000000000000e+00" cType="1" res="-9.9000000000000000e+01" rms="0.0000000000000000e+00" purity="2.5732097029685974e-01" nType="-1"/>
              </Node>
              <Node pos="r" depth="4" NCoef="0" IVar="-1" Cut="2.0963444709777832e+00" cType="1" res="-9.9000000000000000e+01" rms="0.0000000000000000e+00" purity="2.1238695085048676e-01" nType="-1"/>
            </Node>
          </Node>
        </Node>
        <Node pos="r" depth="1" NCoef="0" IVar="3" Cut="3.1274414062500000e-01" cType="0" res="-9.9000000000000000e+01" rms="0.0000000000000000e+00" purity="1.5810136497020721e-01" nType="0">
          <Node pos="l" depth="2" NCoef="0" IVar="12" Cut="9.7609865665435791e-01" cType="1" res="-9.9000000000000000e+01" rms="0.0000000000000000e+00" purity="3.5136803984642029e-01" nType="0">
            <Node pos="l" depth="3" NCoef="0" IVar="5" Cut="3.8095238804817200e-01" cType="1" res="-9.9000000000000000e+01" rms="0.0000000000000000e+00" purity="4.5485207438468933e-01" nType="0">
              <Node pos="l" depth="4" NCoef="0" IVar="4" Cut="4.9888393282890320e-01" cType="0" res="-9.9000000000000000e+01" rms="0.0000000000000000e+00" purity="5.6243681907653809e-01" nType="0">
                <Node pos="l" depth="5" NCoef="0" IVar="-1" Cut="0.0000000000000000e+00" cType="1" res="-9.9000000000000000e+01" rms="0.0000000000000000e+00" purity="6.6450268030166626e-01" nType="1"/>
                <Node pos="r" depth="5" NCoef="0" IVar="-1" Cut="0.0000000000000000e+00" cType="1" res="-9.9000000000000000e+01" rms="0.0000000000000000e+00" purity="4.1433507204055786e-01" nType="-1"/>
              </Node>
              <Node pos="r" depth="4" NCoef="0" IVar="-1" Cut="2.3431864929199219e+02" cType="0" res="-9.9000000000000000e+01" rms="0.0000000000000000e+00" purity="3.2858490943908691e-01" nType="-1"/>
            </Node>
            <Node pos="r" depth="3" NCoef="0" IVar="-1" Cut="9.1315442323684692e-01" cType="0" res="-9.9000000000000000e+01" rms="0.0000000000000000e+00" purity="2.0468775928020477e-01" nType="-1"/>
          </Node>
          <Node pos="r" depth="2" NCoef="0" IVar="-1" Cut="3.6181640625000000e-01" cType="0" res="-9.9000000000000000e+01" rms="0.0000000000000000e+00" purity="1.1131808161735535e-01" nType="-1"/>
        </Node>
      </Node>
    </BinaryTree>
    <BinaryTree type="DecisionTree" boostWeight="1.1085702880731987e-01" itree="1">
      <Node pos="s" depth="0" NCoef="0" IVar="4" Cut="6.3769531250000000e-01" cType="0" res="-9.9000000000000000e+01" rms="0.0000000000000000e+00" purity="4.9612811207771301e-01" nType="0">
        <Node pos="l" depth="1" NCoef="0" IVar="11" Cut="9.0227705240249634e-01" cType="0" res="-9.9000000000000000e+01" rms="0.0000000000000000e+00" purity="6.4906024932861328e-01" nType="0">
          <Node pos="l" depth="2" NCoef="0" IVar="0" Cut="1.0714176177978516e+02" cType="0" res="-9.9000000000000000e+01" rms="0.0000000000000000e+00" purity="7.2615802288055420e-01" nType="0">
            <Node pos="l" depth="3" NCoef="0" IVar="12" Cut="1.0012661218643188e+00" cType="1" res="-9.9000000000000000e+01" rms="0.0000000000000000e+00" purity="7.6963150501251221e-01" nType="0">
              <Node pos="l" depth="4" NCoef="0" IVar="-1" Cut="1.3366831970214844e+02" cType="1" res="-9.9000000000000000e+01" rms="0.0000000000000000e+00" purity="8.2770895957946777e-01" nType="1"/>
              <Node pos="r" depth="4" NCoef="0" IVar="12" Cut="1.5971992015838623e+00" cType="1" res="-9.9000000000000000e+01" rms="0.0000000000000000e+00" purity="6.1344379186630249e-01" nType="0">
                <Node pos="l" depth="5" NCoef="0" IVar="-1" Cut="0.0000000000000000e+00" cType="1" res="-9.9000000000000000e+01" rms="0.0000000000000000e+00" purity="6.5572673082351685e-01" nType="1"/>
                <Node pos="r" depth="5" NCoef="0" IVar="-1" Cut="0.0000000000000000e+00" cType="1" res="-9.9000000000000000e+01" rms="0.0000000000000000e+00" purity="2.7805405855178833e-01" nType="-1"/>
              </Node>
            </Node>
            <Node pos="r" depth="3" NCoef="0" IVar="3" Cut="5.5546063184738159e-01" cType="0" res="-9.9000000000000000e+01" rms="0.0000000000000000e+00" purity="5.5178254842758179e-01" nType="0">
              <Node pos="l" depth="4" NCoef="0" IVar="-1" Cut="2.1514294433593750e+02" cType="0" res="-9.9000000000000000e+01" rms="0.0000000000000000e+00" purity="6.3666301965713501e-01" nType="1"/>
              <Node pos="r" depth="4" NCoef="0" IVar="12" Cut="7.1759903430938721e-01" cType="1" res="-9.9000000000000000e+01" rms="0.0000000000000000e+00" purity="4.6611875295639038e-01" nType="0">
                <Node pos="l" depth="5" NCoef="0" IVar="-1" Cut="0.0000000000000000e+00" cType="1" res="-9.9000000000000000e+01" rms="0.0000000000000000e+00" purity="5.2934837341308594e-01" nType="1"/>
                <Node pos="r" depth="5" NCoef="0" IVar="-1" Cut="0.0000000000000000e+00" cType="1" res="-9.9000000000000000e+01" rms="0.0000000000000000e+00" purity="3.8286960124969482e-01" nType="-1"/>
              </Node>
            </Node>
          </Node>
          <Node pos="r" depth="2" NCoef="0" IVar="12" Cut="1.0588157176971436e+00" cType="1" res="-9.9000000000000000e+01" rms="0.0000000000000000e+00" purity="4.6858316659927368e-01" nType="0">
            <Node pos="l" depth="3" NCoef="0" IVar="1" Cut="1.1476769256591797e+02" cType="0" res="-9.9000000000000000e+01" rms="0.0000000000000000e+00" purity="5.5172324180603027e-01" nType="0">
              <Node pos="l" depth="4" NCoef="0" IVar="-1" Cut="5.9604024887084961e-01" cType="0" res="-9.9000000000000000e+01" rms="0.0000000000000000e+00" purity="5.9988290071487427e-01" nType="1"/>
              <Node pos="r" depth="4" NCoef="0" IVar="-1" Cut="9.1336494684219360e-01" cType="0" res="-9.9000000000000000e+01" rms="0.0000000000000000e+00" purity="3.7652522325515747e-01" nType="-1"/>
            </Node>
            <Node pos="r" depth="3" NCoef="0" IVar="-1" Cut="1.5428088903427124e+00" cType="1" res="-9.9000000000000000e+01" rms="0.0000000000000000e+00" purity="3.3003741502761841e-01" nType="-1"/>
          </Node>
        </Node>
        <Node pos="r" depth="1" NCoef="0" IVar="3" Cut="3.1274414062500000e-01" cType="0" res="-9.9000000000000000e+01" rms="0.0000000000000000e+00" purity="1.7273430526256561e-01" nType="0">
          <Node pos="l" depth="2" NCoef="0" IVar="12" Cut="1.3664892911911011e+00" cType="1" res="-9.9000000000000000e+01" rms="0.0000000000000000e+00" purity="3.6750006675720215e-01" nType="0">
            <Node pos="l" depth="3" NCoef="0" IVar="6" Cut="3.0000000000000000e+00" cType="1" res="-9.9000000000000000e+01" rms="0.0000000000000000e+00" purity="4.2813241481781006e-01" nType="0">
              <Node pos="l" depth="4" NCoef="0" IVar="0" Cut="9.8589370727539062e+01" cType="0" res="-9.9000000000000000e+01" rms="0.0000000000000000e+00" purity="5.1251882314682007e-01" nType="0">
                <Node pos="l" depth="5" NCoef="0" IVar="-1" Cut="0.0000000000000000e+00" cType="1" res="-9.9000000000000000e+01" rms="0.0000000000000000e+00" purity="5.5521517992019653e-01" nType="1"/>
                <Node pos="r" depth="5" NCoef="0" IVar="-1" Cut="0.0000000000000000e+00" cType="1" res="-9.9000000000000000e+01" rms="0.0000000000000000e+00" purity="2.5104048848152161e-01" nType="-1"/>
              </Node>
              <Node pos="r" depth="4" NCoef="0" IVar="-1" Cut="5.6012833118438721e-01" cType="0" res="-9.9000000000000000e+01" rms="0.0000000000000000e+00" purity="2.9029324650764465e-01" nType="-1"/>
            </Node>
            <Node pos="r" depth="3" NCoef="0" IVar="-1" Cut="3.8095238804817200e-01" cType="1" res="-9.9000000000000000e+01" rms="0.0000000000000000e+00" purity="1.2167076021432877e-01" nType="-1"/>
          </Node>
          <Node pos="r" depth="2" NCoef="0" IVar="-1" Cut="3.6181640625000000e-01" cType="0" res="-9.9000000000000000e+01" rms="0.0000000000000000e+00" purity="1.2451176345348358e-01" nType="-1"/>
        </Node>
      </Node>
    </BinaryTree>
    <BinaryTree type="DecisionTree" boostWeight="1.0527496753262598e-01" itree="2">
      <Node pos="s" depth="0" NCoef="0" IVar="4" Cut="6.3769531250000000e-01" cType="0" res="-9.9000000000000000e+01" rms="0.0000000000000000e+00" purity="4.9210670590400696e-01" nType="0">
        <Node pos="l" depth="1" NCoef="0" IVar="11" Cut="9.0227705240249634e-01" cType="0" res="-9.9000000000000000e+01" rms="0.0000000000000000e+00" purity="6.3562655448913574e-01" nType="0">
          <Node pos="l" depth="2" NCoef="0" IVar="0" Cut="1.0714176177978516e+02" cType="0" res="-9.9000000000000000e+01" rms="0.0000000000000000e+00" purity="7.0788252353668213e-01" nType="0">
            <Node pos="l" depth="3" NCoef="0" IVar="0" Cut="1.3366984558105469e+02" cType="1" res="-9.9000000000000000e+01" rms="0.0000000000000000e+00" purity="7.5149941444396973e-01" nType="0">
              <Node pos="l" depth="4" NCoef="0" IVar="-1" Cut="1.0012661218643188e+00" cType="1" res="-9.9000000000000000e+01" rms="0.0000000000000000e+00" purity="7.9743981361389160e-01" nType="1"/>
              <Node pos="r" depth="4" NCoef="0" IVar="0" Cut="1.4222569274902344e+02" cType="1" res="-9.9000000000000000e+01" rms="0.0000000000000000e+00" purity="5.4398709535598755e-01" nType="0">
                <Node pos="l" depth="5" NCoef="0" IVar="-1" Cut="0.0000000000000000e+00" cType="1" res="-9.9000000000000000e+01" rms="0.0000000000000000e+00" purity="6.3446611166000366e-01" nType="1"/>
                <Node pos="r" depth="5" NCoef="0" IVar="-1" Cut="0.0000000000000000e+00" cType="1" res="-9.9000000000000000e+01" rms="0.0000000000000000e+00" purity="3.9204621315002441e-01" nType="-1"/>
              </Node>
            </Node>
            <Node pos="r" depth="3" NCoef="0" IVar="3" Cut="3.5384115576744080e-01" cType="0" res="-9.9000000000000000e+01" rms="0.0000000000000000e+00" purity="5.3651016950607300e-01" nType="0">
              <Node pos="l" depth="4" NCoef="0" IVar="0" Cut="9.8978561401367188e+01" cType="0" res="-9.9000000000000000e+01" rms="0.0000000000000000e+00" purity="5.8643597364425659e-01" nType="0">
                <Node pos="l" depth="5" NCoef="0" IVar="-1" Cut="0.0000000000000000e+00" cType="1" res="-9.9000000000000000e+01" rms="0.0000000000000000e+00" purity="6.4732360839843750e-01" nType="1"/>
                <Node pos="r" depth="5" NCoef="0" IVar="-1" Cut="0.0000000000000000e+00" cType="1" res="-9.9000000000000000e+01" rms="0.0000000000000000e+00" purity="4.9902722239494324e-01" nType="-1"/>
              </Node>
              <Node pos="r" depth="4" NCoef="0" IVar="-1" Cut="1.1428571939468384e+00" cType="1" res="-9.9000000000000000e+01" rms="0.0000000000000000e+00" purity="4.1797432303428650e-01" nType="-1"/>
            </Node>
          </Node>
          <Node pos="r" depth="2" NCoef="0" IVar="1" Cut="1.5194573974609375e+02" cType="0" res="-9.9000000000000000e+01" rms="0.0000000000000000e+00" purity="4.6872672438621521e-01" nType="0">
            <Node pos="l" depth="3" NCoef="0" IVar="10" Cut="5.5601169586181641e+01" cType="0" res="-9.9000000000000000e+01" rms="0.0000000000000000e+00" purity="5.8473753929138184e-01" nType="0">
              <Node pos="l" depth="4" NCoef="0" IVar="3" Cut="3.1361025571823120e-01" cType="0" res="-9.9000000000000000e+01" rms="0.0000000000000000e+00" purity="6.6036450862884521e-01" nType="0">
                <Node pos="l" depth="5" NCoef="0" IVar="-1" Cut="0.0000000000000000e+00" cType="1" res="-9.9000000000000000e+01" rms="0.0000000000000000e+00" purity="7.1594011783599854e-01" nType="1"/>
                <Node pos="r" depth="5" NCoef="0" IVar="-1" Cut="0.0000000000000000e+00" cType="1" res="-9.9000000000000000e+01" rms="0.0000000000000000e+00" purity="4.6761372685432434e-01" nType="-1"/>
              </Node>
              <Node pos="r" depth="4" NCoef="0" IVar="3" Cut="5.5558848381042480e-01" cType="0" res="-9.9000000000000000e+01" rms="0.0000000000000000e+00" purity="4.2053589224815369e-01" nType="0">
                <Node pos="l" depth="5" NCoef="0" IVar="-1" Cut="0.0000000000000000e+00" cType="1" res="-9.9000000000000000e+01" rms="0.0000000000000000e+00" purity="5.5798637866973877e-01" nType="1"/>
                <Node pos="r" depth="5" NCoef="0" IVar="-1" Cut="0.0000000000000000e+00" cType="1" res="-9.9000000000000000e+01" rms="0.0000000000000000e+00" purity="3.2049769163131714e-01" nType="-1"/>
              </Node>
            </Node>
            <Node pos="r" depth="3" NCoef="0" IVar="12" Cut="6.3533824682235718e-01" cType="1" res="-9.9000000000000000e+01" rms="0.0000000000000000e+00" purity="3.9080113172531128e-01" nType="0">
              <Node pos="l" depth="4" NCoef="0" IVar="7" Cut="8.3635673522949219e+01" cType="0" res="-9.9000000000000000e+01" rms="0.0000000000000000e+00" purity="5.0361770391464233e-01" nType="0">
                <Node pos="l" depth="5" NCoef="0" IVar="-1" Cut="0.0000000000000000e+00" cType="1" res="-9.9000000000000000e+01" rms="0.0000000000000000e+00" purity="5.2864515781402588e-01" nType="1"/>
                <Node pos="r" depth="5" NCoef="0" IVar="-1" Cut="0.0000000000000000e+00" cType="1" res="-9.9000000000000000e+01" rms="0.0000000000000000e+00" purity="2.5033685564994812e-01" nType="-1"/>
              </Node>
              <Node pos="r" depth="4" NCoef="0" IVar="-1" Cut="8.3772784471511841e-01" cType="0" res="-9.9000000000000000e+01" rms="0.0000000000000000e+00" purity="3.3699795603752136e-01" nType="-1"/>
            </Node>
          </Node>
        </Node>
        <Node pos="r" depth="1" NCoef="0" IVar="4" Cut="4.0771484375000000e-01" cType="0" res="-9.9000000000000000e+01" rms="0.0000000000000000e+00" purity="1.8440163135528564e-01" nType="0">
          <Node pos="l" depth="2" NCoef="0" IVar="12" Cut="1.0506185293197632e+00" cType="1" res="-9.9000000000000000e+01" rms="0.0000000000000000e+00" purity="2.9490312933921814e-01" nType="0">
            <Node pos="l" depth="3" NCoef="0" IVar="5" Cut="3.8095238804817200e-01" cType="1" res="-9.9000000000000000e+01" rms="0.0000000000000000e+00" purity="3.8364005088806152e-01" nType="0">
              <Node pos="l" depth="4" NCoef="0" IVar="1" Cut="2.0090708923339844e+02" cType="0" res="-9.9000000000000000e+01" rms="0.0000000000000000e+00" purity="4.7072646021842957e-01" nType="0">
                <Node pos="l" depth="5" NCoef="0" IVar="-1" Cut="0.0000000000000000e+00" cType="1" res="-9.9000000000000000e+01" rms="0.0000000000000000e+00" purity="5.6104838848114014e-01" nType="1"/>
                <Node pos="r" depth="5" NCoef="0" IVar="-1" Cut="0.0000000000000000e+00" cType="1" res="-9.9000000000000000e+01" rms="0.0000000000000000e+00" purity="3.7672951817512512e-01" nType="-1"/>
              </Node>
              <Node pos="r" depth="4" NCoef="0" IVar="-1" Cut="3.5407367348670959e-01" cType="0" res="-9.9000000000000000e+01" rms="0.0000000000000000e+00" purity="2.8326925635337830e-01" nType="-1"/>
            </Node>
            <Node pos="r" depth="3" NCoef="0" IVar="-1" Cut="1.6916459798812866e+00" cType="1" res="-9.9000000000000000e+01" rms="0.0000000000000000e+00" purity="1.5109196305274963e-01" nType="-1"/>
          </Node>
          <Node pos="r" depth="2" NCoef="0" IVar="-1" Cut="2.2382463514804840e-01" cType="0" res="-9.9000000000000000e+01" rms="0.0000000000000000e+00" purity="9.6464768052101135e-02" nType="-1"/>
        </Node>
      </Node>
    </BinaryTree>
    <BinaryTree type="DecisionTree" boostWeight="9.9133645442502305e-02" itree="3">
      <Node pos="s" depth="0" NCoef="0" IVar="4" Cut="6.7789715528488159e-01" cType="0" res="-9.9000000000000000e+01" rms="0.0000000000000000e+00" purity="4.9159497022628784e-01" nType="0">
        <Node pos="l" depth="1" NCoef="0" IVar="11" Cut="9.0227705240249634e-01" cType="0" res="-9.9000000000000000e+01" rms="0.0000000000000000e+00" purity="6.3478481769561768e-01" nType="0">
          <Node pos="l" depth="2" NCoef="0" IVar="12" Cut="1.0011857748031616e+00" cType="1" res="-9.9000000000000000e+01" rms="0.0000000000000000e+00" purity="7.0080626010894775e-01" nType="0">
            <Node pos="l" depth="3" NCoef="0" IVar="0" Cut="1.0714052581787109e+02" cType="0" res="-9.9000000000000000e+01" rms="0.0000000000000000e+00" purity="7.5042259693145752e-01" nType="0">
              <Node pos="l" depth="4" NCoef="0" IVar="-1" Cut="1.3366838073730469e+02" cType="1" res="-9.9000000000000000e+01" rms="0.0000000000000000e+00" purity="8.0250871181488037e-01" nType="1"/>
              <Node pos="r" depth="4" NCoef="0" IVar="3" Cut="5.5546063184738159e-01" cType="0" res="-9.9000000000000000e+01" rms="0.0000000000000000e+00" purity="5.6857806444168091e-01" nType="0">
                <Node pos="l" depth="5" NCoef="0" IVar="-1" Cut="0.0000000000000000e+00" cType="1" res="-9.9000000000000000e+01" rms="0.0000000000000000e+00" purity="6.3725560903549194e-01" nType="1"/>
                <Node pos="r" depth="5" NCoef="0" IVar="-1" Cut="0.0000000000000000e+00" cType="1" res="-9.9000000000000000e+01" rms="0.0000000000000000e+00" purity="4.9571824073791504e-01" nType="-1"/>
              </Node>
            </Node>
            <Node pos="r" depth="3" NCoef="0" IVar="12" Cut="1.4779691696166992e+00" cType="1" res="-9.9000000000000000e+01" rms="0.0000000000000000e+00" purity="5.6156086921691895e-01" nType="0">
              <Node pos="l" depth="4" NCoef="0" IVar="3" Cut="2.7326312661170959e-01" cType="0" res="-9.9000000000000000e+01" rms="0.0000000000000000e+00" purity="6.0598713159561157e-01" nType="0">
                <Node pos="l" depth="5" NCoef="0" IVar="-1" Cut="0.0000000000000000e+00" cType="1" res="-9.9000000000000000e+01" rms="0.0000000000000000e+00" purity="6.4917832612991333e-01" nType="1"/>
                <Node pos="r" depth="5" NCoef="0" IVar="-1" Cut="0.0000000000000000e+00" cType="1" res="-9.9000000000000000e+01" rms="0.0000000000000000e+00" purity="4.0489873290061951e-01" nType="-1"/>
              </Node>
              <Node pos="r" depth="4" NCoef="0" IVar="-1" Cut="1.8641531467437744e+00" cType="1" res="-9.9000000000000000e+01" rms="0.0000000000000000e+00" purity="3.6118966341018677e-01" nType="-1"/>
            </Node>
          </Node>
          <Node pos="r" depth="2" NCoef="0" IVar="1" Cut="1.5194573974609375e+02" cType="0" res="-9.9000000000000000e+01" rms="0.0000000000000000e+00" purity="4.8127615451812744e-01" nType="0">
            <Node pos="l" depth="3" NCoef="0" IVar="10" Cut="5.5601169586181641e+01" cType="0" res="-9.9000000000000000e+01" rms="0.0000000000000000e+00" purity="5.8561950922012329e-01" nType="0">
              <Node pos="l" depth="4" NCoef="0" IVar="-1" Cut="6.8434822082519531e+01" cType="0" res="-9.9000000000000000e+01" rms="0.0000000000000000e+00" purity="6.5540283918380737e-01" nType="1"/>
              <Node pos="r" depth="4" NCoef="0" IVar="-1" Cut="7.7359596252441406e+01" cType="0" res="-9.9000000000000000e+01" rms="0.0000000000000000e+00" purity="4.3210026621818542e-01" nType="-1"/>
            </Node>
            <Node pos="r" depth="3" NCoef="0" IVar="3" Cut="7.5742882490158081e-01" cType="0" res="-9.9000000000000000e+01" rms="0.0000000000000000e+00" purity="4.1052734851837158e-01" nType="0">
              <Node pos="l" depth="4" NCoef="0" IVar="1" Cut="1.3186376953125000e+02" cType="0" res="-9.9000000000000000e+01" rms="0.0000000000000000e+00" purity="5.1069301366806030e-01" nType="0">
                <Node pos="l" depth="5" NCoef="0" IVar="-1" Cut="0.0000000000000000e+00" cType="1" res="-9.9000000000000000e+01" rms="0.0000000000000000e+00" purity="6.2295079231262207e-01" nType="1"/>
                <Node pos="r" depth="5" NCoef="0" IVar="-1" Cut="0.0000000000000000e+00" cType="1" res="-9.9000000000000000e+01" rms="0.0000000000000000e+00" purity="4.5829796791076660e-01" nType="-1"/>
              </Node>
              <Node pos="r" depth="4" NCoef="0" IVar="-1" Cut="1.9061406850814819e+00" cType="1" res="-9.9000000000000000e+01" rms="0.0000000000000000e+00" purity="3.6087980866432190e-01" nType="-1"/>
            </Node>
          </Node>
        </Node>
        <Node pos="r" depth="1" NCoef="0" IVar="4" Cut="4.0406435728073120e-01" cType="0" res="-9.9000000000000000e+01" rms="0.0000000000000000e+00" purity="2.1138648688793182e-01" nType="0">
          <Node pos="l" depth="2" NCoef="0" IVar="12" Cut="1.0506185293197632e+00" cType="1" res="-9.9000000000000000e+01" rms="0.0000000000000000e+00" purity="3.2145085930824280e-01" nType="0">
            <Node pos="l" depth="3" NCoef="0" IVar="3" Cut="3.4832471609115601e-01" cType="0" res="-9.9000000000000000e+01" rms="0.0000000000000000e+00" purity="4.0772071480751038e-01" nType="0">
              <Node pos="l" depth="4" NCoef="0" IVar="0" Cut="9.8572113037109375e+01" cType="0" res="-9.9000000000000000e+01" rms="0.0000000000000000e+00" purity="5.3919851779937744e-01" nType="0">
                <Node pos="l" depth="5" NCoef="0" IVar="-1" Cut="0.0000000000000000e+00" cType="1" res="-9.9000000000000000e+01" rms="0.0000000000000000e+00" purity="5.8191341161727905e-01" nType="1"/>
                <Node pos="r" depth="5" NCoef="0" IVar="-1" Cut="0.0000000000000000e+00" cType="1" res="-9.9000000000000000e+01" rms="0.0000000000000000e+00" purity="2.9901242256164551e-01" nType="-1"/>
              </Node>
              <Node pos="r" depth="4" NCoef="0" IVar="-1" Cut="3.3333334326744080e-01" cType="1" res="-9.9000000000000000e+01" rms="0.0000000000000000e+00" purity="3.3788335323333740e-01" nType="-1"/>
            </Node>
            <Node pos="r" depth="3" NCoef="0" IVar="-1" Cut="1.6914731264114380e+00" cType="1" res="-9.9000000000000000e+01" rms="0.0000000000000000e+00" purity="1.7524278163909912e-01" nType="-1"/>
          </Node>
          <Node pos="r" depth="2" NCoef="0" IVar="-1" Cut="2.2382463514804840e-01" cType="0" res="-9.9000000000000000e+01" rms="0.0000000000000000e+00" purity="1.0507868230342865e-01" nType="-1"/>
        </Node>
      </Node>
    </BinaryTree>
    <BinaryTree type="DecisionTree" boostWeight="9.0680370782710434e-02" itree="4">
      <Node pos="s" depth="0" NCoef="0" IVar="4" Cut="5.9749346971511841e-01" cType="0" res="-9.9000000000000000e+01" rms="0.0000000000000000e+00" purity="4.9234351515769958e-01" nType="0">
        <Node pos="l" depth="1" NCoef="0" IVar="11" Cut="9.0227705240249634e-01" cType="0" res="-9.9000000000000000e+01" rms="0.0000000000000000e+00" purity="6.1463445425033569e-01" nType="0">
          <Node pos="l" depth="2" NCoef="0" IVar="12" Cut="1.0011857748031616e+00" cType="1" res="-9.9000000000000000e+01" rms="0.0000000000000000e+00" purity="6.7875659465789795e-01" nType="0">
            <Node pos="l" depth="3" NCoef="0" IVar="0" Cut="1.0714052581787109e+02" cType="0" res="-9.9000000000000000e+01" rms="0.0000000000000000e+00" purity="7.2990787029266357e-01" nType="0">
              <Node pos="l" depth="4" NCoef="0" IVar="-1" Cut="1.3366831970214844e+02" cType="1" res="-9.9000000000000000e+01" rms="0.0000000000000000e+00" purity="7.7883970737457275e-01" nType="1"/>
              <Node pos="r" depth="4" NCoef="0" IVar="0" Cut="9.7346199035644531e+01" cType="0" res="-9.9000000000000000e+01" rms="0.0000000000000000e+00" purity="5.6405442953109741e-01" nType="0">
                <Node pos="l" depth="5" NCoef="0" IVar="-1" Cut="0.0000000000000000e+00" cType="1" res="-9.9000000000000000e+01" rms="0.0000000000000000e+00" purity="6.1799991130828857e-01" nType="1"/>
                <Node pos="r" depth="5" NCoef="0" IVar="-1" Cut="0.0000000000000000e+00" cType="1" res="-9.9000000000000000e+01" rms="0.0000000000000000e+00" purity="4.6527627110481262e-01" nType="-1"/>
              </Node>
            </Node>
            <Node pos="r" depth="3" NCoef="0" IVar="4" Cut="8.2728797197341919e-01" cType="0" res="-9.9000000000000000e+01" rms="0.0000000000000000e+00" purity="5.3900247812271118e-01" nType="0">
              <Node pos="l" depth="4" NCoef="0" IVar="-1" Cut="3.1065554618835449e+00" cType="0" res="-9.9000000000000000e+01" rms="0.0000000000000000e+00" purity="5.8675116300582886e-01" nType="1"/>
              <Node pos="r" depth="4" NCoef="0" IVar="-1" Cut="3.0393054485321045e+00" cType="0" res="-9.9000000000000000e+01" rms="0.0000000000000000e+00" purity="3.6063942313194275e-01" nType="-1"/>
            </Node>
          </Node>
          <Node pos="r" depth="2" NCoef="0" IVar="12" Cut="1.2705544233322144e+00" cType="1" res="-9.9000000000000000e+01" rms="0.0000000000000000e+00" purity="4.7123745083808899e-01" nType="0">
            <Node pos="l" depth="3" NCoef="0" IVar="3" Cut="3.1361025571823120e-01" cType="0" res="-9.9000000000000000e+01" rms="0.0000000000000000e+00" purity="5.2172225713729858e-01" nType="0">
              <Node pos="l" depth="4" NCoef="0" IVar="11" Cut="7.3239630460739136e-01" cType="0" res="-9.9000000000000000e+01" rms="0.0000000000000000e+00" purity="5.6741327047348022e-01" nType="0">
                <Node pos="l" depth="5" NCoef="0" IVar="-1" Cut="0.0000000000000000e+00" cType="1" res="-9.9000000000000000e+01" rms="0.0000000000000000e+00" purity="6.3235616683959961e-01" nType="1"/>
                <Node pos="r" depth="5" NCoef="0" IVar="-1" Cut="0.0000000000000000e+00" cType="1" res="-9.9000000000000000e+01" rms="0.0000000000000000e+00" purity="4.6898913383483887e-01" nType="-1"/>
              </Node>
              <Node pos="r" depth="4" NCoef="0" IVar="-1" Cut="7.1282088756561279e-01" cType="0" res="-9.9000000000000000e+01" rms="0.0000000000000000e+00" purity="3.8494500517845154e-01" nType="-1"/>
            </Node>
            <Node pos="r" depth="3" NCoef="0" IVar="-1" Cut="3.9416503906250000e-01" cType="0" res="-9.9000000000000000e+01" rms="0.0000000000000000e+00" purity="3.3051669597625732e-01" nType="-1"/>
          </Node>
        </Node>
        <Node pos="r" depth="1" NCoef="0" IVar="-1" Cut="3.8674199581146240e-01" cType="0" res="-9.9000000000000000e+01" rms="0.0000000000000000e+00" purity="1.9171787798404694e-01" nType="-1"/>
      </Node>
    </BinaryTree>
    <BinaryTree type="DecisionTree" boostWeight="8.6801276787900866e-02" itree="5">
      <Node pos="s" depth="0" NCoef="0" IVar="4" Cut="5.5729168653488159e-01" cType="0" res="-9.9000000000000000e+01" rms="0.0000000000000000e+00" purity="4.9196028709411621e-01" nType="0">
        <Node pos="l" depth="1" NCoef="0" IVar="12" Cut="1.2704671621322632e+00" cType="1" res="-9.9000000000000000e+01" rms="0.0000000000000000e+00" purity="6.0025900602340698e-01" nType="0">
          <Node pos="l" depth="2" NCoef="0" IVar="5" Cut="3.3333334326744080e-01" cType="1" res="-9.9000000000000000e+01" rms="0.0000000000000000e+00" purity="6.4064967632293701e-01" nType="0">
            <Node pos="l" depth="3" NCoef="0" IVar="10" Cut="6.4835838317871094e+01" cType="0" res="-9.9000000000000000e+01" rms="0.0000000000000000e+00" purity="7.0528572797775269e-01" nType="0">
              <Node pos="l" depth="4" NCoef="0" IVar="-1" Cut="1.0430397796630859e+02" cType="0" res="-9.9000000000000000e+01" rms="0.0000000000000000e+00" purity="7.5731486082077026e-01" nType="1"/>
              <Node pos="r" depth="4" NCoef="0" IVar="3" Cut="5.5546063184738159e-01" cType="0" res="-9.9000000000000000e+01" rms="0.0000000000000000e+00" purity="5.6728398799896240e-01" nType="0">
                <Node pos="l" depth="5" NCoef="0" IVar="-1" Cut="0.0000000000000000e+00" cType="1" res="-9.9000000000000000e+01" rms="0.0000000000000000e+00" purity="6.7243486642837524e-01" nType="1"/>
                <Node pos="r" depth="5" NCoef="0" IVar="-1" Cut="0.0000000000000000e+00" cType="1" res="-9.9000000000000000e+01" rms="0.0000000000000000e+00" purity="4.7991704940795898e-01" nType="-1"/>
              </Node>
            </Node>
            <Node pos="r" depth="3" NCoef="0" IVar="3" Cut="5.5569314956665039e-01" cType="0" res="-9.9000000000000000e+01" rms="0.0000000000000000e+00" purity="5.3870052099227905e-01" nType="0">
              <Node pos="l" depth="4" NCoef="0" IVar="-1" Cut="7.2554679870605469e+01" cType="0" res="-9.9000000000000000e+01" rms="0.0000000000000000e+00" purity="6.3397276401519775e-01" nType="1"/>
              <Node pos="r" depth="4" NCoef="0" IVar="10" Cut="1.0436477661132812e+02" cType="0" res="-9.9000000000000000e+01" rms="0.0000000000000000e+00" purity="4.4669196009635925e-01" nType="0">
                <Node pos="l" depth="5" NCoef="0" IVar="-1" Cut="0.0000000000000000e+00" cType="1" res="-9.9000000000000000e+01" rms="0.0000000000000000e+00" purity="5.4197555780410767e-01" nType="1"/>
                <Node pos="r" depth="5" NCoef="0" IVar="-1" Cut="0.0000000000000000e+00" cType="1" res="-9.9000000000000000e+01" rms="0.0000000000000000e+00" purity="3.8955491781234741e-01" nType="-1"/>
              </Node>
            </Node>
          </Node>
          <Node pos="r" depth="2" NCoef="0" IVar="12" Cut="1.8754740953445435e+00" cType="1" res="-9.9000000000000000e+01" rms="0.0000000000000000e+00" purity="3.9544472098350525e-01" nType="0">
            <Node pos="l" depth="3" NCoef="0" IVar="3" Cut="3.1361025571823120e-01" cType="0" res="-9.9000000000000000e+01" rms="0.0000000000000000e+00" purity="4.3765699863433838e-01" nType="0">
              <Node pos="l" depth="4" NCoef="0" IVar="12" Cut="1.5580347776412964e+00" cType="1" res="-9.9000000000000000e+01" rms="0.0000000000000000e+00" purity="4.9018126726150513e-01" nType="0">
                <Node pos="l" depth="5" NCoef="0" IVar="-1" Cut="0.0000000000000000e+00" cType="1" res="-9.9000000000000000e+01" rms="0.0000000000000000e+00" purity="5.3945136070251465e-01" nType="1"/>
                <Node pos="r" depth="5" NCoef="0" IVar="-1" Cut="0.0000000000000000e+00" cType="1" res="-9.9000000000000000e+01" rms="0.0000000000000000e+00" purity="3.8223341107368469e-01" nType="-1"/>
              </Node>
              <Node pos="r" depth="4" NCoef="0" IVar="-1" Cut="7.6804316043853760e-01" cType="0" res="-9.9000000000000000e+01" rms="0.0000000000000000e+00" purity="2.9978343844413757e-01" nType="-1"/>
            </Node>
            <Node pos="r" depth="3" NCoef="0" IVar="14" Cut="4.2380952835083008e+00" cType="0" res="-9.9000000000000000e+01" rms="0.0000000000000000e+00" purity="1.9493748247623444e-01" nType="0">
              <Node pos="l" depth="4" NCoef="0" IVar="-1" Cut="0.0000000000000000e+00" cType="1" res="-9.9000000000000000e+01" rms="0.0000000000000000e+00" purity="5.8458262681961060e-01" nType="1"/>
              <Node pos="r" depth="4" NCoef="0" IVar="-1" Cut="6.8387275934219360e-01" cType="0" res="-9.9000000000000000e+01" rms="0.0000000000000000e+00" purity="1.8439386785030365e-01" nType="-1"/>
            </Node>
          </Node>
        </Node>
        <Node pos="r" depth="1" NCoef="0" IVar="-1" Cut="3.6576914787292480e-01" cType="0" res="-9.9000000000000000e+01" rms="0.0000000000000000e+00" purity="1.8815685808658600e-01" nType="-1"/>
      </Node>
    </BinaryTree>
    <BinaryTree type="DecisionTree" boostWeight="8.1946808691788608e-02" itree="6">
      <Node pos="s" depth="0" NCoef="0" IVar="4" Cut="5.5729168653488159e-01" cType="0" res="-9.9000000000000000e+01" rms="0.0000000000000000e+00" purity="4.9045580625534058e-01" nType="0">
        <Node pos="l" depth="1" NCoef="0" IVar="12" Cut="1.2704671621322632e+00" cType="1" res="-9.9000000000000000e+01" rms="0.0000000000000000e+00" purity="5.9194976091384888e-01" nType="0">
          <Node pos="l" depth="2" NCoef="0" IVar="0" Cut="1.0428538513183594e+02" cType="0" res="-9.9000000000000000e+01" rms="0.0000000000000000e+00" purity="6.3030117750167847e-01" nType="0">
            <Node pos="l" depth="3" NCoef="0" IVar="5" Cut="3.3333334326744080e-01" cType="1" res="-9.9000000000000000e+01" rms="0.0000000000000000e+00" purity="6.7059350013732910e-01" nType="0">
              <Node pos="l" depth="4" NCoef="0" IVar="-1" Cut="3.0393540859222412e+00" cType="0" res="-9.9000000000000000e+01" rms="0.0000000000000000e+00" purity="7.3264902830123901e-01" nType="1"/>
              <Node pos="r" depth="4" NCoef="0" IVar="9" Cut="7.2550827026367188e+01" cType="0" res="-9.9000000000000000e+01" rms="0.0000000000000000e+00" purity="5.6727421283721924e-01" nType="0">
                <Node pos="l" depth="5" NCoef="0" IVar="-1" Cut="0.0000000000000000e+00" cType="1" res="-9.9000000000000000e+01" rms="0.0000000000000000e+00" purity="6.3518941402435303e-01" nType="1"/>
                <Node pos="r" depth="5" NCoef="0" IVar="-1" Cut="0.0000000000000000e+00" cType="1" res="-9.9000000000000000e+01" rms="0.0000000000000000e+00" purity="4.6299317479133606e-01" nType="-1"/>
              </Node>
            </Node>
            <Node pos="r" depth="3" NCoef="0" IVar="12" Cut="7.8635370731353760e-01" cType="1" res="-9.9000000000000000e+01" rms="0.0000000000000000e+00" purity="4.6623438596725464e-01" nType="0">
              <Node pos="l" depth="4" NCoef="0" IVar="3" Cut="2.3297990858554840e-01" cType="0" res="-9.9000000000000000e+01" rms="0.0000000000000000e+00" purity="5.1445317268371582e-01" nType="0">
                <Node pos="l" depth="5" NCoef="0" IVar="-1" Cut="0.0000000000000000e+00" cType="1" res="-9.9000000000000000e+01" rms="0.0000000000000000e+00" purity="5.4971772432327271e-01" nType="1"/>
                <Node pos="r" depth="5" NCoef="0" IVar="-1" Cut="0.0000000000000000e+00" cType="1" res="-9.9000000000000000e+01" rms="0.0000000000000000e+00" purity="3.4077036380767822e-01" nType="-1"/>
              </Node>
              <Node pos="r" depth="4" NCoef="0" IVar="-1" Cut="7.0491534471511841e-01" cType="0" res="-9.9000000000000000e+01" rms="0.0000000000000000e+00" purity="3.7515032291412354e-01" nType="-1"/>
            </Node>
          </Node>
          <Node pos="r" depth="2" NCoef="0" IVar="12" Cut="1.8754740953445435e+00" cType="1" res="-9.9000000000000000e+01" rms="0.0000000000000000e+00" purity="3.9806160330772400e-01" nType="0">
            <Node pos="l" depth="3" NCoef="0" IVar="3" Cut="3.1361025571823120e-01" cType="0" res="-9.9000000000000000e+01" rms="0.0000000000000000e+00" purity="4.3740972876548767e-01" nType="0">
              <Node pos="l" depth="4" NCoef="0" IVar="14" Cut="1.2857142686843872e+00" cType="1" res="-9.9000000000000000e+01" rms="0.0000000000000000e+00" purity="4.8209699988365173e-01" nType="0">
                <Node pos="l" depth="5" NCoef="0" IVar="-1" Cut="0.0000000000000000e+00" cType="1" res="-9.9000000000000000e+01" rms="0.0000000000000000e+00" purity="5.3575253486633301e-01" nType="1"/>
                <Node pos="r" depth="5" NCoef="0" IVar="-1" Cut="0.0000000000000000e+00" cType="1" res="-9.9000000000000000e+01" rms="0.0000000000000000e+00" purity="3.9332175254821777e-01" nType="-1"/>
              </Node>
              <Node pos="r" depth="4" NCoef="0" IVar="-1" Cut="7.6804316043853760e-01" cType="0" res="-9.9000000000000000e+01" rms="0.0000000000000000e+00" purity="3.1874635815620422e-01" nType="-1"/>
            </Node>
            <Node pos="r" depth="3" NCoef="0" IVar="-1" Cut="6.8387275934219360e-01" cType="0" res="-9.9000000000000000e+01" rms="0.0000000000000000e+00" purity="2.0763139426708221e-01" nType="-1"/>
          </Node>
        </Node>
        <Node pos="r" depth="1" NCoef="0" IVar="4" Cut="3.6576914787292480e-01" cType="0" res="-9.9000000000000000e+01" rms="0.0000000000000000e+00" purity="2.0207870006561279e-01" nType="0">
          <Node pos="l" depth="2" NCoef="0" IVar="12" Cut="1.2607421875000000e+00" cType="1" res="-9.9000000000000000e+01" rms="0.0000000000000000e+00" purity="3.0094313621520996e-01" nType="0">
            <Node pos="l" depth="3" NCoef="0" IVar="5" Cut="3.8095238804817200e-01" cType="1" res="-9.9000000000000000e+01" rms="0.0000000000000000e+00" purity="3.6395120620727539e-01" nType="0">
              <Node pos="l" depth="4" NCoef="0" IVar="9" Cut="5.5995582580566406e+01" cType="0" res="-9.9000000000000000e+01" rms="0.0000000000000000e+00" purity="4.4864305853843689e-01" nType="0">
                <Node pos="l" depth="5" NCoef="0" IVar="-1" Cut="0.0000000000000000e+00" cType="1" res="-9.9000000000000000e+01" rms="0.0000000000000000e+00" purity="5.0201749801635742e-01" nType="1"/>
                <Node pos="r" depth="5" NCoef="0" IVar="-1" Cut="0.0000000000000000e+00" cType="1" res="-9.9000000000000000e+01" rms="0.0000000000000000e+00" purity="3.0840227007865906e-01" nType="-1"/>
              </Node>
              <Node pos="r" depth="4" NCoef="0" IVar="-1" Cut="2.6715961098670959e-01" cType="0" res="-9.9000000000000000e+01" rms="0.0000000000000000e+00" purity="2.6434585452079773e-01" nType="-1"/>
            </Node>
            <Node pos="r" depth="3" NCoef="0" IVar="-1" Cut="1.5609189271926880e+00" cType="1" res="-9.9000000000000000e+01" rms="0.0000000000000000e+00" purity="1.2277892231941223e-01" nType="-1"/>
          </Node>
          <Node pos="r" depth="2" NCoef="0" IVar="-1" Cut="1.0544382333755493e+00" cType="1" res="-9.9000000000000000e+01" rms="0.0000000000000000e+00" purity="1.1711288243532181e-01" nType="-1"/>
        </Node>
      </Node>
    </BinaryTree>
    <BinaryTree type="DecisionTree" boostWeight="7.7722508554466219e-02" itree="7">
      <Node pos="s" depth="0" NCoef="0" IVar="4" Cut="5.5729168653488159e-01" cType="0" res="-9.9000000000000000e+01" rms="0.0000000000000000e+00" purity="4.8748263716697693e-01" nType="0">
        <Node pos="l" depth="1" NCoef="0" IVar="12" Cut="1.2704671621322632e+00" cType="1" res="-9.9000000000000000e+01" rms="0.0000000000000000e+00" purity="5.8396047353744507e-01" nType="0">
          <Node pos="l" depth="2" NCoef="0" IVar="0" Cut="1.0428538513183594e+02" cType="0" res="-9.9000000000000000e+01" rms="0.0000000000000000e+00" purity="6.2001538276672363e-01" nType="0">
            <Node pos="l" depth="3" NCoef="0" IVar="0" Cut="1.3476031494140625e+02" cType="1" res="-9.9000000000000000e+01" rms="0.0000000000000000e+00" purity="6.5855574607849121e-01" nType="0">
              <Node pos="l" depth="4" NCoef="0" IVar="-1" Cut="3.0048875808715820e+00" cType="0" res="-9.9000000000000000e+01" rms="0.0000000000000000e+00" purity="6.9297695159912109e-01" nType="1"/>
              <Node pos="r" depth="4" NCoef="0" IVar="4" Cut="8.3117091655731201e-01" cType="0" res="-9.9000000000000000e+01" rms="0.0000000000000000e+00" purity="4.7128036618232727e-01" nType="0">
                <Node pos="l" depth="5" NCoef="0" IVar="-1" Cut="0.0000000000000000e+00" cType="1" res="-9.9000000000000000e+01" rms="0.0000000000000000e+00" purity="5.2821600437164307e-01" nType="1"/>
                <Node pos="r" depth="5" NCoef="0" IVar="-1" Cut="0.0000000000000000e+00" cType="1" res="-9.9000000000000000e+01" rms="0.0000000000000000e+00" purity="3.2027795910835266e-01" nType="-1"/>
              </Node>
            </Node>
            <Node pos="r" depth="3" NCoef="0" IVar="13" Cut="2.9157586097717285e+00" cType="0" res="-9.9000000000000000e+01" rms="0.0000000000000000e+00" purity="4.6432113647460938e-01" nType="0">
              <Node pos="l" depth="4" NCoef="0" IVar="2" Cut="1.8705807495117188e+02" cType="0" res="-9.9000000000000000e+01" rms="0.0000000000000000e+00" purity="4.9488449096679688e-01" nType="0">
                <Node pos="l" depth="5" NCoef="0" IVar="-1" Cut="0.0000000000000000e+00" cType="1" res="-9.9000000000000000e+01" rms="0.0000000000000000e+00" purity="5.5153787136077881e-01" nType="1"/>
                <Node pos="r" depth="5" NCoef="0" IVar="-1" Cut="0.0000000000000000e+00" cType="1" res="-9.9000000000000000e+01" rms="0.0000000000000000e+00" purity="4.2406696081161499e-01" nType="-1"/>
              </Node>
              <Node pos="r" depth="4" NCoef="0" IVar="-1" Cut="9.3638390302658081e-01" cType="0" res="-9.9000000000000000e+01" rms="0.0000000000000000e+00" purity="3.5277938842773438e-01" nType="-1"/>
            </Node>
          </Node>
          <Node pos="r" depth="2" NCoef="0" IVar="12" Cut="1.8754740953445435e+00" cType="1" res="-9.9000000000000000e+01" rms="0.0000000000000000e+00" purity="4.0220907330513000e-01" nType="0">
            <Node pos="l" depth="3" NCoef="0" IVar="4" Cut="7.6804316043853760e-01" cType="0" res="-9.9000000000000000e+01" rms="0.0000000000000000e+00" purity="4.3894609808921814e-01" nType="0">
              <Node pos="l" depth="4" NCoef="0" IVar="8" Cut="5.7062438964843750e+01" cType="1" res="-9.9000000000000000e+01" rms="0.0000000000000000e+00" purity="4.7323572635650635e-01" nType="0">
                <Node pos="l" depth="5" NCoef="0" IVar="-1" Cut="0.0000000000000000e+00" cType="1" res="-9.9000000000000000e+01" rms="0.0000000000000000e+00" purity="5.1780933141708374e-01" nType="1"/>
                <Node pos="r" depth="5" NCoef="0" IVar="-1" Cut="0.0000000000000000e+00" cType="1" res="-9.9000000000000000e+01" rms="0.0000000000000000e+00" purity="3.5964941978454590e-01" nType="-1"/>
              </Node>
              <Node pos="r" depth="4" NCoef="0" IVar="-1" Cut="3.2413154840469360e-01" cType="0" res="-9.9000000000000000e+01" rms="0.0000000000000000e+00" purity="3.0180487036705017e-01" nType="-1"/>
            </Node>
            <Node pos="r" depth="3" NCoef="0" IVar="-1" Cut="6.8387275934219360e-01" cType="0" res="-9.9000000000000000e+01" rms="0.0000000000000000e+00" purity="2.2143636643886566e-01" nType="-1"/>
          </Node>
        </Node>
        <Node pos="r" depth="1" NCoef="0" IVar="-1" Cut="3.2749721407890320e-01" cType="0" res="-9.9000000000000000e+01" rms="0.0000000000000000e+00" purity="2.1012794971466064e-01" nType="-1"/>
      </Node>
    </BinaryTree>
    <BinaryTree type="DecisionTree" boostWeight="7.4579036169556495e-02" itree="8">
      <Node pos="s" depth="0" NCoef="0" IVar="4" Cut="6.7789715528488159e-01" cType="0" res="-9.9000000000000000e+01" rms="0.0000000000000000e+00" purity="4.8392575979232788e-01" nType="0">
        <Node pos="l" depth="1" NCoef="0" IVar="12" Cut="8.4697812795639038e-01" cType="1" res="-9.9000000000000000e+01" rms="0.0000000000000000e+00" purity="5.9088784456253052e-01" nType="0">
          <Node pos="l" depth="2" NCoef="0" IVar="13" Cut="3.0155761241912842e+00" cType="0" res="-9.9000000000000000e+01" rms="0.0000000000000000e+00" purity="6.5570992231369019e-01" nType="0">
            <Node pos="l" depth="3" NCoef="0" IVar="0" Cut="1.0714178466796875e+02" cType="0" res="-9.9000000000000000e+01" rms="0.0000000000000000e+00" purity="7.0860171318054199e-01" nType="0">
              <Node pos="l" depth="4" NCoef="0" IVar="-1" Cut="1.3366784667968750e+02" cType="1" res="-9.9000000000000000e+01" rms="0.0000000000000000e+00" purity="7.5826728343963623e-01" nType="1"/>
              <Node pos="r" depth="4" NCoef="0" IVar="4" Cut="8.1591796875000000e-01" cType="0" res="-9.9000000000000000e+01" rms="0.0000000000000000e+00" purity="5.5793762207031250e-01" nType="0">
                <Node pos="l" depth="5" NCoef="0" IVar="-1" Cut="0.0000000000000000e+00" cType="1" res="-9.9000000000000000e+01" rms="0.0000000000000000e+00" purity="5.8637994527816772e-01" nType="1"/>
                <Node pos="r" depth="5" NCoef="0" IVar="-1" Cut="0.0000000000000000e+00" cType="1" res="-9.9000000000000000e+01" rms="0.0000000000000000e+00" purity="4.0530163049697876e-01" nType="-1"/>
              </Node>
            </Node>
            <Node pos="r" depth="3" NCoef="0" IVar="3" Cut="6.3638740777969360e-01" cType="0" res="-9.9000000000000000e+01" rms="0.0000000000000000e+00" purity="5.4250133037567139e-01" nType="0">
              <Node pos="l" depth="4" NCoef="0" IVar="-1" Cut="7.9769828796386719e+01" cType="0" res="-9.9000000000000000e+01" rms="0.0000000000000000e+00" purity="6.0983592271804810e-01" nType="1"/>
              <Node pos="r" depth="4" NCoef="0" IVar="4" Cut="8.3121746778488159e-01" cType="0" res="-9.9000000000000000e+01" rms="0.0000000000000000e+00" purity="4.8134350776672363e-01" nType="0">
                <Node pos="l" depth="5" NCoef="0" IVar="-1" Cut="0.0000000000000000e+00" cType="1" res="-9.9000000000000000e+01" rms="0.0000000000000000e+00" purity="5.2234816551208496e-01" nType="1"/>
                <Node pos="r" depth="5" NCoef="0" IVar="-1" Cut="0.0000000000000000e+00" cType="1" res="-9.9000000000000000e+01" rms="0.0000000000000000e+00" purity="3.6966434121131897e-01" nType="-1"/>
              </Node>
            </Node>
          </Node>
          <Node pos="r" depth="2" NCoef="0" IVar="10" Cut="7.5732772827148438e+01" cType="0" res="-9.9000000000000000e+01" rms="0.0000000000000000e+00" purity="5.0124299526214600e-01" nType="0">
            <Node pos="l" depth="3" NCoef="0" IVar="9" Cut="5.9390708923339844e+01" cType="0" res="-9.9000000000000000e+01" rms="0.0000000000000000e+00" purity="5.8922648429870605e-01" nType="0">
              <Node pos="l" depth="4" NCoef="0" IVar="-1" Cut="1.1428571939468384e+00" cType="1" res="-9.9000000000000000e+01" rms="0.0000000000000000e+00" purity="7.0379322767257690e-01" nType="1"/>
              <Node pos="r" depth="4" NCoef="0" IVar="13" Cut="3.0724112987518311e+00" cType="0" res="-9.9000000000000000e+01" rms="0.0000000000000000e+00" purity="5.0260859727859497e-01" nType="0">
                <Node pos="l" depth="5" NCoef="0" IVar="-1" Cut="0.0000000000000000e+00" cType="1" res="-9.9000000000000000e+01" rms="0.0000000000000000e+00" purity="5.9860223531723022e-01" nType="1"/>
                <Node pos="r" depth="5" NCoef="0" IVar="-1" Cut="0.0000000000000000e+00" cType="1" res="-9.9000000000000000e+01" rms="0.0000000000000000e+00" purity="4.0959888696670532e-01" nType="-1"/>
              </Node>
            </Node>
            <Node pos="r" depth="3" NCoef="0" IVar="3" Cut="2.7326312661170959e-01" cType="0" res="-9.9000000000000000e+01" rms="0.0000000000000000e+00" purity="4.3048134446144104e-01" nType="0">
              <Node pos="l" depth="4" NCoef="0" IVar="15" Cut="1.0745038986206055e+01" cType="0" res="-9.9000000000000000e+01" rms="0.0000000000000000e+00" purity="4.6674731373786926e-01" nType="0">
                <Node pos="l" depth="5" NCoef="0" IVar="-1" Cut="0.0000000000000000e+00" cType="1" res="-9.9000000000000000e+01" rms="0.0000000000000000e+00" purity="5.0294876098632812e-01" nType="1"/>
                <Node pos="r" depth="5" NCoef="0" IVar="-1" Cut="0.0000000000000000e+00" cType="1" res="-9.9000000000000000e+01" rms="0.0000000000000000e+00" purity="3.5566025972366333e-01" nType="-1"/>
              </Node>
              <Node pos="r" depth="4" NCoef="0" IVar="-1" Cut="5.7127143859863281e+01" cType="0" res="-9.9000000000000000e+01" rms="0.0000000000000000e+00" purity="3.0617454648017883e-01" nType="-1"/>
            </Node>
          </Node>
        </Node>
        <Node pos="r" depth="1" NCoef="0" IVar="4" Cut="3.5430616140365601e-01" cType="0" res="-9.9000000000000000e+01" rms="0.0000000000000000e+00" purity="2.6443821191787720e-01" nType="0">
          <Node pos="l" depth="2" NCoef="0" IVar="12" Cut="1.0506185293197632e+00" cType="1" res="-9.9000000000000000e+01" rms="0.0000000000000000e+00" purity="3.5288712382316589e-01" nType="0">
            <Node pos="l" depth="3" NCoef="0" IVar="6" Cut="3.0000000000000000e+00" cType="1" res="-9.9000000000000000e+01" rms="0.0000000000000000e+00" purity="4.2887544631958008e-01" nType="0">
              <Node pos="l" depth="4" NCoef="0" IVar="0" Cut="9.8590576171875000e+01" cType="0" res="-9.9000000000000000e+01" rms="0.0000000000000000e+00" purity="4.9473083019256592e-01" nType="0">
                <Node pos="l" depth="5" NCoef="0" IVar="-1" Cut="0.0000000000000000e+00" cType="1" res="-9.9000000000000000e+01" rms="0.0000000000000000e+00" purity="5.3423970937728882e-01" nType="1"/>
                <Node pos="r" depth="5" NCoef="0" IVar="-1" Cut="0.0000000000000000e+00" cType="1" res="-9.9000000000000000e+01" rms="0.0000000000000000e+00" purity="2.8483745455741882e-01" nType="-1"/>
              </Node>
              <Node pos="r" depth="4" NCoef="0" IVar="-1" Cut="3.6621093750000000e-01" cType="0" res="-9.9000000000000000e+01" rms="0.0000000000000000e+00" purity="3.1865525245666504e-01" nType="-1"/>
            </Node>
            <Node pos="r" depth="3" NCoef="0" IVar="-1" Cut="1.6914731264114380e+00" cType="1" res="-9.9000000000000000e+01" rms="0.0000000000000000e+00" purity="2.1746501326560974e-01" nType="-1"/>
          </Node>
          <Node pos="r" depth="2" NCoef="0" IVar="-1" Cut="1.0544382333755493e+00" cType="1" res="-9.9000000000000000e+01" rms="0.0000000000000000e+00" purity="1.2810389697551727e-01" nType="-1"/>
        </Node>
      </Node>
    </BinaryTree>
    <BinaryTree type="DecisionTree" boostWeight="7.0053654500291093e-02" itree="9">
      <Node pos="s" depth="0" NCoef="0" IVar="4" Cut="5.5729168653488159e-01" cType="0" res="-9.9000000000000000e+01" rms="0.0000000000000000e+00" purity="4.7959166765213013e-01" nType="0">
        <Node pos="l" depth="1" NCoef="0" IVar="11" Cut="9.0227705240249634e-01" cType="0" res="-9.9000000000000000e+01" rms="0.0000000000000000e+00" purity="5.6446695327758789e-01" nType="0">
          <Node pos="l" depth="2" NCoef="0" IVar="13" Cut="3.1002855300903320e+00" cType="0" res="-9.9000000000000000e+01" rms="0.0000000000000000e+00" purity="6.1586695909500122e-01" nType="0">
            <Node pos="l" depth="3" NCoef="0" IVar="0" Cut="1.0715196990966797e+02" cType="0" res="-9.9000000000000000e+01" rms="0.0000000000000000e+00" purity="6.9691181182861328e-01" nType="0">
              <Node pos="l" depth="4" NCoef="0" IVar="-1" Cut="1.3163468933105469e+02" cType="1" res="-9.9000000000000000e+01" rms="0.0000000000000000e+00" purity="7.4344235658645630e-01" nType="1"/>
              <Node pos="r" depth="4" NCoef="0" IVar="2" Cut="1.8705006408691406e+02" cType="0" res="-9.9000000000000000e+01" rms="0.0000000000000000e+00" purity="5.2355104684829712e-01" nType="0">
                <Node pos="l" depth="5" NCoef="0" IVar="-1" Cut="0.0000000000000000e+00" cType="1" res="-9.9000000000000000e+01" rms="0.0000000000000000e+00" purity="6.0097497701644897e-01" nType="1"/>
                <Node pos="r" depth="5" NCoef="0" IVar="-1" Cut="0.0000000000000000e+00" cType="1" res="-9.9000000000000000e+01" rms="0.0000000000000000e+00" purity="4.2430877685546875e-01" nType="-1"/>
              </Node>
            </Node>
            <Node pos="r" depth="3" NCoef="0" IVar="12" Cut="8.1763857603073120e-01" cType="1" res="-9.9000000000000000e+01" rms="0.0000000000000000e+00" purity="5.3695416450500488e-01" nType="0">
              <Node pos="l" depth="4" NCoef="0" IVar="3" Cut="3.5395741462707520e-01" cType="0" res="-9.9000000000000000e+01" rms="0.0000000000000000e+00" purity="6.0024029016494751e-01" nType="0">
                <Node pos="l" depth="5" NCoef="0" IVar="-1" Cut="0.0000000000000000e+00" cType="1" res="-9.9000000000000000e+01" rms="0.0000000000000000e+00" purity="6.5272098779678345e-01" nType="1"/>
                <Node pos="r" depth="5" NCoef="0" IVar="-1" Cut="0.0000000000000000e+00" cType="1" res="-9.9000000000000000e+01" rms="0.0000000000000000e+00" purity="4.6756428480148315e-01" nType="-1"/>
              </Node>
              <Node pos="r" depth="4" NCoef="0" IVar="10" Cut="5.6965724945068359e+01" cType="0" res="-9.9000000000000000e+01" rms="0.0000000000000000e+00" purity="4.5232102274894714e-01" nType="0">
                <Node pos="l" depth="5" NCoef="0" IVar="-1" Cut="0.0000000000000000e+00" cType="1" res="-9.9000000000000000e+01" rms="0.0000000000000000e+00" purity="5.0654393434524536e-01" nType="1"/>
                <Node pos="r" depth="5" NCoef="0" IVar="-1" Cut="0.0000000000000000e+00" cType="1" res="-9.9000000000000000e+01" rms="0.0000000000000000e+00" purity="3.5415363311767578e-01" nType="-1"/>
              </Node>
            </Node>
          </Node>
          <Node pos="r" depth="2" NCoef="0" IVar="4" Cut="8.3117091655731201e-01" cType="0" res="-9.9000000000000000e+01" rms="0.0000000000000000e+00" purity="4.5452243089675903e-01" nType="0">
            <Node pos="l" depth="3" NCoef="0" IVar="10" Cut="5.5593547821044922e+01" cType="0" res="-9.9000000000000000e+01" rms="0.0000000000000000e+00" purity="4.9298325181007385e-01" nType="0">
              <Node pos="l" depth="4" NCoef="0" IVar="-1" Cut="7.9971237182617188e+01" cType="0" res="-9.9000000000000000e+01" rms="0.0000000000000000e+00" purity="5.4992794990539551e-01" nType="1"/>
              <Node pos="r" depth="4" NCoef="0" IVar="-1" Cut="4.8740436553955078e+01" cType="0" res="-9.9000000000000000e+01" rms="0.0000000000000000e+00" purity="4.1482281684875488e-01" nType="-1"/>
            </Node>
            <Node pos="r" depth="3" NCoef="0" IVar="9" Cut="4.4226436614990234e+01" cType="0" res="-9.9000000000000000e+01" rms="0.0000000000000000e+00" purity="3.4386724233627319e-01" nType="0">
              <Node pos="l" depth="4" NCoef="0" IVar="10" Cut="7.5739105224609375e+01" cType="0" res="-9.9000000000000000e+01" rms="0.0000000000000000e+00" purity="3.9720326662063599e-01" nType="0">
                <Node pos="l" depth="5" NCoef="0" IVar="-1" Cut="0.0000000000000000e+00" cType="1" res="-9.9000000000000000e+01" rms="0.0000000000000000e+00" purity="5.5562382936477661e-01" nType="1"/>
                <Node pos="r" depth="5" NCoef="0" IVar="-1" Cut="0.0000000000000000e+00" cType="1" res="-9.9000000000000000e+01" rms="0.0000000000000000e+00" purity="3.3968684077262878e-01" nType="-1"/>
              </Node>
              <Node pos="r" depth="4" NCoef="0" IVar="-1" Cut="7.1386718750000000e-01" cType="0" res="-9.9000000000000000e+01" rms="0.0000000000000000e+00" purity="2.2422000765800476e-01" nType="-1"/>
            </Node>
          </Node>
        </Node>
        <Node pos="r" depth="1" NCoef="0" IVar="4" Cut="3.2749721407890320e-01" cType="0" res="-9.9000000000000000e+01" rms="0.0000000000000000e+00" purity="2.3048838973045349e-01" nType="0">
          <Node pos="l" depth="2" NCoef="0" IVar="12" Cut="1.2607421875000000e+00" cType="1" res="-9.9000000000000000e+01" rms="0.0000000000000000e+00" purity="3.1098973751068115e-01" nType="0">
            <Node pos="l" depth="3" NCoef="0" IVar="5" Cut="3.8095238804817200e-01" cType="1" res="-9.9000000000000000e+01" rms="0.0000000000000000e+00" purity="3.7027531862258911e-01" nType="0">
              <Node pos="l" depth="4" NCoef="0" IVar="10" Cut="6.3100669860839844e+01" cType="0" res="-9.9000000000000000e+01" rms="0.0000000000000000e+00" purity="4.4952571392059326e-01" nType="0">
                <Node pos="l" depth="5" NCoef="0" IVar="-1" Cut="0.0000000000000000e+00" cType="1" res="-9.9000000000000000e+01" rms="0.0000000000000000e+00" purity="5.1310396194458008e-01" nType="1"/>
                <Node pos="r" depth="5" NCoef="0" IVar="-1" Cut="0.0000000000000000e+00" cType="1" res="-9.9000000000000000e+01" rms="0.0000000000000000e+00" purity="3.2873186469078064e-01" nType="-1"/>
              </Node>
              <Node pos="r" depth="4" NCoef="0" IVar="-1" Cut="2.6707240939140320e-01" cType="0" res="-9.9000000000000000e+01" rms="0.0000000000000000e+00" purity="2.7593567967414856e-01" nType="-1"/>
            </Node>
            <Node pos="r" depth="3" NCoef="0" IVar="-1" Cut="1.5609189271926880e+00" cType="1" res="-9.9000000000000000e+01" rms="0.0000000000000000e+00" purity="1.3720341026782990e-01" nType="-1"/>
          </Node>
          <Node pos="r" depth="2" NCoef="0" IVar="-1" Cut="2.3818139648437500e+02" cType="0" res="-9.9000000000000000e+01" rms="0.0000000000000000e+00" purity="1.2262246012687683e-01" nType="-1"/>
        </Node>
      </Node>
    </BinaryTree>
    <BinaryTree type="DecisionTree" boostWeight="6.9313255301685014e-02" itree="10">
      <Node pos="s" depth="0" NCoef="0" IVar="4" Cut="5.5729168653488159e-01" cType="0" res="-9.9000000000000000e+01" rms="0.0000000000000000e+00" purity="4.7742053866386414e-01" nType="0">
        <Node pos="l" depth="1" NCoef="0" IVar="12" Cut="8.4697812795639038e-01" cType="1" res="-9.9000000000000000e+01" rms="0.0000000000000000e+00" purity="5.5827111005783081e-01" nType="0">
          <Node pos="l" depth="2" NCoef="0" IVar="13" Cut="3.0155761241912842e+00" cType="0" res="-9.9000000000000000e+01" rms="0.0000000000000000e+00" purity="6.2051528692245483e-01" nType="0">
            <Node pos="l" depth="3" NCoef="0" IVar="0" Cut="1.0714178466796875e+02" cType="0" res="-9.9000000000000000e+01" rms="0.0000000000000000e+00" purity="6.7516821622848511e-01" nType="0">
              <Node pos="l" depth="4" NCoef="0" IVar="-1" Cut="1.3366763305664062e+02" cType="1" res="-9.9000000000000000e+01" rms="0.0000000000000000e+00" purity="7.2316932678222656e-01" nType="1"/>
              <Node pos="r" depth="4" NCoef="0" IVar="0" Cut="9.2451171875000000e+01" cType="0" res="-9.9000000000000000e+01" rms="0.0000000000000000e+00" purity="5.3605973720550537e-01" nType="0">
                <Node pos="l" depth="5" NCoef="0" IVar="-1" Cut="0.0000000000000000e+00" cType="1" res="-9.9000000000000000e+01" rms="0.0000000000000000e+00" purity="5.6058257818222046e-01" nType="1"/>
                <Node pos="r" depth="5" NCoef="0" IVar="-1" Cut="0.0000000000000000e+00" cType="1" res="-9.9000000000000000e+01" rms="0.0000000000000000e+00" purity="3.6431553959846497e-01" nType="-1"/>
              </Node>
            </Node>
            <Node pos="r" depth="3" NCoef="0" IVar="9" Cut="7.3375831604003906e+01" cType="0" res="-9.9000000000000000e+01" rms="0.0000000000000000e+00" purity="5.0794565677642822e-01" nType="0">
              <Node pos="l" depth="4" NCoef="0" IVar="10" Cut="5.8531150817871094e+01" cType="0" res="-9.9000000000000000e+01" rms="0.0000000000000000e+00" purity="5.5750948190689087e-01" nType="0">
                <Node pos="l" depth="5" NCoef="0" IVar="-1" Cut="0.0000000000000000e+00" cType="1" res="-9.9000000000000000e+01" rms="0.0000000000000000e+00" purity="6.3819032907485962e-01" nType="1"/>
                <Node pos="r" depth="5" NCoef="0" IVar="-1" Cut="0.0000000000000000e+00" cType="1" res="-9.9000000000000000e+01" rms="0.0000000000000000e+00" purity="4.3128621578216553e-01" nType="-1"/>
              </Node>
              <Node pos="r" depth="4" NCoef="0" IVar="-1" Cut="8.3117091655731201e-01" cType="0" res="-9.9000000000000000e+01" rms="0.0000000000000000e+00" purity="4.2852672934532166e-01" nType="-1"/>
            </Node>
          </Node>
          <Node pos="r" depth="2" NCoef="0" IVar="10" Cut="7.5732772827148438e+01" cType="0" res="-9.9000000000000000e+01" rms="0.0000000000000000e+00" purity="4.7454580664634705e-01" nType="0">
            <Node pos="l" depth="3" NCoef="0" IVar="9" Cut="4.6260639190673828e+01" cType="0" res="-9.9000000000000000e+01" rms="0.0000000000000000e+00" purity="5.5372250080108643e-01" nType="0">
              <Node pos="l" depth="4" NCoef="0" IVar="-1" Cut="4.2857143282890320e-01" cType="1" res="-9.9000000000000000e+01" rms="0.0000000000000000e+00" purity="6.3875508308410645e-01" nType="1"/>
              <Node pos="r" depth="4" NCoef="0" IVar="14" Cut="1.4285714924335480e-01" cType="1" res="-9.9000000000000000e+01" rms="0.0000000000000000e+00" purity="4.3829861283302307e-01" nType="0">
                <Node pos="l" depth="5" NCoef="0" IVar="-1" Cut="0.0000000000000000e+00" cType="1" res="-9.9000000000000000e+01" rms="0.0000000000000000e+00" purity="5.4185551404953003e-01" nType="1"/>
                <Node pos="r" depth="5" NCoef="0" IVar="-1" Cut="0.0000000000000000e+00" cType="1" res="-9.9000000000000000e+01" rms="0.0000000000000000e+00" purity="3.8988527655601501e-01" nType="-1"/>
              </Node>
            </Node>
            <Node pos="r" depth="3" NCoef="0" IVar="3" Cut="5.5569314956665039e-01" cType="0" res="-9.9000000000000000e+01" rms="0.0000000000000000e+00" purity="4.1291311383247375e-01" nType="0">
              <Node pos="l" depth="4" NCoef="0" IVar="0" Cut="1.3571054077148438e+02" cType="1" res="-9.9000000000000000e+01" rms="0.0000000000000000e+00" purity="4.8255723714828491e-01" nType="0">
                <Node pos="l" depth="5" NCoef="0" IVar="-1" Cut="0.0000000000000000e+00" cType="1" res="-9.9000000000000000e+01" rms="0.0000000000000000e+00" purity="5.1631617546081543e-01" nType="1"/>
                <Node pos="r" depth="5" NCoef="0" IVar="-1" Cut="0.0000000000000000e+00" cType="1" res="-9.9000000000000000e+01" rms="0.0000000000000000e+00" purity="3.6180332303047180e-01" nType="-1"/>
              </Node>
              <Node pos="r" depth="4" NCoef="0" IVar="-1" Cut="4.1230792999267578e+01" cType="0" res="-9.9000000000000000e+01" rms="0.0000000000000000e+00" purity="3.5927626490592957e-01" nType="-1"/>
            </Node>
          </Node>
        </Node>
        <Node pos="r" depth="1" NCoef="0" IVar="-1" Cut="2.2878882288932800e-01" cType="0" res="-9.9000000000000000e+01" rms="0.0000000000000000e+00" purity="2.3774415254592896e-01" nType="-1"/>
      </Node>
    </BinaryTree>
    <BinaryTree type="DecisionTree" boostWeight="6.3245330563220944e-02" itree="11">
      <Node pos="s" depth="0" NCoef="0" IVar="4" Cut="5.1708984375000000e-01" cType="0" res="-9.9000000000000000e+01" rms="0.0000000000000000e+00" purity="4.7748333215713501e-01" nType="0">
        <Node pos="l" depth="1" NCoef="0" IVar="11" Cut="9.0227705240249634e-01" cType="0" res="-9.9000000000000000e+01" rms="0.0000000000000000e+00" purity="5.4853039979934692e-01" nType="0">
          <Node pos="l" depth="2" NCoef="0" IVar="13" Cut="3.1002855300903320e+00" cType="0" res="-9.9000000000000000e+01" rms="0.0000000000000000e+00" purity="5.9737068414688110e-01" nType="0">
            <Node pos="l" depth="3" NCoef="0" IVar="0" Cut="1.0715196990966797e+02" cType="0" res="-9.9000000000000000e+01" rms="0.0000000000000000e+00" purity="6.7579865455627441e-01" nType="0">
              <Node pos="l" depth="4" NCoef="0" IVar="-1" Cut="1.3163468933105469e+02" cType="1" res="-9.9000000000000000e+01" rms="0.0000000000000000e+00" purity="7.2067171335220337e-01" nType="1"/>
              <Node pos="r" depth="4" NCoef="0" IVar="13" Cut="3.1140635013580322e+00" cType="0" res="-9.9000000000000000e+01" rms="0.0000000000000000e+00" purity="5.1242756843566895e-01" nType="0">
                <Node pos="l" depth="5" NCoef="0" IVar="-1" Cut="0.0000000000000000e+00" cType="1" res="-9.9000000000000000e+01" rms="0.0000000000000000e+00" purity="5.5573385953903198e-01" nType="1"/>
                <Node pos="r" depth="5" NCoef="0" IVar="-1" Cut="0.0000000000000000e+00" cType="1" res="-9.9000000000000000e+01" rms="0.0000000000000000e+00" purity="3.8679531216621399e-01" nType="-1"/>
              </Node>
            </Node>
            <Node pos="r" depth="3" NCoef="0" IVar="12" Cut="8.1763857603073120e-01" cType="1" res="-9.9000000000000000e+01" rms="0.0000000000000000e+00" purity="5.2266639471054077e-01" nType="0">
              <Node pos="l" depth="4" NCoef="0" IVar="3" Cut="3.5395741462707520e-01" cType="0" res="-9.9000000000000000e+01" rms="0.0000000000000000e+00" purity="5.8204543590545654e-01" nType="0">
                <Node pos="l" depth="5" NCoef="0" IVar="-1" Cut="0.0000000000000000e+00" cType="1" res="-9.9000000000000000e+01" rms="0.0000000000000000e+00" purity="6.2752205133438110e-01" nType="1"/>
                <Node pos="r" depth="5" NCoef="0" IVar="-1" Cut="0.0000000000000000e+00" cType="1" res="-9.9000000000000000e+01" rms="0.0000000000000000e+00" purity="4.7413864731788635e-01" nType="-1"/>
              </Node>
              <Node pos="r" depth="4" NCoef="0" IVar="3" Cut="6.7673456668853760e-01" cType="0" res="-9.9000000000000000e+01" rms="0.0000000000000000e+00" purity="4.4358548521995544e-01" nType="0">
                <Node pos="l" depth="5" NCoef="0" IVar="-1" Cut="0.0000000000000000e+00" cType="1" res="-9.9000000000000000e+01" rms="0.0000000000000000e+00" purity="5.2253144979476929e-01" nType="1"/>
                <Node pos="r" depth="5" NCoef="0" IVar="-1" Cut="0.0000000000000000e+00" cType="1" res="-9.9000000000000000e+01" rms="0.0000000000000000e+00" purity="3.9686435461044312e-01" nType="-1"/>
              </Node>
            </Node>
          </Node>
          <Node pos="r" depth="2" NCoef="0" IVar="4" Cut="8.1573194265365601e-01" cType="0" res="-9.9000000000000000e+01" rms="0.0000000000000000e+00" purity="4.4655045866966248e-01" nType="0">
            <Node pos="l" depth="3" NCoef="0" IVar="9" Cut="4.8565326690673828e+01" cType="0" res="-9.9000000000000000e+01" rms="0.0000000000000000e+00" purity="4.8782318830490112e-01" nType="0">
              <Node pos="l" depth="4" NCoef="0" IVar="1" Cut="1.9412739562988281e+02" cType="0" res="-9.9000000000000000e+01" rms="0.0000000000000000e+00" purity="5.2038598060607910e-01" nType="0">
                <Node pos="l" depth="5" NCoef="0" IVar="-1" Cut="0.0000000000000000e+00" cType="1" res="-9.9000000000000000e+01" rms="0.0000000000000000e+00" purity="6.2845540046691895e-01" nType="1"/>
                <Node pos="r" depth="5" NCoef="0" IVar="-1" Cut="0.0000000000000000e+00" cType="1" res="-9.9000000000000000e+01" rms="0.0000000000000000e+00" purity="4.9514031410217285e-01" nType="-1"/>
              </Node>
              <Node pos="r" depth="4" NCoef="0" IVar="-1" Cut="6.8532196044921875e+01" cType="0" res="-9.9000000000000000e+01" rms="0.0000000000000000e+00" purity="4.0263918042182922e-01" nType="-1"/>
            </Node>
            <Node pos="r" depth="3" NCoef="0" IVar="9" Cut="6.5408302307128906e+01" cType="0" res="-9.9000000000000000e+01" rms="0.0000000000000000e+00" purity="3.3412274718284607e-01" nType="0">
              <Node pos="l" depth="4" NCoef="0" IVar="10" Cut="6.6150276184082031e+01" cType="0" res="-9.9000000000000000e+01" rms="0.0000000000000000e+00" purity="4.1019099950790405e-01" nType="0">
                <Node pos="l" depth="5" NCoef="0" IVar="-1" Cut="0.0000000000000000e+00" cType="1" res="-9.9000000000000000e+01" rms="0.0000000000000000e+00" purity="6.0757851600646973e-01" nType="1"/>
                <Node pos="r" depth="5" NCoef="0" IVar="-1" Cut="0.0000000000000000e+00" cType="1" res="-9.9000000000000000e+01" rms="0.0000000000000000e+00" purity="3.4922683238983154e-01" nType="-1"/>
              </Node>
              <Node pos="r" depth="4" NCoef="0" IVar="-1" Cut="3.0705913901329041e-01" cType="0" res="-9.9000000000000000e+01" rms="0.0000000000000000e+00" purity="2.5959613919258118e-01" nType="-1"/>
            </Node>
          </Node>
        </Node>
        <Node pos="r" depth="1" NCoef="0" IVar="-1" Cut="2.2106933593750000e-01" cType="0" res="-9.9000000000000000e+01" rms="0.0000000000000000e+00" purity="2.3391735553741455e-01" nType="-1"/>
      </Node>
    </BinaryTree>
    <BinaryTree type="DecisionTree" boostWeight="6.1462493418454313e-02" itree="12">
      <Node pos="s" depth="0" NCoef="0" IVar="4" Cut="4.7688803076744080e-01" cType="0" res="-9.9000000000000000e+01" rms="0.0000000000000000e+00" purity="4.7972312569618225e-01" nType="0">
        <Node pos="l" depth="1" NCoef="0" IVar="4" Cut="8.2535809278488159e-01" cType="0" res="-9.9000000000000000e+01" rms="0.0000000000000000e+00" purity="5.4248034954071045e-01" nType="0">
          <Node pos="l" depth="2" NCoef="0" IVar="1" Cut="1.5159904479980469e+02" cType="0" res="-9.9000000000000000e+01" rms="0.0000000000000000e+00" purity="5.8611452579498291e-01" nType="0">
            <Node pos="l" depth="3" NCoef="0" IVar="0" Cut="1.0714488983154297e+02" cType="0" res="-9.9000000000000000e+01" rms="0.0000000000000000e+00" purity="6.2713205814361572e-01" nType="0">
              <Node pos="l" depth="4" NCoef="0" IVar="0" Cut="1.3571151733398438e+02" cType="1" res="-9.9000000000000000e+01" rms="0.0000000000000000e+00" purity="6.6288250684738159e-01" nType="0">
                <Node pos="l" depth="5" NCoef="0" IVar="-1" Cut="0.0000000000000000e+00" cType="1" res="-9.9000000000000000e+01" rms="0.0000000000000000e+00" purity="6.9777417182922363e-01" nType="1"/>
                <Node pos="r" depth="5" NCoef="0" IVar="-1" Cut="0.0000000000000000e+00" cType="1" res="-9.9000000000000000e+01" rms="0.0000000000000000e+00" purity="4.7506895661354065e-01" nType="-1"/>
              </Node>
              <Node pos="r" depth="4" NCoef="0" IVar="12" Cut="5.7417029142379761e-01" cType="1" res="-9.9000000000000000e+01" rms="0.0000000000000000e+00" purity="5.0459510087966919e-01" nType="0">
                <Node pos="l" depth="5" NCoef="0" IVar="-1" Cut="0.0000000000000000e+00" cType="1" res="-9.9000000000000000e+01" rms="0.0000000000000000e+00" purity="5.7374864816665649e-01" nType="1"/>
                <Node pos="r" depth="5" NCoef="0" IVar="-1" Cut="0.0000000000000000e+00" cType="1" res="-9.9000000000000000e+01" rms="0.0000000000000000e+00" purity="4.5130494236946106e-01" nType="-1"/>
              </Node>
            </Node>
            <Node pos="r" depth="3" NCoef="0" IVar="-1" Cut="1.9057705402374268e+00" cType="1" res="-9.9000000000000000e+01" rms="0.0000000000000000e+00" purity="4.5395863056182861e-01" nType="-1"/>
          </Node>
          <Node pos="r" depth="2" NCoef="0" IVar="12" Cut="1.3667806386947632e+00" cType="1" res="-9.9000000000000000e+01" rms="0.0000000000000000e+00" purity="4.3070793151855469e-01" nType="0">
            <Node pos="l" depth="3" NCoef="0" IVar="3" Cut="2.4822126328945160e-01" cType="0" res="-9.9000000000000000e+01" rms="0.0000000000000000e+00" purity="4.6311470866203308e-01" nType="0">
              <Node pos="l" depth="4" NCoef="0" IVar="6" Cut="1.0000000000000000e+00" cType="1" res="-9.9000000000000000e+01" rms="0.0000000000000000e+00" purity="5.0856453180313110e-01" nType="0">
                <Node pos="l" depth="5" NCoef="0" IVar="-1" Cut="0.0000000000000000e+00" cType="1" res="-9.9000000000000000e+01" rms="0.0000000000000000e+00" purity="6.6858279705047607e-01" nType="1"/>
                <Node pos="r" depth="5" NCoef="0" IVar="-1" Cut="0.0000000000000000e+00" cType="1" res="-9.9000000000000000e+01" rms="0.0000000000000000e+00" purity="4.6914705634117126e-01" nType="-1"/>
              </Node>
              <Node pos="r" depth="4" NCoef="0" IVar="-1" Cut="7.5027778625488281e+01" cType="0" res="-9.9000000000000000e+01" rms="0.0000000000000000e+00" purity="3.6239302158355713e-01" nType="-1"/>
            </Node>
            <Node pos="r" depth="3" NCoef="0" IVar="-1" Cut="1.7573242187500000e+00" cType="1" res="-9.9000000000000000e+01" rms="0.0000000000000000e+00" purity="2.6257014274597168e-01" nType="-1"/>
          </Node>
        </Node>
        <Node pos="r" depth="1" NCoef="0" IVar="-1" Cut="2.2915503382682800e-01" cType="0" res="-9.9000000000000000e+01" rms="0.0000000000000000e+00" purity="2.2559782862663269e-01" nType="-1"/>
      </Node>
    </BinaryTree>
    <BinaryTree type="DecisionTree" boostWeight="5.9477663308311501e-02" itree="13">
      <Node pos="s" depth="0" NCoef="0" IVar="4" Cut="4.7688803076744080e-01" cType="0" res="-9.9000000000000000e+01" rms="0.0000000000000000e+00" purity="4.8410660028457642e-01" nType="0">
        <Node pos="l" depth="1" NCoef="0" IVar="12" Cut="8.4697812795639038e-01" cType="1" res="-9.9000000000000000e+01" rms="0.0000000000000000e+00" purity="5.4462802410125732e-01" nType="0">
          <Node pos="l" depth="2" NCoef="0" IVar="5" Cut="3.3333334326744080e-01" cType="1" res="-9.9000000000000000e+01" rms="0.0000000000000000e+00" purity="6.0239100456237793e-01" nType="0">
            <Node pos="l" depth="3" NCoef="0" IVar="0" Cut="1.4141950988769531e+02" cType="1" res="-9.9000000000000000e+01" rms="0.0000000000000000e+00" purity="6.6083478927612305e-01" nType="0">
              <Node pos="l" depth="4" NCoef="0" IVar="-1" Cut="1.0469087982177734e+02" cType="0" res="-9.9000000000000000e+01" rms="0.0000000000000000e+00" purity="6.7765873670578003e-01" nType="1"/>
              <Node pos="r" depth="4" NCoef="0" IVar="11" Cut="1.0563448667526245e+00" cType="0" res="-9.9000000000000000e+01" rms="0.0000000000000000e+00" purity="3.5206922888755798e-01" nType="0">
                <Node pos="l" depth="5" NCoef="0" IVar="-1" Cut="0.0000000000000000e+00" cType="1" res="-9.9000000000000000e+01" rms="0.0000000000000000e+00" purity="6.1898207664489746e-01" nType="1"/>
                <Node pos="r" depth="5" NCoef="0" IVar="-1" Cut="0.0000000000000000e+00" cType="1" res="-9.9000000000000000e+01" rms="0.0000000000000000e+00" purity="3.1409457325935364e-01" nType="-1"/>
              </Node>
            </Node>
            <Node pos="r" depth="3" NCoef="0" IVar="9" Cut="8.8691314697265625e+01" cType="0" res="-9.9000000000000000e+01" rms="0.0000000000000000e+00" purity="5.1942431926727295e-01" nType="0">
              <Node pos="l" depth="4" NCoef="0" IVar="10" Cut="5.5907794952392578e+01" cType="0" res="-9.9000000000000000e+01" rms="0.0000000000000000e+00" purity="5.9057450294494629e-01" nType="0">
                <Node pos="l" depth="5" NCoef="0" IVar="-1" Cut="0.0000000000000000e+00" cType="1" res="-9.9000000000000000e+01" rms="0.0000000000000000e+00" purity="6.6484993696212769e-01" nType="1"/>
                <Node pos="r" depth="5" NCoef="0" IVar="-1" Cut="0.0000000000000000e+00" cType="1" res="-9.9000000000000000e+01" rms="0.0000000000000000e+00" purity="4.7362029552459717e-01" nType="-1"/>
              </Node>
              <Node pos="r" depth="4" NCoef="0" IVar="9" Cut="4.9440227508544922e+01" cType="0" res="-9.9000000000000000e+01" rms="0.0000000000000000e+00" purity="4.5185235142707825e-01" nType="0">
                <Node pos="l" depth="5" NCoef="0" IVar="-1" Cut="0.0000000000000000e+00" cType="1" res="-9.9000000000000000e+01" rms="0.0000000000000000e+00" purity="5.1633858680725098e-01" nType="1"/>
                <Node pos="r" depth="5" NCoef="0" IVar="-1" Cut="0.0000000000000000e+00" cType="1" res="-9.9000000000000000e+01" rms="0.0000000000000000e+00" purity="3.7457340955734253e-01" nType="-1"/>
              </Node>
            </Node>
          </Node>
          <Node pos="r" depth="2" NCoef="0" IVar="4" Cut="8.0047899484634399e-01" cType="0" res="-9.9000000000000000e+01" rms="0.0000000000000000e+00" purity="4.6848165988922119e-01" nType="0">
            <Node pos="l" depth="3" NCoef="0" IVar="10" Cut="7.3792510986328125e+01" cType="0" res="-9.9000000000000000e+01" rms="0.0000000000000000e+00" purity="5.0896310806274414e-01" nType="0">
              <Node pos="l" depth="4" NCoef="0" IVar="13" Cut="3.0724122524261475e+00" cType="0" res="-9.9000000000000000e+01" rms="0.0000000000000000e+00" purity="5.6966722011566162e-01" nType="0">
                <Node pos="l" depth="5" NCoef="0" IVar="-1" Cut="0.0000000000000000e+00" cType="1" res="-9.9000000000000000e+01" rms="0.0000000000000000e+00" purity="6.4855688810348511e-01" nType="1"/>
                <Node pos="r" depth="5" NCoef="0" IVar="-1" Cut="0.0000000000000000e+00" cType="1" res="-9.9000000000000000e+01" rms="0.0000000000000000e+00" purity="4.8929572105407715e-01" nType="-1"/>
              </Node>
              <Node pos="r" depth="4" NCoef="0" IVar="-1" Cut="1.8754522800445557e+00" cType="1" res="-9.9000000000000000e+01" rms="0.0000000000000000e+00" purity="4.5624879002571106e-01" nType="-1"/>
            </Node>
            <Node pos="r" depth="3" NCoef="0" IVar="-1" Cut="1.7766925096511841e+00" cType="1" res="-9.9000000000000000e+01" rms="0.0000000000000000e+00" purity="3.6082169413566589e-01" nType="-1"/>
          </Node>
        </Node>
        <Node pos="r" depth="1" NCoef="0" IVar="-1" Cut="2.2915503382682800e-01" cType="0" res="-9.9000000000000000e+01" rms="0.0000000000000000e+00" purity="2.3660552501678467e-01" nType="-1"/>
      </Node>
    </BinaryTree>
    <BinaryTree type="DecisionTree" boostWeight="5.8270852636415252e-02" itree="14">
      <Node pos="s" depth="0" NCoef="0" IVar="4" Cut="4.7688803076744080e-01" cType="0" res="-9.9000000000000000e+01" rms="0.0000000000000000e+00" purity="4.8632019758224487e-01" nType="0">
        <Node pos="l" depth="1" NCoef="0" IVar="3" Cut="3.1361025571823120e-01" cType="0" res="-9.9000000000000000e+01" rms="0.0000000000000000e+00" purity="5.4417520761489868e-01" nType="0">
          <Node pos="l" depth="2" NCoef="0" IVar="6" Cut="2.0000000000000000e+00" cType="1" res="-9.9000000000000000e+01" rms="0.0000000000000000e+00" purity="5.8290374279022217e-01" nType="0">
            <Node pos="l" depth="3" NCoef="0" IVar="1" Cut="1.9002870178222656e+02" cType="0" res="-9.9000000000000000e+01" rms="0.0000000000000000e+00" purity="6.5138244628906250e-01" nType="0">
              <Node pos="l" depth="4" NCoef="0" IVar="-1" Cut="1.0714176177978516e+02" cType="0" res="-9.9000000000000000e+01" rms="0.0000000000000000e+00" purity="7.4248677492141724e-01" nType="1"/>
              <Node pos="r" depth="4" NCoef="0" IVar="12" Cut="1.4759937524795532e+00" cType="1" res="-9.9000000000000000e+01" rms="0.0000000000000000e+00" purity="5.7188820838928223e-01" nType="0">
                <Node pos="l" depth="5" NCoef="0" IVar="-1" Cut="0.0000000000000000e+00" cType="1" res="-9.9000000000000000e+01" rms="0.0000000000000000e+00" purity="5.9528207778930664e-01" nType="1"/>
                <Node pos="r" depth="5" NCoef="0" IVar="-1" Cut="0.0000000000000000e+00" cType="1" res="-9.9000000000000000e+01" rms="0.0000000000000000e+00" purity="4.0850368142127991e-01" nType="-1"/>
              </Node>
            </Node>
            <Node pos="r" depth="3" NCoef="0" IVar="9" Cut="8.8691864013671875e+01" cType="0" res="-9.9000000000000000e+01" rms="0.0000000000000000e+00" purity="5.2550858259201050e-01" nType="0">
              <Node pos="l" depth="4" NCoef="0" IVar="10" Cut="5.5909622192382812e+01" cType="0" res="-9.9000000000000000e+01" rms="0.0000000000000000e+00" purity="5.8234155178070068e-01" nType="0">
                <Node pos="l" depth="5" NCoef="0" IVar="-1" Cut="0.0000000000000000e+00" cType="1" res="-9.9000000000000000e+01" rms="0.0000000000000000e+00" purity="6.6919803619384766e-01" nType="1"/>
                <Node pos="r" depth="5" NCoef="0" IVar="-1" Cut="0.0000000000000000e+00" cType="1" res="-9.9000000000000000e+01" rms="0.0000000000000000e+00" purity="4.8369351029396057e-01" nType="-1"/>
              </Node>
              <Node pos="r" depth="4" NCoef="0" IVar="9" Cut="4.2898944854736328e+01" cType="0" res="-9.9000000000000000e+01" rms="0.0000000000000000e+00" purity="4.7613766789436340e-01" nType="0">
                <Node pos="l" depth="5" NCoef="0" IVar="-1" Cut="0.0000000000000000e+00" cType="1" res="-9.9000000000000000e+01" rms="0.0000000000000000e+00" purity="5.2356564998626709e-01" nType="1"/>
                <Node pos="r" depth="5" NCoef="0" IVar="-1" Cut="0.0000000000000000e+00" cType="1" res="-9.9000000000000000e+01" rms="0.0000000000000000e+00" purity="3.8867744803428650e-01" nType="-1"/>
              </Node>
            </Node>
          </Node>
          <Node pos="r" depth="2" NCoef="0" IVar="4" Cut="7.7559989690780640e-01" cType="0" res="-9.9000000000000000e+01" rms="0.0000000000000000e+00" purity="4.4014620780944824e-01" nType="0">
            <Node pos="l" depth="3" NCoef="0" IVar="5" Cut="3.3333334326744080e-01" cType="1" res="-9.9000000000000000e+01" rms="0.0000000000000000e+00" purity="4.9691227078437805e-01" nType="0">
              <Node pos="l" depth="4" NCoef="0" IVar="10" Cut="6.3219333648681641e+01" cType="0" res="-9.9000000000000000e+01" rms="0.0000000000000000e+00" purity="5.5746966600418091e-01" nType="0">
                <Node pos="l" depth="5" NCoef="0" IVar="-1" Cut="0.0000000000000000e+00" cType="1" res="-9.9000000000000000e+01" rms="0.0000000000000000e+00" purity="6.2160146236419678e-01" nType="1"/>
                <Node pos="r" depth="5" NCoef="0" IVar="-1" Cut="0.0000000000000000e+00" cType="1" res="-9.9000000000000000e+01" rms="0.0000000000000000e+00" purity="4.4885450601577759e-01" nType="-1"/>
              </Node>
              <Node pos="r" depth="4" NCoef="0" IVar="-1" Cut="9.7779983520507812e+01" cType="1" res="-9.9000000000000000e+01" rms="0.0000000000000000e+00" purity="4.1698801517486572e-01" nType="-1"/>
            </Node>
            <Node pos="r" depth="3" NCoef="0" IVar="-1" Cut="1.3667806386947632e+00" cType="1" res="-9.9000000000000000e+01" rms="0.0000000000000000e+00" purity="3.6330130696296692e-01" nType="-1"/>
          </Node>
        </Node>
        <Node pos="r" depth="1" NCoef="0" IVar="3" Cut="2.2915503382682800e-01" cType="0" res="-9.9000000000000000e+01" rms="0.0000000000000000e+00" purity="2.4759519100189209e-01" nType="0">
          <Node pos="l" depth="2" NCoef="0" IVar="12" Cut="1.3354549407958984e+00" cType="1" res="-9.9000000000000000e+01" rms="0.0000000000000000e+00" purity="3.7168899178504944e-01" nType="0">
            <Node pos="l" depth="3" NCoef="0" IVar="6" Cut="4.0000000000000000e+00" cType="1" res="-9.9000000000000000e+01" rms="0.0000000000000000e+00" purity="4.3085315823554993e-01" nType="0">
              <Node pos="l" depth="4" NCoef="0" IVar="0" Cut="9.5770187377929688e+01" cType="0" res="-9.9000000000000000e+01" rms="0.0000000000000000e+00" purity="4.7854515910148621e-01" nType="0">
                <Node pos="l" depth="5" NCoef="0" IVar="-1" Cut="0.0000000000000000e+00" cType="1" res="-9.9000000000000000e+01" rms="0.0000000000000000e+00" purity="5.1227217912673950e-01" nType="1"/>
                <Node pos="r" depth="5" NCoef="0" IVar="-1" Cut="0.0000000000000000e+00" cType="1" res="-9.9000000000000000e+01" rms="0.0000000000000000e+00" purity="1.9550465047359467e-01" nType="-1"/>
              </Node>
              <Node pos="r" depth="4" NCoef="0" IVar="-1" Cut="4.0788921713829041e-01" cType="0" res="-9.9000000000000000e+01" rms="0.0000000000000000e+00" purity="2.7244433760643005e-01" nType="-1"/>
            </Node>
            <Node pos="r" depth="3" NCoef="0" IVar="-1" Cut="1.9715052843093872e+00" cType="1" res="-9.9000000000000000e+01" rms="0.0000000000000000e+00" purity="1.5627013146877289e-01" nType="-1"/>
          </Node>
          <Node pos="r" depth="2" NCoef="0" IVar="-1" Cut="1.0543712377548218e+00" cType="1" res="-9.9000000000000000e+01" rms="0.0000000000000000e+00" purity="1.7858712375164032e-01" nType="-1"/>
        </Node>
      </Node>
    </BinaryTree>
    <BinaryTree type="DecisionTree" boostWeight="5.3138361831919612e-02" itree="15">
      <Node pos="s" depth="0" NCoef="0" IVar="4" Cut="3.9648437500000000e-01" cType="0" res="-9.9000000000000000e+01" rms="0.0000000000000000e+00" purity="4.8562186956405640e-01" nType="0">
        <Node pos="l" depth="1" NCoef="0" IVar="4" Cut="7.9850262403488159e-01" cType="0" res="-9.9000000000000000e+01" rms="0.0000000000000000e+00" purity="5.3228765726089478e-01" nType="0">
          <Node pos="l" depth="2" NCoef="0" IVar="13" Cut="3.0155761241912842e+00" cType="0" res="-9.9000000000000000e+01" rms="0.0000000000000000e+00" purity="5.7610815763473511e-01" nType="0">
            <Node pos="l" depth="3" NCoef="0" IVar="10" Cut="6.4829933166503906e+01" cType="0" res="-9.9000000000000000e+01" rms="0.0000000000000000e+00" purity="6.1856704950332642e-01" nType="0">
              <Node pos="l" depth="4" NCoef="0" IVar="-1" Cut="5.0529468536376953e+01" cType="0" res="-9.9000000000000000e+01" rms="0.0000000000000000e+00" purity="6.6643506288528442e-01" nType="1"/>
              <Node pos="r" depth="4" NCoef="0" IVar="3" Cut="8.3812314271926880e-01" cType="0" res="-9.9000000000000000e+01" rms="0.0000000000000000e+00" purity="5.2266228199005127e-01" nType="0">
                <Node pos="l" depth="5" NCoef="0" IVar="-1" Cut="0.0000000000000000e+00" cType="1" res="-9.9000000000000000e+01" rms="0.0000000000000000e+00" purity="6.3094145059585571e-01" nType="1"/>
                <Node pos="r" depth="5" NCoef="0" IVar="-1" Cut="0.0000000000000000e+00" cType="1" res="-9.9000000000000000e+01" rms="0.0000000000000000e+00" purity="4.8856559395790100e-01" nType="-1"/>
              </Node>
            </Node>
            <Node pos="r" depth="3" NCoef="0" IVar="0" Cut="1.0428872680664062e+02" cType="0" res="-9.9000000000000000e+01" rms="0.0000000000000000e+00" purity="4.9790254235267639e-01" nType="0">
              <Node pos="l" depth="4" NCoef="0" IVar="8" Cut="7.8970390319824219e+01" cType="1" res="-9.9000000000000000e+01" rms="0.0000000000000000e+00" purity="5.2035552263259888e-01" nType="0">
                <Node pos="l" depth="5" NCoef="0" IVar="-1" Cut="0.0000000000000000e+00" cType="1" res="-9.9000000000000000e+01" rms="0.0000000000000000e+00" purity="5.3872561454772949e-01" nType="1"/>
                <Node pos="r" depth="5" NCoef="0" IVar="-1" Cut="0.0000000000000000e+00" cType="1" res="-9.9000000000000000e+01" rms="0.0000000000000000e+00" purity="3.9281454682350159e-01" nType="-1"/>
              </Node>
              <Node pos="r" depth="4" NCoef="0" IVar="-1" Cut="9.6405563354492188e+01" cType="1" res="-9.9000000000000000e+01" rms="0.0000000000000000e+00" purity="4.1172009706497192e-01" nType="-1"/>
            </Node>
          </Node>
          <Node pos="r" depth="2" NCoef="0" IVar="12" Cut="1.4708658456802368e+00" cType="1" res="-9.9000000000000000e+01" rms="0.0000000000000000e+00" purity="4.3070033192634583e-01" nType="0">
            <Node pos="l" depth="3" NCoef="0" IVar="3" Cut="2.4417550861835480e-01" cType="0" res="-9.9000000000000000e+01" rms="0.0000000000000000e+00" purity="4.6116617321968079e-01" nType="0">
              <Node pos="l" depth="4" NCoef="0" IVar="5" Cut="1.1428571939468384e+00" cType="1" res="-9.9000000000000000e+01" rms="0.0000000000000000e+00" purity="5.0501829385757446e-01" nType="0">
                <Node pos="l" depth="5" NCoef="0" IVar="-1" Cut="0.0000000000000000e+00" cType="1" res="-9.9000000000000000e+01" rms="0.0000000000000000e+00" purity="5.3188353776931763e-01" nType="1"/>
                <Node pos="r" depth="5" NCoef="0" IVar="-1" Cut="0.0000000000000000e+00" cType="1" res="-9.9000000000000000e+01" rms="0.0000000000000000e+00" purity="3.5288983583450317e-01" nType="-1"/>
              </Node>
              <Node pos="r" depth="4" NCoef="0" IVar="-1" Cut="9.8571731567382812e+01" cType="0" res="-9.9000000000000000e+01" rms="0.0000000000000000e+00" purity="3.7429487705230713e-01" nType="-1"/>
            </Node>
            <Node pos="r" depth="3" NCoef="0" IVar="-1" Cut="5.8761161565780640e-01" cType="0" res="-9.9000000000000000e+01" rms="0.0000000000000000e+00" purity="2.3927789926528931e-01" nType="-1"/>
          </Node>
        </Node>
        <Node pos="r" depth="1" NCoef="0" IVar="5" Cut="3.3333334326744080e-01" cType="1" res="-9.9000000000000000e+01" rms="0.0000000000000000e+00" purity="2.0558454096317291e-01" nType="0">
          <Node pos="l" depth="2" NCoef="0" IVar="4" Cut="2.8149414062500000e-01" cType="0" res="-9.9000000000000000e+01" rms="0.0000000000000000e+00" purity="2.8751429915428162e-01" nType="0">
            <Node pos="l" depth="3" NCoef="0" IVar="12" Cut="6.5475678443908691e-01" cType="1" res="-9.9000000000000000e+01" rms="0.0000000000000000e+00" purity="3.8066086173057556e-01" nType="0">
              <Node pos="l" depth="4" NCoef="0" IVar="9" Cut="4.8012641906738281e+01" cType="0" res="-9.9000000000000000e+01" rms="0.0000000000000000e+00" purity="5.1362133026123047e-01" nType="0">
                <Node pos="l" depth="5" NCoef="0" IVar="-1" Cut="0.0000000000000000e+00" cType="1" res="-9.9000000000000000e+01" rms="0.0000000000000000e+00" purity="5.7564157247543335e-01" nType="1"/>
